{"learner":{"attributes":{"scikit_learn":"{\"_estimator_type\": \"regressor\"}"},"feature_names":[],"feature_types":[],"gradient_booster":{"model":{"gbtree_model_param":{"num_parallel_tree":"1","num_trees":"100"},"iteration_indptr":[0,1,2,3,4,5,6,7,8,9,10,11,12,13,14,15,16,17,18,19,20,21,22,23,24,25,26,27,28,29,30,31,32,33,34,35,36,37,38,39,40,41,42,43,44,45,46,47,48,49,50,51,52,53,54,55,56,57,58,59,60,61,62,63,64,65,66,67,68,69,70,71,72,73,74,75,76,77,78,79,80,81,82,83,84,85,86,87,88,89,90,91,92,93,94,95,96,97,98,99,100],"tree_info":[0,0,0,0,0,0,0,0,0,0,0,0,0,0,0,0,0,0,0,0,0,0,0,0,0,0,0,0,0,0,0,0,0,0,0,0,0,0,0,0,0,0,0,0,0,0,0,0,0,0,0,0,0,0,0,0,0,0,0,0,0,0,0,0,0,0,0,0,0,0,0,0,0,0,0,0,0,0,0,0,0,0,0,0,0,0,0,0,0,0,0,0,0,0,0,0,0,0,0,0],"trees":[{"base_weights":[-5.6135148E-2,-2.908648E-1,2.4592689E-1,-7.858049E-1,-1.435705E-1,1.2524538E-1,3.3060532E0,-7.213911E-1,-4.1668353E0,-1.2593783E0,-5.435838E-2,-2.5401926E-1,3.3625185E-1,8.7538195E-1,6.9556603E0,-8.490906E-1,7.0889E-1,1.3021929E1,-5.1771173E0,-2.3458605E0,-1.9412095E-2,-3.7295297E-1,1.3293524E-1,-3.149699E0,-1.8595515E-1,4.0364516E-1,-1.0975801E0,5.6284416E-1,1.5033325E1,8.179831E0,-2.3499968E0,-1.16535045E-1,-3.7415445E-1,1.5926781E-1,1.21566E1,1.0169102E1,6.6455793E-1,1.3501372E0,-1.7717172E0,-8.799817E-1,3.771468E-1,2.9893181E0,-1.0702607E-1,-8.6540595E-2,-6.751708E-1,1.0900237E-2,3.957391E-1,3.1300697E0,-1.0901158E0,-9.442937E-2,3.295546E-1,1.16180256E-1,2.0815403E0,1.1217613E0,-5.904454E-1,-5.288816E-4,2.397181E0,7.385468E0,-5.5487424E-1,1.9555662E0,4.686388E0,-9.899439E-1,4.184101E0],"categories":[],"categories_nodes":[],"categories_segments":[],"categories_sizes":[],"default_left":[0,0,0,0,0,0,0,0,0,0,0,0,0,0,0,0,0,0,0,0,0,0,0,0,0,0,0,0,0,0,0,0,0,0,0,0,0,0,0,0,0,0,0,0,0,0,0,0,0,0,0,0,0,0,0,0,0,0,0,0,0,0,0],"id":0,"left_children":[1,3,5,7,9,11,13,15,17,19,21,23,25,27,29,31,33,35,37,39,41,43,45,47,49,51,53,55,57,59,61,-1,-1,-1,-1,-1,-1,-1,-1,-1,-1,-1,-1,-1,-1,-1,-1,-1,-1,-1,-1,-1,-1,-1,-1,-1,-1,-1,-1,-1,-1,-1,-1],"loss_changes":[4.619964E3,2.6729075E3,1.0522071E4,1.8283496E3,2.812834E3,2.1938738E3,9.583456E3,1.5079805E3,2.7937996E3,2.8182996E3,1.5614536E3,1.9309146E3,1.7024954E3,2.8677185E3,4.9404375E3,1.3889609E3,4.776135E3,1.9552343E3,1.077198E3,2.3635327E3,3.2974116E3,1.5361503E3,1.8883584E3,1.5171921E3,1.5847124E3,1.7979031E3,3.3380747E3,2.6714429E3,2.3110276E3,4.62058E3,8.354595E2,0E0,0E0,0E0,0E0,0E0,0E0,0E0,0E0,0E0,0E0,0E0,0E0,0E0,0E0,0E0,0E0,0E0,0E0,0E0,0E0,0E0,0E0,0E0,0E0,0E0,0E0,0E0,0E0,0E0,0E0,0E0,0E0],"parents":[2147483647,0,0,1,1,2,2,3,3,4,4,5,5,6,6,7,7,8,8,9,9,10,10,11,11,12,12,13,13,14,14,15,15,16,16,17,17,18,18,19,19,20,20,21,21,22,22,23,23,24,24,25,25,26,26,27,27,28,28,29,29,30,30],"right_children":[2,4,6,8,10,12,14,16,18,20,22,24,26,28,30,32,34,36,38,40,42,44,46,48,50,52,54,56,58,60,62,-1,-1,-1,-1,-1,-1,-1,-1,-1,-1,-1,-1,-1,-1,-1,-1,-1,-1,-1,-1,-1,-1,-1,-1,-1,-1,-1,-1,-1,-1,-1,-1],"split_conditions":[5.397464E-1,3.6285612E-1,8.298069E-1,8.6706924E-1,1.854956E-1,3.44666E-1,6.1355793E-1,8.230499E-1,1.3476127E-1,3.3394632E-1,4.6337175E-1,1.1947308E-1,8.329611E-1,8.5449576E-1,6.361389E-1,4.915864E-1,9.324503E-1,4.9629933E-1,1.5558313E-1,7.526419E-1,3.3923793E-1,5.2527785E-1,8.144846E-1,5.572847E-1,7.9302925E-1,8.276854E-1,3.8606137E-1,8.316319E-1,6.6407996E-1,7.8630775E-1,8.933747E-1,-1.16535045E-1,-3.7415445E-1,1.5926781E-1,1.21566E1,1.0169102E1,6.6455793E-1,1.3501372E0,-1.7717172E0,-8.799817E-1,3.771468E-1,2.9893181E0,-1.0702607E-1,-8.6540595E-2,-6.751708E-1,1.0900237E-2,3.957391E-1,3.1300697E0,-1.0901158E0,-9.442937E-2,3.295546E-1,1.16180256E-1,2.0815403E0,1.1217613E0,-5.904454E-1,-5.288816E-4,2.397181E0,7.385468E0,-5.5487424E-1,1.9555662E0,4.686388E0,-9.899439E-1,4.184101E0],"split_indices":[1,3,3,5,7,3,4,0,7,1,2,4,0,0,6,0,6,4,3,5,1,1,0,1,0,0,3,1,7,7,1,0,0,0,0,0,0,0,0,0,0,0,0,0,0,0,0,0,0,0,0,0,0,0,0,0,0,0,0,0,0,0,0],"split_type":[0,0,0,0,0,0,0,0,0,0,0,0,0,0,0,0,0,0,0,0,0,0,0,0,0,0,0,0,0,0,0,0,0,0,0,0,0,0,0,0,0,0,0,0,0,0,0,0,0,0,0,0,0,0,0,0,0,0,0,0,0,0,0],"sum_hessian":[6.5157E4,3.6665E4,2.8492E4,8.408E3,2.8257E4,2.7412E4,1.08E3,8.252E3,1.56E2,2.091E3,2.6166E4,9.799E3,1.7613E4,6.49E2,4.31E2,7.576E3,6.76E2,8E0,1.48E2,1.114E3,9.77E2,9.687E3,1.6479E4,2.24E2,9.575E3,1.6823E4,7.9E2,6.36E2,1.3E1,3.81E2,5E1,3.513E3,4.063E3,6.74E2,2E0,2E0,6E0,1E1,1.38E2,9.58E2,1.56E2,3.1E1,9.46E2,9.271E3,4.16E2,1.5239E4,1.24E3,7E0,2.17E2,8.703E3,8.72E2,1.6782E4,4.1E1,1.2E2,6.7E2,5.92E2,4.4E1,8E0,5E0,3.13E2,6.8E1,4.8E1,2E0],"tree_param":{"num_deleted":"0","num_feature":"8","num_nodes":"63","size_leaf_vector":"1"}},{"base_weights":[-3.8553078E-2,-7.1589224E-2,1.3372071E0,-2.311118E-1,1.3055179E-1,8.892621E-2,3.7995958E0,2.0046258E0,-2.5319725E-1,1.613623E-2,1.0837178E0,7.289607E-1,-3.0743375E0,1.1862028E0,9.734596E0,3.8458027E1,1.6827621E0,-1.755846E-1,-9.42472E-1,8.643183E-1,-8.154149E-2,-3.9832957E0,1.299296E0,-3.1841382E-1,2.936549E0,6.1088696E0,-4.992801E0,4.8542515E1,7.8380066E-1,8.589275E0,2.4155294E1,1.6790558E1,5.155558E-1,8.1998244E-2,1.8436528E0,-1.1467668E-1,3.46285E-2,-1.8515019E-1,-8.349271E-1,-3.6117464E-1,3.89708E-1,-4.4604547E-2,2.909759E-1,-1.5265136E0,1.2937574E0,4.769263E-1,-8.020361E-1,-4.3556148E-1,1.1419948E0,3.7223275E0,6.0356045E-1,-1.2628161E0,2.8296676E0,-2.072623E0,-5.509547E-1,-2.7060597E0,2.4550192E1,2.9595634E-2,4.9058805E0,4.088724E0,1.4568157E0,1.4452467E1,1.0643055E0],"categories":[],"categories_nodes":[],"categories_segments":[],"categories_sizes":[],"default_left":[0,0,0,0,0,0,0,0,0,0,0,0,0,0,0,0,0,0,0,0,0,0,0,0,0,0,0,0,0,0,0,0,0,0,0,0,0,0,0,0,0,0,0,0,0,0,0,0,0,0,0,0,0,0,0,0,0,0,0,0,0,0,0],"id":1,"left_children":[1,3,5,7,9,11,13,15,17,19,21,23,25,27,29,31,33,35,37,39,41,43,45,47,49,51,53,55,57,59,61,-1,-1,-1,-1,-1,-1,-1,-1,-1,-1,-1,-1,-1,-1,-1,-1,-1,-1,-1,-1,-1,-1,-1,-1,-1,-1,-1,-1,-1,-1,-1,-1],"loss_changes":[2.9615144E3,2.0518787E3,4.696356E3,1.7566106E3,3.060886E3,2.057208E3,7.9608447E3,4.0183772E3,1.8838721E3,2.0762537E3,3.2909285E3,1.9547202E3,3.043119E3,6.7840996E3,2.3855889E3,1.8337979E3,2.174643E3,1.9039001E3,2.132269E3,2.3283784E3,1.5866356E3,1.1495547E3,3.334455E3,2.6893125E3,2.3571716E3,1.0684412E3,8.4602295E2,6.4871973E3,3.795899E3,2.69958E3,5.2739414E3,0E0,0E0,0E0,0E0,0E0,0E0,0E0,0E0,0E0,0E0,0E0,0E0,0E0,0E0,0E0,0E0,0E0,0E0,0E0,0E0,0E0,0E0,0E0,0E0,0E0,0E0,0E0,0E0,0E0,0E0,0E0,0E0],"parents":[2147483647,0,0,1,1,2,2,3,3,4,4,5,5,6,6,7,7,8,8,9,9,10,10,11,11,12,12,13,13,14,14,15,15,16,16,17,17,18,18,19,19,20,20,21,21,22,22,23,23,24,24,25,25,26,26,27,27,28,28,29,29,30,30],"right_children":[2,4,6,8,10,12,14,16,18,20,22,24,26,28,30,32,34,36,38,40,42,44,46,48,50,52,54,56,58,60,62,-1,-1,-1,-1,-1,-1,-1,-1,-1,-1,-1,-1,-1,-1,-1,-1,-1,-1,-1,-1,-1,-1,-1,-1,-1,-1,-1,-1,-1,-1,-1,-1],"split_conditions":[8.8092166E-1,5.397464E-1,6.0867935E-1,9.661126E-2,7.23003E-1,7.806011E-1,5.933114E-1,8.9338504E-2,7.844585E-1,5.697903E-1,1.8996893E-1,6.807828E-1,3.0480078E-1,1.0920034E-1,8.5498446E-1,4.0991175E-1,7.1942353E-1,5.480631E-1,7.157119E-1,2.808115E-1,8.3198744E-1,7.1066403E-1,7.9447436E-1,6.8372566E-1,6.948648E-1,3.18603E-1,5.773957E-1,2.0313406E-1,9.061389E-1,2.600294E-1,9.064723E-1,1.6790558E1,5.155558E-1,8.1998244E-2,1.8436528E0,-1.1467668E-1,3.46285E-2,-1.8515019E-1,-8.349271E-1,-3.6117464E-1,3.89708E-1,-4.4604547E-2,2.909759E-1,-1.5265136E0,1.2937574E0,4.769263E-1,-8.020361E-1,-4.3556148E-1,1.1419948E0,3.7223275E0,6.0356045E-1,-1.2628161E0,2.8296676E0,-2.072623E0,-5.509547E-1,-2.7060597E0,2.4550192E1,2.9595634E-2,4.9058805E0,4.088724E0,1.4568157E0,1.4452467E1,1.0643055E0],"split_indices":[3,1,4,0,3,5,1,3,3,1,7,2,2,5,5,1,5,3,6,0,6,4,6,7,2,7,0,0,5,6,3,0,0,0,0,0,0,0,0,0,0,0,0,0,0,0,0,0,0,0,0,0,0,0,0,0,0,0,0,0,0,0,0],"split_type":[0,0,0,0,0,0,0,0,0,0,0,0,0,0,0,0,0,0,0,0,0,0,0,0,0,0,0,0,0,0,0,0,0,0,0,0,0,0,0,0,0,0,0,0,0,0,0,0,0,0,0,0,0,0,0,0,0,0,0,0,0,0,0],"sum_hessian":[6.5157E4,6.363E4,1.527E3,3.5564E4,2.8066E4,1.014E3,5.13E2,3.47E2,3.5217E4,2.5059E4,3.007E3,8.44E2,1.7E2,3.57E2,1.56E2,2E0,3.45E2,3.1654E4,3.563E3,2.587E3,2.2472E4,1.22E2,2.885E3,5.73E2,2.71E2,2.9E1,1.41E2,2E0,3.55E2,1.46E2,1E1,1E0,1E0,2.63E2,8.2E1,1.8509E4,1.3145E4,3.029E3,5.34E2,4.49E2,2.138E3,2.1124E4,1.348E3,1.08E2,1.4E1,2.689E3,1.96E2,4.5E2,1.23E2,2.3E1,2.48E2,7E0,2.2E1,8.7E1,5.4E1,1E0,1E0,3.41E2,1.4E1,6.1E1,8.5E1,4E0,6E0],"tree_param":{"num_deleted":"0","num_feature":"8","num_nodes":"63","size_leaf_vector":"1"}},{"base_weights":[-2.5917407E-2,-1.485154E-1,2.2949001E-1,-2.4030337E-1,3.498394E-1,1.6906431E-1,3.1804023E0,-6.231181E-1,-1.11515656E-1,1.4473449E-1,2.1117005E0,-2.403269E-1,3.735402E-1,2.385201E1,2.5204234E0,-3.5744625E-1,-1.6258469E0,-1.3449857E0,-6.380467E-2,8.660163E-2,6.1299663E0,-6.53965E0,2.607693E0,4.0023655E-1,-7.480221E-1,3.0330697E-1,3.13059E0,2.1509775E1,8.634398E0,5.721316E-1,8.593372E0,3.779984E-1,-1.5639101E-1,-1.2417904E0,-3.6134216E-1,-4.4646105E-1,3.640678E0,-2.5105754E-1,-2.279758E-5,4.75192E-1,-4.487153E-2,2.9862225E0,-3.4385908E0,-3.2864382E0,-7.890008E-1,1.1316637E0,5.7925373E-2,2.4397473E-1,-4.793032E-1,1.0631592E0,-2.5832948E-1,7.5398564E-2,1.0946683E0,1.750315E0,3.3632195E-1,-1.4265044E0,6.175424E0,-1.3653156E-2,5.7873716E0,6.518167E0,1.806006E0],"categories":[],"categories_nodes":[],"categories_segments":[],"categories_sizes":[],"default_left":[0,0,0,0,0,0,0,0,0,0,0,0,0,0,0,0,0,0,0,0,0,0,0,0,0,0,0,0,0,0,0,0,0,0,0,0,0,0,0,0,0,0,0,0,0,0,0,0,0,0,0,0,0,0,0,0,0,0,0,0,0],"id":2,"left_children":[1,3,5,7,9,11,13,15,17,19,21,23,25,27,29,31,33,35,37,39,41,43,45,47,49,51,53,-1,55,57,59,-1,-1,-1,-1,-1,-1,-1,-1,-1,-1,-1,-1,-1,-1,-1,-1,-1,-1,-1,-1,-1,-1,-1,-1,-1,-1,-1,-1,-1,-1],"loss_changes":[2.0402897E3,2.0139646E3,3.7677075E3,1.8329231E3,2.474331E3,1.7337369E3,5.7244414E3,2.4926267E3,1.637182E3,2.134073E3,3.0808308E3,2.2439297E3,2.6735579E3,8.846489E3,4.8698164E3,1.961873E3,2.070854E3,2.0182213E3,1.3196309E3,2.1493032E3,4.083228E3,6.4439355E2,1.9000879E3,2.5188733E3,1.87101E3,2.3414946E3,1.8570869E3,0E0,1.85797E3,3.6196926E3,3.2490044E3,0E0,0E0,0E0,0E0,0E0,0E0,0E0,0E0,0E0,0E0,0E0,0E0,0E0,0E0,0E0,0E0,0E0,0E0,0E0,0E0,0E0,0E0,0E0,0E0,0E0,0E0,0E0,0E0,0E0,0E0],"parents":[2147483647,0,0,1,1,2,2,3,3,4,4,5,5,6,6,7,7,8,8,9,9,10,10,11,11,12,12,13,13,14,14,15,15,16,16,17,17,18,18,19,19,20,20,21,21,22,22,23,23,24,24,25,25,26,26,28,28,29,29,30,30],"right_children":[2,4,6,8,10,12,14,16,18,20,22,24,26,28,30,32,34,36,38,40,42,44,46,48,50,52,54,-1,56,58,60,-1,-1,-1,-1,-1,-1,-1,-1,-1,-1,-1,-1,-1,-1,-1,-1,-1,-1,-1,-1,-1,-1,-1,-1,-1,-1,-1,-1,-1,-1],"split_conditions":[6.1355793E-1,7.4299E-1,8.881279E-1,3.3915415E-1,8.2350355E-1,3.9718163E-1,6.2111807E-1,6.2720674E-1,1.5151928E-1,9.0262914E-1,1.1286142E-1,4.1548735E-1,9.135301E-1,3.9045584E-1,6.4609617E-1,1.7870577E-1,2.359075E-1,9.170832E-1,1.854956E-1,7.5956166E-1,7.719737E-1,8.230499E-1,5.559995E-1,7.5532365E-1,6.18508E-1,8.55339E-1,4.3925926E-1,2.1509775E1,2.9632127E-1,8.715503E-1,6.7889065E-1,3.779984E-1,-1.5639101E-1,-1.2417904E0,-3.6134216E-1,-4.4646105E-1,3.640678E0,-2.5105754E-1,-2.279758E-5,4.75192E-1,-4.487153E-2,2.9862225E0,-3.4385908E0,-3.2864382E0,-7.890008E-1,1.1316637E0,5.7925373E-2,2.4397473E-1,-4.793032E-1,1.0631592E0,-2.5832948E-1,7.5398564E-2,1.0946683E0,1.750315E0,3.3632195E-1,-1.4265044E0,6.175424E0,-1.3653156E-2,5.7873716E0,6.518167E0,1.806006E0],"split_indices":[4,0,3,3,6,1,4,0,2,1,4,6,4,5,1,5,7,3,7,0,7,0,3,3,4,3,3,0,1,7,1,0,0,0,0,0,0,0,0,0,0,0,0,0,0,0,0,0,0,0,0,0,0,0,0,0,0,0,0,0,0],"split_type":[0,0,0,0,0,0,0,0,0,0,0,0,0,0,0,0,0,0,0,0,0,0,0,0,0,0,0,0,0,0,0,0,0,0,0,0,0,0,0,0,0,0,0,0,0,0,0,0,0,0,0,0,0,0,0,0,0,0,0,0,0],"sum_hessian":[6.5157E4,4.4025E4,2.1132E4,3.7178E4,6.847E3,2.0709E4,4.23E2,9.358E3,2.782E4,6.134E3,7.13E2,6.898E3,1.3811E4,1.2E1,4.11E2,7.399E3,1.959E3,1.035E3,2.6785E4,6.076E3,5.8E1,3.8E1,6.75E2,3.05E3,3.848E3,1.3469E4,3.42E2,2E0,1E1,3.12E2,9.9E1,6.8E2,6.719E3,2.8E2,1.679E3,1.025E3,1E1,2.039E3,2.4746E4,8.27E2,5.249E3,4.8E1,1E1,1.7E1,2.1E1,4.55E2,2.2E2,2.528E3,5.22E2,9.8E1,3.75E3,1.3264E4,2.05E2,1.45E2,1.97E2,5E0,5E0,3.03E2,9E0,1.5E1,8.4E1],"tree_param":{"num_deleted":"0","num_feature":"8","num_nodes":"61","size_leaf_vector":"1"}},{"base_weights":[-1.7484855E-2,-7.829297E-1,1.3640314E-2,2.826478E0,-1.0652995E0,-2.9748702E-2,6.161729E-1,5.9154854E0,-2.2687477E-1,4.824209E0,-1.2765553E0,-2.870474E-1,5.9209518E-2,4.9751902E-1,6.972334E0,3.6693497E0,1.4945746E1,1.5486293E0,-8.979246E0,6.6794336E-1,1.0975393E1,2.6768994E0,-1.4781016E0,-4.5111114E-1,4.0181303E-1,6.748147E-1,1.4300362E-2,6.9365587E0,3.815635E-1,8.747067E0,-9.428127E0,5.822249E-1,3.7748313E0,6.4355097E0,-4.92432E-1,1.1445701E0,-1.7429614E0,-3.6930363E0,1.2272722E0,4.1994853E0,-1.035248E0,1.2134224E1,2.0039835E0,-5.740458E-1,2.9941843E0,-6.9702566E-1,-1.055534E-1,-1.9381945E-1,1.15537174E-1,1.4783984E0,6.469821E-2,3.128391E0,1.6320159E-1,-4.2189937E-2,5.6162376E-2,9.306504E0,1.412818E0,3.272776E-2,6.314163E-1,2.1283429E0,1.0272365E1,-3.8260193E0,-1.4646859E0],"categories":[],"categories_nodes":[],"categories_segments":[],"categories_sizes":[],"default_left":[0,0,0,0,0,0,0,0,0,0,0,0,0,0,0,0,0,0,0,0,0,0,0,0,0,0,0,0,0,0,0,0,0,0,0,0,0,0,0,0,0,0,0,0,0,0,0,0,0,0,0,0,0,0,0,0,0,0,0,0,0,0,0],"id":3,"left_children":[1,3,5,7,9,11,13,15,17,19,21,23,25,27,29,31,33,35,37,39,41,43,45,47,49,51,53,55,57,59,61,-1,-1,-1,-1,-1,-1,-1,-1,-1,-1,-1,-1,-1,-1,-1,-1,-1,-1,-1,-1,-1,-1,-1,-1,-1,-1,-1,-1,-1,-1,-1,-1],"loss_changes":[1.552374E3,2.5978633E3,1.6369286E3,1.7462307E3,2.944942E3,1.3369078E3,3.1686255E3,1.8112122E3,1.4746533E3,2.0890776E3,1.8214663E3,1.696115E3,1.1999231E3,3.0809854E3,2.3236655E3,1.1311604E3,1.9776892E3,1.339792E3,7.469203E2,2.7935361E3,3.9074668E3,3.7405796E3,2.0660708E3,1.976137E3,2.4314055E3,3.7592266E3,1.0837285E3,3.7697407E3,1.905044E3,2.7062754E3,5.8663452E1,0E0,0E0,0E0,0E0,0E0,0E0,0E0,0E0,0E0,0E0,0E0,0E0,0E0,0E0,0E0,0E0,0E0,0E0,0E0,0E0,0E0,0E0,0E0,0E0,0E0,0E0,0E0,0E0,0E0,0E0,0E0,0E0],"parents":[2147483647,0,0,1,1,2,2,3,3,4,4,5,5,6,6,7,7,8,8,9,9,10,10,11,11,12,12,13,13,14,14,15,15,16,16,17,17,18,18,19,19,20,20,21,21,22,22,23,23,24,24,25,25,26,26,27,27,28,28,29,29,30,30],"right_children":[2,4,6,8,10,12,14,16,18,20,22,24,26,28,30,32,34,36,38,40,42,44,46,48,50,52,54,56,58,60,62,-1,-1,-1,-1,-1,-1,-1,-1,-1,-1,-1,-1,-1,-1,-1,-1,-1,-1,-1,-1,-1,-1,-1,-1,-1,-1,-1,-1,-1,-1,-1,-1],"split_conditions":[1.4717773E-1,2.4152328E-1,8.1785995E-1,4.5731962E-1,1.3336459E-1,3.44666E-1,8.55339E-1,2.2827496E-1,2.2111559E-1,4.8947245E-1,1.7870577E-1,7.0783514E-1,2.1784835E-1,9.914945E-2,6.780825E-1,6.747101E-1,1.3582611E-1,6.673021E-1,5.1676995E-1,5.331682E-1,5.1676995E-1,6.066728E-1,5.9158784E-1,7.409587E-1,1.5448387E-1,1.0920034E-1,5.382748E-1,1.0024611E-1,7.6779217E-1,8.299515E-1,6.545183E-1,5.822249E-1,3.7748313E0,6.4355097E0,-4.92432E-1,1.1445701E0,-1.7429614E0,-3.6930363E0,1.2272722E0,4.1994853E0,-1.035248E0,1.2134224E1,2.0039835E0,-5.740458E-1,2.9941843E0,-6.9702566E-1,-1.055534E-1,-1.9381945E-1,1.15537174E-1,1.4783984E0,6.469821E-2,3.128391E0,1.6320159E-1,-4.2189937E-2,5.6162376E-2,9.306504E0,1.412818E0,3.272776E-2,6.314163E-1,2.1283429E0,1.0272365E1,-3.8260193E0,-1.4646859E0],"split_indices":[6,4,1,7,1,3,3,4,4,0,5,4,6,5,2,5,6,2,0,3,0,1,3,6,0,5,5,3,7,5,6,0,0,0,0,0,0,0,0,0,0,0,0,0,0,0,0,0,0,0,0,0,0,0,0,0,0,0,0,0,0,0,0],"split_type":[0,0,0,0,0,0,0,0,0,0,0,0,0,0,0,0,0,0,0,0,0,0,0,0,0,0,0,0,0,0,0,0,0,0,0,0,0,0,0,0,0,0,0,0,0,0,0,0,0,0,0,0,0,0,0,0,0,0,0,0,0,0,0],"sum_hessian":[6.5157E4,2.545E3,6.2612E4,1.84E2,2.361E3,5.8407E4,4.205E3,9.1E1,9.3E1,8.1E1,2.28E3,1.5005E4,4.3402E4,4.129E3,7.6E1,7.4E1,1.7E1,7.8E1,1.5E1,4.9E1,3.2E1,1.1E2,2.17E3,1.2119E4,2.886E3,2.95E3,4.0452E4,7.2E1,4.057E3,6.9E1,7E0,6.3E1,1.1E1,1.2E1,5E0,6E1,1.8E1,1.2E1,3E0,1.1E1,3.8E1,3E0,2.9E1,6.8E1,4.2E1,1.239E3,9.31E2,9.828E3,2.291E3,1.13E2,2.773E3,3.8E1,2.912E3,2.1335E4,1.9117E4,5E0,6.7E1,3.504E3,5.53E2,6.6E1,3E0,3E0,4E0],"tree_param":{"num_deleted":"0","num_feature":"8","num_nodes":"63","size_leaf_vector":"1"}},{"base_weights":[-1.1480713E-2,3.3578742E-2,-4.0945998E-1,-8.052023E-2,2.4333397E-1,-4.6249945E-2,-1.0290782E0,-4.3976995E-1,1.1366183E-1,1.1991757E-1,8.974834E-1,1.6375141E0,-4.3556026E-1,-8.597748E-1,-6.606501E0,-3.3796057E-1,-1.7691767E0,-2.9031942E-2,1.0217528E0,5.0739425E-1,-1.515519E-1,1.7870554E1,8.504221E-1,-3.256147E0,2.1362514E0,-5.964568E-1,4.712672E0,-2.4372725E0,-3.7024236E-1,-8.700527E0,2.6902146E0,-1.1191378E-1,1.1397865E0,-3.565781E-1,-1.5927655E0,-2.4187556E-2,4.2742452E-1,2.3448177E-1,1.9048771E0,-1.1400379E-1,3.5623822E-1,-5.0924663E-2,3.433452E0,2.203599E0,1.0941769E1,1.206632E0,1.8698908E-1,-1.8750648E0,2.340259E0,1.0292145E0,-2.1147722E-1,-4.052805E-1,6.611917E-2,3.1384308E0,-1.7473859E0,-8.0496496E-1,2.0180247E0,-1.710242E-1,1.646358E0,-2.8164752E0,2.1799154E0,-1.7342435E0,2.4115958E0],"categories":[],"categories_nodes":[],"categories_segments":[],"categories_sizes":[],"default_left":[0,0,0,0,0,0,0,0,0,0,0,0,0,0,0,0,0,0,0,0,0,0,0,0,0,0,0,0,0,0,0,0,0,0,0,0,0,0,0,0,0,0,0,0,0,0,0,0,0,0,0,0,0,0,0,0,0,0,0,0,0,0,0],"id":4,"left_children":[1,3,5,7,9,11,13,15,17,19,21,23,25,27,29,31,33,35,37,39,41,43,45,47,49,51,53,55,57,59,61,-1,-1,-1,-1,-1,-1,-1,-1,-1,-1,-1,-1,-1,-1,-1,-1,-1,-1,-1,-1,-1,-1,-1,-1,-1,-1,-1,-1,-1,-1,-1,-1],"loss_changes":[1.1684745E3,1.4008573E3,1.4913693E3,2.6447156E3,1.6647634E3,2.7400757E3,2.3068535E3,1.7997761E3,3.1889673E3,1.8250903E3,2.5991917E3,1.9228674E3,2.815001E3,1.835476E3,1.425071E3,1.7951202E3,1.9379917E3,1.5954011E3,4.271006E3,4.3142373E3,2.1549712E3,1.4942102E3,2.3494993E3,2.465455E3,2.624688E3,2.0297689E3,6.3003027E3,1.286957E3,2.129071E3,7.160864E2,6.8076447E2,0E0,0E0,0E0,0E0,0E0,0E0,0E0,0E0,0E0,0E0,0E0,0E0,0E0,0E0,0E0,0E0,0E0,0E0,0E0,0E0,0E0,0E0,0E0,0E0,0E0,0E0,0E0,0E0,0E0,0E0,0E0,0E0],"parents":[2147483647,0,0,1,1,2,2,3,3,4,4,5,5,6,6,7,7,8,8,9,9,10,10,11,11,12,12,13,13,14,14,15,15,16,16,17,17,18,18,19,19,20,20,21,21,22,22,23,23,24,24,25,25,26,26,27,27,28,28,29,29,30,30],"right_children":[2,4,6,8,10,12,14,16,18,20,22,24,26,28,30,32,34,36,38,40,42,44,46,48,50,52,54,56,58,60,62,-1,-1,-1,-1,-1,-1,-1,-1,-1,-1,-1,-1,-1,-1,-1,-1,-1,-1,-1,-1,-1,-1,-1,-1,-1,-1,-1,-1,-1,-1,-1,-1],"split_conditions":[7.8147006E-1,5.522029E-1,5.0329924E-1,4.352115E-1,7.073008E-1,3.1018853E-1,8.858588E-1,5.2962404E-1,7.1697646E-1,4.7699285E-1,7.0283085E-2,2.5265825E-1,8.881279E-1,5.599816E-1,6.5755725E-1,5.271692E-1,7.806061E-1,8.477366E-1,8.6907923E-1,4.388204E-1,9.280023E-1,7.4412435E-1,2.1698026E-1,4.5051512E-1,6.8757445E-1,3.2492015E-1,6.3574237E-1,8.492922E-1,8.583073E-1,7.899378E-1,5.616725E-1,-1.1191378E-1,1.1397865E0,-3.565781E-1,-1.5927655E0,-2.4187556E-2,4.2742452E-1,2.3448177E-1,1.9048771E0,-1.1400379E-1,3.5623822E-1,-5.0924663E-2,3.433452E0,2.203599E0,1.0941769E1,1.206632E0,1.8698908E-1,-1.8750648E0,2.340259E0,1.0292145E0,-2.1147722E-1,-4.052805E-1,6.611917E-2,3.1384308E0,-1.7473859E0,-8.0496496E-1,2.0180247E0,-1.710242E-1,1.646358E0,-2.8164752E0,2.1799154E0,-1.7342435E0,2.4115958E0],"split_indices":[2,2,1,1,5,7,7,2,3,6,7,3,3,1,5,2,3,6,4,0,4,6,4,1,3,1,5,5,7,4,6,0,0,0,0,0,0,0,0,0,0,0,0,0,0,0,0,0,0,0,0,0,0,0,0,0,0,0,0,0,0,0,0],"split_type":[0,0,0,0,0,0,0,0,0,0,0,0,0,0,0,0,0,0,0,0,0,0,0,0,0,0,0,0,0,0,0,0,0,0,0,0,0,0,0,0,0,0,0,0,0,0,0,0,0,0,0,0,0,0,0,0,0,0,0,0,0,0,0],"sum_hessian":[6.5157E4,5.8531E4,6.626E3,3.791E4,2.0621E4,4.178E3,2.448E3,1.3301E4,2.4609E4,1.7349E4,3.272E3,7.84E2,3.394E3,2.377E3,7.1E1,1.2356E4,9.45E2,2.1268E4,3.341E3,7.147E3,1.0202E4,8E0,3.264E3,7.2E1,7.12E2,3.292E3,1.02E2,5.62E2,1.815E3,5.8E1,1.3E1,1.2253E4,1.03E2,8.13E2,1.32E2,2.054E4,7.28E2,3.198E3,1.43E2,3.101E3,4.046E3,1.0187E4,1.5E1,6E0,2E0,2.17E2,3.047E3,5.7E1,1.5E1,4.89E2,2.23E2,1.711E3,1.581E3,6.6E1,3.6E1,5.48E2,1.4E1,1.756E3,5.9E1,5.6E1,2E0,5E0,8E0],"tree_param":{"num_deleted":"0","num_feature":"8","num_nodes":"63","size_leaf_vector":"1"}},{"base_weights":[-7.655243E-3,-9.5642346E-1,7.418073E-3,-4.394606E0,-1.834383E-1,-5.90679E-1,3.443363E-2,-4.7303915E0,8.709222E0,-1.0561539E0,2.9884472E0,-7.47774E-1,6.2879553E0,1.3863916E0,3.291993E-4,-8.444702E-2,-6.484901E0,-4.7730634E-1,-5.5866165E0,1.8700983E1,1.754808E0,-4.4926715E0,-5.7562184E-1,9.3995E0,4.9309707E0,-6.8748987E-1,2.6026874E0,-1.5999177E-2,9.000577E-1,2.2401416E0,-1.0043145E0,-2.069977E0,4.22282E0,1.9998395E-1,-1.1764654E0,-3.0839437E-1,-2.4550607E0,1.2448589E1,1.1878767E0,2.28172E-1,3.5535886E0,1.8558367E0,-1.6267886E0,-2.0813926E-1,1.3804289E0,-1.2184991E-1,2.7930083E0,6.1731684E-1,-5.46798E-1,7.2399426E0,7.252995E-1,1.7847365E-1,-1.2555193E-2,3.0310438E0,2.0628679E-1],"categories":[],"categories_nodes":[],"categories_segments":[],"categories_sizes":[],"default_left":[0,0,0,0,0,0,0,0,0,0,0,0,0,0,0,0,0,0,0,0,0,0,0,0,0,0,0,0,0,0,0,0,0,0,0,0,0,0,0,0,0,0,0,0,0,0,0,0,0,0,0,0,0,0,0],"id":5,"left_children":[1,3,5,7,9,11,13,15,-1,17,19,21,23,25,27,29,31,33,35,37,39,41,43,-1,45,47,49,51,53,-1,-1,-1,-1,-1,-1,-1,-1,-1,-1,-1,-1,-1,-1,-1,-1,-1,-1,-1,-1,-1,-1,-1,-1,-1,-1],"loss_changes":[9.3183704E2,2.7073535E3,1.0363895E3,2.2361667E3,2.3090286E3,3.0001235E3,2.8295867E3,1.5156035E3,0E0,1.7124141E3,3.4562324E3,1.7451744E3,1.9525078E3,3.8106929E3,8.79424E2,1.3064258E3,1.2491143E3,2.2917188E3,8.676294E2,4.203955E3,1.6764191E3,1.215313E3,1.5895928E3,0E0,1.4060789E3,1.7457529E3,3.73406E3,9.2855566E2,2.0791748E3,0E0,0E0,0E0,0E0,0E0,0E0,0E0,0E0,0E0,0E0,0E0,0E0,0E0,0E0,0E0,0E0,0E0,0E0,0E0,0E0,0E0,0E0,0E0,0E0,0E0,0E0],"parents":[2147483647,0,0,1,1,2,2,3,3,4,4,5,5,6,6,7,7,9,9,10,10,11,11,12,12,13,13,14,14,15,15,16,16,17,17,18,18,19,19,20,20,21,21,22,22,24,24,25,25,26,26,27,27,28,28],"right_children":[2,4,6,8,10,12,14,16,-1,18,20,22,24,26,28,30,32,34,36,38,40,42,44,-1,46,48,50,52,54,-1,-1,-1,-1,-1,-1,-1,-1,-1,-1,-1,-1,-1,-1,-1,-1,-1,-1,-1,-1,-1,-1,-1,-1,-1,-1],"split_conditions":[1.0426324E-1,2.9334772E-1,1.5151928E-1,9.0549254E-1,5.836418E-1,8.9155966E-1,1.8109508E-1,6.685104E-2,8.709222E0,8.2350355E-1,5.964577E-1,1.4062408E-1,1.461852E-1,3.9257175E-1,8.8481647E-1,2.5155228E-1,8.5259897E-1,4.561204E-1,3.7831947E-1,4.4032645E-1,7.350212E-1,1.3582611E-1,8.6733174E-1,9.3995E0,3.5056883E-1,4.0618056E-1,1.461852E-1,1.6649577E-1,9.914945E-2,2.2401416E0,-1.0043145E0,-2.069977E0,4.22282E0,1.9998395E-1,-1.1764654E0,-3.0839437E-1,-2.4550607E0,1.2448589E1,1.1878767E0,2.28172E-1,3.5535886E0,1.8558367E0,-1.6267886E0,-2.0813926E-1,1.3804289E0,-1.2184991E-1,2.7930083E0,6.1731684E-1,-5.46798E-1,7.2399426E0,7.252995E-1,1.7847365E-1,-1.2555193E-2,3.0310438E0,2.0628679E-1],"split_indices":[4,1,2,6,5,4,2,4,0,6,5,7,1,7,1,5,7,5,3,1,7,6,3,0,6,5,1,4,5,0,0,0,0,0,0,0,0,0,0,0,0,0,0,0,0,0,0,0,0,0,0,0,0,0,0],"split_type":[0,0,0,0,0,0,0,0,0,0,0,0,0,0,0,0,0,0,0,0,0,0,0,0,0,0,0,0,0,0,0,0,0,0,0,0,0,0,0,0,0,0,0,0,0,0,0,0,0,0,0,0,0,0,0],"sum_hessian":[6.5157E4,1.018E3,6.4139E4,1.86E2,8.32E2,2.771E3,6.1368E4,1.85E2,1E0,6.53E2,1.79E2,2.71E3,6.1E1,1.509E3,5.9859E4,5.1E1,1.34E2,5.8E2,7.3E1,1.2E1,1.67E2,1.18E2,2.592E3,2E0,5.9E1,5.58E2,9.51E2,5.8793E4,1.066E3,1.5E1,3.6E1,1.32E2,2E0,4.36E2,1.44E2,2.7E1,4.6E1,4E0,8E0,1.53E2,1.4E1,9E0,1.09E2,2.535E3,5.7E1,2.7E1,3.2E1,1.63E2,3.95E2,7E0,9.44E2,2.386E3,5.6407E4,2.3E1,1.043E3],"tree_param":{"num_deleted":"0","num_feature":"8","num_nodes":"55","size_leaf_vector":"1"}},{"base_weights":[-4.580023E-3,2.7332765E-3,-1.8371227E0,-1.087655E-1,1.1224663E-1,-3.8773272E0,2.2409523E0,-1.9865118E-1,3.739042E-1,3.6943027E-1,-1.2277128E-1,-6.328773E0,-8.803058E-1,2.1301995E-1,8.222887E0,-1.18057095E-1,-9.715212E-1,-1.00356245E1,4.0899026E-1,2.5459713E-1,2.6935196E0,-1.7239662E0,-5.5588796E-3,-3.942234E0,-4.8872623E0,2.1759758E1,-3.0392118E0,9.456824E0,-1.6065314E0,1.2969704E1,-6.5969067E0,-3.9924443E-2,1.0143939E0,1.7814189E0,-3.4361795E-1,1.3448728E0,-3.3669643E0,3.6954355E-1,7.859087E-3,1.0018213E-1,-6.092995E-1,5.855179E0,7.304713E-1,1.5982093E-1,-6.7112696E-1,-1.893379E-1,5.6955285E-2,-1.0749164E0,-3.5937562E0,1.8282899E0,8.042125E0,-2.094422E-2,-2.8474166E0,4.1719817E-2,5.159534E0,7.751753E-1,-1.8609253E0,1.0845252E0,6.264974E0,-2.9832593E-1,-2.7448637E0],"categories":[],"categories_nodes":[],"categories_segments":[],"categories_sizes":[],"default_left":[0,0,0,0,0,0,0,0,0,0,0,0,0,0,0,0,0,0,0,0,0,0,0,0,0,0,0,0,0,0,0,0,0,0,0,0,0,0,0,0,0,0,0,0,0,0,0,0,0,0,0,0,0,0,0,0,0,0,0,0,0],"id":6,"left_children":[1,3,5,7,9,11,13,15,17,19,21,23,25,27,29,31,33,35,37,39,41,43,45,-1,47,49,51,53,55,57,59,-1,-1,-1,-1,-1,-1,-1,-1,-1,-1,-1,-1,-1,-1,-1,-1,-1,-1,-1,-1,-1,-1,-1,-1,-1,-1,-1,-1,-1,-1],"loss_changes":[8.7324817E2,7.9248047E2,2.1635964E3,1.3952955E3,1.9790624E3,1.2654661E3,1.0536418E3,1.6885953E3,1.8481469E3,4.1717554E3,3.2110059E3,8.6863794E2,3.927476E3,1.1252848E3,1.6331902E3,1.2912917E3,3.0823428E3,3.4342773E2,1.5852147E3,2.7025613E3,3.1547227E3,1.35254E3,1.9490242E3,0E0,6.970255E2,3.9010962E2,1.3979501E3,7.9108844E2,1.0946788E3,1.1829844E3,7.670825E1,0E0,0E0,0E0,0E0,0E0,0E0,0E0,0E0,0E0,0E0,0E0,0E0,0E0,0E0,0E0,0E0,0E0,0E0,0E0,0E0,0E0,0E0,0E0,0E0,0E0,0E0,0E0,0E0,0E0,0E0],"parents":[2147483647,0,0,1,1,2,2,3,3,4,4,5,5,6,6,7,7,8,8,9,9,10,10,11,11,12,12,13,13,14,14,15,15,16,16,17,17,18,18,19,19,20,20,21,21,22,22,24,24,25,25,26,26,27,27,28,28,29,29,30,30],"right_children":[2,4,6,8,10,12,14,16,18,20,22,24,26,28,30,32,34,36,38,40,42,44,46,-1,48,50,52,54,56,58,60,-1,-1,-1,-1,-1,-1,-1,-1,-1,-1,-1,-1,-1,-1,-1,-1,-1,-1,-1,-1,-1,-1,-1,-1,-1,-1,-1,-1,-1,-1],"split_conditions":[9.3442E-1,4.990123E-1,5.528752E-1,7.4299E-1,5.1608187E-1,6.545183E-1,5.7260764E-1,4.688224E-1,7.0283085E-2,8.163022E-1,5.382748E-1,2.4924739E-1,6.7089325E-1,2.2544737E-1,8.035089E-1,9.3042946E-1,1.2851667E-1,7.458018E-1,7.8465384E-1,8.715503E-1,1.170281E-1,5.563496E-1,3.6285612E-1,-3.942234E0,7.629529E-1,2.2137418E-1,5.961165E-1,5.912304E-1,5.274976E-1,3.3643612E-1,6.5384513E-1,-3.9924443E-2,1.0143939E0,1.7814189E0,-3.4361795E-1,1.3448728E0,-3.3669643E0,3.6954355E-1,7.859087E-3,1.0018213E-1,-6.092995E-1,5.855179E0,7.304713E-1,1.5982093E-1,-6.7112696E-1,-1.893379E-1,5.6955285E-2,-1.0749164E0,-3.5937562E0,1.8282899E0,8.042125E0,-2.094422E-2,-2.8474166E0,4.1719817E-2,5.159534E0,7.751753E-1,-1.8609253E0,1.0845252E0,6.264974E0,-2.9832593E-1,-2.7448637E0],"split_indices":[0,4,5,0,5,6,1,4,7,3,5,7,6,3,5,1,7,0,0,7,5,4,3,0,2,3,1,4,7,2,1,0,0,0,0,0,0,0,0,0,0,0,0,0,0,0,0,0,0,0,0,0,0,0,0,0,0,0,0,0,0],"split_type":[0,0,0,0,0,0,0,0,0,0,0,0,0,0,0,0,0,0,0,0,0,0,0,0,0,0,0,0,0,0,0,0,0,0,0,0,0,0,0,0,0,0,0,0,0,0,0,0,0,0,0,0,0,0,0,0,0,0,0,0,0],"sum_hessian":[6.5157E4,6.4899E4,2.58E2,3.2158E4,3.2741E4,1.72E2,8.6E1,2.711E4,5.048E3,1.5633E4,1.7108E4,9.4E1,7.8E1,6.5E1,2.1E1,2.4551E4,2.559E3,1.6E1,5.032E3,1.4898E4,7.35E2,1.166E3,1.5942E4,1.5E1,7.9E1,6E0,7.2E1,1E1,5.5E1,1.6E1,5E0,2.4447E4,1.04E2,6.2E1,2.497E3,1E0,1.5E1,1.597E3,3.435E3,1.4399E4,4.99E2,1E1,7.25E2,2.16E2,9.5E2,3.794E3,1.2148E4,6.8E1,1.1E1,2E0,4E0,5E1,2.2E1,5E0,5E0,2.9E1,2.6E1,8E0,8E0,2E0,3E0],"tree_param":{"num_deleted":"0","num_feature":"8","num_nodes":"61","size_leaf_vector":"1"}},{"base_weights":[-3.0059959E-3,-5.413412E-1,1.8884096E-2,1.7879676E0,-8.866077E-1,1.1025606E0,6.383871E-3,1.1034807E0,1.0440677E1,2.360398E-1,-1.492113E0,1.7193302E1,9.4334686E-1,-1.1603292E0,1.9959731E-2,-4.201109E0,2.0341613E0,1.3469547E1,-3.7629428E0,1.5175861E0,-1.7035772E0,-7.469089E0,-1.2985153E0,2.9655704E1,7.802584E-1,1.9151047E1,-1.3310618E0,1.2999095E0,-9.940183E-6,-1.5972165E0,8.44765E-1,9.099879E-1,-1.2289852E0,4.73264E0,-1.4567431E0,1.0075665E-1,-1.982228E0,5.3866106E-1,-2.7652001E0,8.915259E-2,-1.6345431E0,-2.477688E0,4.092781E0,7.854013E-1,-4.6436948E-1,1.430276E1,2.3271093E0,-3.9293244E-1,5.411766E-1,6.869313E0,6.2660694E-2,-4.5912573E-1,4.2900724E0,3.6172333E-1,6.909933E0,-3.3424E-1,3.9542457E-3],"categories":[],"categories_nodes":[],"categories_segments":[],"categories_sizes":[],"default_left":[0,0,0,0,0,0,0,0,0,0,0,0,0,0,0,0,0,0,0,0,0,0,0,0,0,0,0,0,0,0,0,0,0,0,0,0,0,0,0,0,0,0,0,0,0,0,0,0,0,0,0,0,0,0,0,0,0],"id":7,"left_children":[1,3,5,7,9,11,13,15,17,19,21,-1,23,25,27,29,31,33,35,37,39,41,43,45,47,49,51,53,55,-1,-1,-1,-1,-1,-1,-1,-1,-1,-1,-1,-1,-1,-1,-1,-1,-1,-1,-1,-1,-1,-1,-1,-1,-1,-1,-1,-1],"loss_changes":[7.678456E2,2.049161E3,8.4816125E2,1.9370359E3,1.5080801E3,6.3356367E3,9.8046564E2,1.5192307E3,1.0831875E3,1.9364669E3,1.6577244E3,0E0,3.3155928E3,2.4945745E3,1.5640017E3,3.7745825E2,1.6111699E3,9.217383E2,6.051396E1,1.4159426E3,2.3243303E3,8.6307104E2,1.3685203E3,1.2086472E3,1.5214011E3,4.2103687E2,2.2250474E3,1.8959468E3,8.8545667E2,0E0,0E0,0E0,0E0,0E0,0E0,0E0,0E0,0E0,0E0,0E0,0E0,0E0,0E0,0E0,0E0,0E0,0E0,0E0,0E0,0E0,0E0,0E0,0E0,0E0,0E0,0E0,0E0],"parents":[2147483647,0,0,1,1,2,2,3,3,4,4,5,5,6,6,7,7,8,8,9,9,10,10,12,12,13,13,14,14,15,15,16,16,17,17,18,18,19,19,20,20,21,21,22,22,23,23,24,24,25,25,26,26,27,27,28,28],"right_children":[2,4,6,8,10,12,14,16,18,20,22,-1,24,26,28,30,32,34,36,38,40,42,44,46,48,50,52,54,56,-1,-1,-1,-1,-1,-1,-1,-1,-1,-1,-1,-1,-1,-1,-1,-1,-1,-1,-1,-1,-1,-1,-1,-1,-1,-1,-1,-1],"split_conditions":[1.4717773E-1,2.276043E-1,9.661126E-2,2.2067893E-1,4.1139656E-1,1.5255184E-1,1.2262076E-1,3.2701898E-1,5.901618E-1,5.1048785E-1,1.7898375E-1,1.7193302E1,8.9338504E-2,8.403641E-2,1.4882317E-1,8.3470464E-1,7.806011E-1,7.664532E-1,4.8778033E-1,8.6733174E-1,1.2868552E-1,8.27747E-1,2.513436E-1,4.0991175E-1,3.3735526E-1,1.15097605E-1,8.859599E-1,9.3042946E-1,1.6444415E-1,-1.5972165E0,8.44765E-1,9.099879E-1,-1.2289852E0,4.73264E0,-1.4567431E0,1.0075665E-1,-1.982228E0,5.3866106E-1,-2.7652001E0,8.915259E-2,-1.6345431E0,-2.477688E0,4.092781E0,7.854013E-1,-4.6436948E-1,1.430276E1,2.3271093E0,-3.9293244E-1,5.411766E-1,6.869313E0,6.2660694E-2,-4.5912573E-1,4.2900724E0,3.6172333E-1,6.909933E0,-3.3424E-1,3.9542457E-3],"split_indices":[6,1,0,1,5,6,0,5,0,2,3,0,3,2,0,3,5,5,2,3,6,7,4,1,6,0,2,1,0,0,0,0,0,0,0,0,0,0,0,0,0,0,0,0,0,0,0,0,0,0,0,0,0,0,0,0,0],"split_type":[0,0,0,0,0,0,0,0,0,0,0,0,0,0,0,0,0,0,0,0,0,0,0,0,0,0,0,0,0,0,0,0,0,0,0,0,0,0,0,0,0,0,0,0,0,0,0,0,0,0,0,0,0,0,0,0,0],"sum_hessian":[6.5157E4,2.545E3,6.2612E4,3.28E2,2.217E3,7.13E2,6.1899E4,3.05E2,2.3E1,7.77E2,1.44E3,1E0,7.12E2,7.11E2,6.1188E4,4.5E1,2.6E2,1.9E1,4E0,4.68E2,3.09E2,4.4E1,1.396E3,3E0,7.09E2,5E0,7.06E2,9.39E2,6.0249E4,3.9E1,6E0,2.24E2,3.6E1,1.7E1,2E0,2E0,2E0,4.57E2,1.1E1,2.02E2,1.07E2,4.3E1,1E0,8.3E1,1.313E3,1E0,2E0,2.33E2,4.76E2,4E0,1E0,6.98E2,8E0,9.36E2,3E0,7.04E2,5.9545E4],"tree_param":{"num_deleted":"0","num_feature":"8","num_nodes":"57","size_leaf_vector":"1"}},{"base_weights":[-1.3340635E-3,5.423943E-3,-1.7013344E0,-4.7522437E-2,2.4577908E-1,8.732602E0,-1.9344809E0,2.1105297E-2,-7.3381835E-1,3.8218892E-1,-1.4573506E0,8.6144716E-2,-4.7229934E0,-3.191465E-2,4.708609E-1,-6.36171E-1,-5.7610493E0,2.2486633E-1,1.9093784E0,-1.6056775E0,2.4494678E1,-1.5609676E0,1.7564249E1,3.8039465E0,-5.7291822E0,-7.518073E-1,-6.541769E-3,-3.9207046E-3,4.755298E-1,-8.540344E-1,-1.2471931E-1,-1.9689921E0,4.058836E0,5.2837664E-1,2.4587147E-2,1.0876621E0,1.180346E-1,3.3858365E-1,-7.131005E-1,8.2572466E-1,1.1421615E1,-7.0719033E-1,3.5022345E0,1.0160791E1,9.4197804E-1,-1.4433938E0,5.0482717E0,-3.2917094E0,-1.1853808E0],"categories":[],"categories_nodes":[],"categories_segments":[],"categories_sizes":[],"default_left":[0,0,0,0,0,0,0,0,0,0,0,0,0,0,0,0,0,0,0,0,0,0,0,0,0,0,0,0,0,0,0,0,0,0,0,0,0,0,0,0,0,0,0,0,0,0,0,0,0],"id":8,"left_children":[1,3,5,7,9,-1,11,13,15,17,19,21,23,25,27,29,31,33,35,37,39,41,43,45,47,-1,-1,-1,-1,-1,-1,-1,-1,-1,-1,-1,-1,-1,-1,-1,-1,-1,-1,-1,-1,-1,-1,-1,-1],"loss_changes":[7.4858435E2,8.2593756E2,1.9095884E3,2.5050195E3,2.7224607E3,0E0,1.4484835E3,1.1530178E3,2.369816E3,2.6059263E3,3.3844463E3,4.345677E3,9.484021E2,1.0817352E3,2.7494692E3,2.3106006E3,1.5125859E3,2.1594883E3,2.633974E3,1.8269875E3,1.3712241E3,1.4819757E3,2.9511143E3,1.4273855E3,8.608718E2,0E0,0E0,0E0,0E0,0E0,0E0,0E0,0E0,0E0,0E0,0E0,0E0,0E0,0E0,0E0,0E0,0E0,0E0,0E0,0E0,0E0,0E0,0E0,0E0],"parents":[2147483647,0,0,1,1,2,2,3,3,4,4,6,6,7,7,8,8,9,9,10,10,11,11,12,12,13,13,14,14,15,15,16,16,17,17,18,18,19,19,20,20,21,21,22,22,23,23,24,24],"right_children":[2,4,6,8,10,-1,12,14,16,18,20,22,24,26,28,30,32,34,36,38,40,42,44,46,48,-1,-1,-1,-1,-1,-1,-1,-1,-1,-1,-1,-1,-1,-1,-1,-1,-1,-1,-1,-1,-1,-1,-1,-1],"split_conditions":[9.3013734E-1,7.1330225E-1,7.0283085E-2,6.5755725E-1,7.664811E-1,8.732602E0,4.3038535E-1,6.038454E-1,8.771204E-1,6.807828E-1,8.8481647E-1,3.977355E-1,2.4269152E-1,7.0283085E-2,6.199149E-1,2.053676E-1,8.660687E-1,7.2616696E-1,4.5930746E-1,4.1056466E-1,8.184362E-1,8.55339E-1,6.277969E-1,5.563496E-1,3.9257175E-1,-7.518073E-1,-6.541769E-3,-3.9207046E-3,4.755298E-1,-8.540344E-1,-1.2471931E-1,-1.9689921E0,4.058836E0,5.2837664E-1,2.4587147E-2,1.0876621E0,1.180346E-1,3.3858365E-1,-7.131005E-1,8.2572466E-1,1.1421615E1,-7.0719033E-1,3.5022345E0,1.0160791E1,9.4197804E-1,-1.4433938E0,5.0482717E0,-3.2917094E0,-1.1853808E0],"split_indices":[5,5,7,5,2,0,2,5,1,2,1,2,7,7,1,7,0,5,0,6,2,3,3,4,7,0,0,0,0,0,0,0,0,0,0,0,0,0,0,0,0,0,0,0,0,0,0,0,0],"split_type":[0,0,0,0,0,0,0,0,0,0,0,0,0,0,0,0,0,0,0,0,0,0,0,0,0,0,0,0,0,0,0,0,0,0,0,0,0,0,0,0,0,0,0,0,0,0,0,0,0],"sum_hessian":[6.5157E4,6.49E4,2.57E2,5.3185E4,1.1715E4,1E0,2.56E2,4.8351E4,4.834E3,1.0847E4,8.68E2,1.49E2,1.07E2,4.3253E4,5.098E3,4.743E3,9.1E1,9.835E3,1.012E3,8.64E2,4E0,1.37E2,1.2E1,1.1E1,9.6E1,1.75E2,4.3078E4,3.555E3,1.543E3,4.29E2,4.314E3,8.8E1,3E0,8.36E2,8.999E3,4.74E2,5.38E2,1.9E2,6.74E2,2E0,2E0,1.3E2,7E0,5E0,7E0,7E0,4E0,2.3E1,7.3E1],"tree_param":{"num_deleted":"0","num_feature":"8","num_nodes":"49","size_leaf_vector":"1"}},{"base_weights":[-3.7779298E-4,3.362753E-2,-2.4706063E-1,-4.381586E-2,4.1447073E-1,1.1175511E1,-2.7313137E-1,3.855611E-1,-8.651943E-2,-3.4333667E-1,6.4369506E-1,-2.2281773E0,1.5391215E1,-2.0887205E-1,-4.808525E0,1.5056306E0,-1.0646991E-1,-1.0388278E0,-5.6446385E-2,2.6927295E-1,-1.6956568E0,8.323462E-1,-6.3779044E-1,-3.2392933E0,2.0250858E1,6.402142E0,-2.447791E-1,6.3117356E0,-5.62555E0,2.7646856E0,3.8994557E-1,-1.4377809E0,3.70564E-2,-8.577484E-1,-1.3258292E-1,-2.7316695E-1,-8.311607E-3,1.5918447E0,-9.1929715E-3,-2.0687744E-2,-9.4271964E-1,6.88494E-1,1.8933119E-1,-1.959271E0,-6.6257365E-2,7.523782E0,9.351335E-1,8.386527E-1,1.1989885E1,-1.4454642E-1,1.6899167E-1,8.512438E0,-1.7315248E0,-3.0383067E0,-1.283314E0],"categories":[],"categories_nodes":[],"categories_segments":[],"categories_sizes":[],"default_left":[0,0,0,0,0,0,0,0,0,0,0,0,0,0,0,0,0,0,0,0,0,0,0,0,0,0,0,0,0,0,0,0,0,0,0,0,0,0,0,0,0,0,0,0,0,0,0,0,0,0,0,0,0,0,0],"id":9,"left_children":[1,3,5,7,9,11,13,15,17,19,21,-1,23,25,27,29,31,33,35,37,39,41,43,-1,45,47,49,51,53,-1,-1,-1,-1,-1,-1,-1,-1,-1,-1,-1,-1,-1,-1,-1,-1,-1,-1,-1,-1,-1,-1,-1,-1,-1,-1],"loss_changes":[5.4658813E2,1.68898E3,2.3538455E3,8.726219E2,1.6811924E3,1.5259424E3,2.2946787E3,2.3726843E3,1.2395723E3,1.8627993E3,1.796761E3,0E0,2.1276895E3,1.8455505E3,1.0349153E3,2.0730876E3,3.2252783E3,1.4383876E3,1.0300336E3,2.3386343E3,1.6495249E3,1.9050161E3,2.342565E3,0E0,9.972993E2,4.9725225E3,1.48038E3,2.2965608E3,5.8169604E2,0E0,0E0,0E0,0E0,0E0,0E0,0E0,0E0,0E0,0E0,0E0,0E0,0E0,0E0,0E0,0E0,0E0,0E0,0E0,0E0,0E0,0E0,0E0,0E0,0E0,0E0],"parents":[2147483647,0,0,1,1,2,2,3,3,4,4,5,5,6,6,7,7,8,8,9,9,10,10,12,12,13,13,14,14,15,15,16,16,17,17,18,18,19,19,20,20,21,21,22,22,24,24,25,25,26,26,27,27,28,28],"right_children":[2,4,6,8,10,12,14,16,18,20,22,-1,24,26,28,30,32,34,36,38,40,42,44,-1,46,48,50,52,54,-1,-1,-1,-1,-1,-1,-1,-1,-1,-1,-1,-1,-1,-1,-1,-1,-1,-1,-1,-1,-1,-1,-1,-1,-1,-1],"split_conditions":[7.644934E-1,6.501628E-1,8.74358E-2,2.0618746E-1,3.2769755E-1,2.4264984E-1,8.859599E-1,5.0292325E-1,2.3163319E-1,7.258599E-1,7.3642987E-1,-2.2281773E0,2.1382047E-1,6.7054525E-2,1.7408429E-1,9.640491E-2,1.9130936E-1,4.1944793E-1,1.4717773E-1,1.4147048E-1,5.322169E-1,2.1346614E-1,1.674118E-1,-3.2392933E0,6.032592E-1,7.6649517E-1,7.253844E-1,9.056426E-1,3.3796027E-1,2.7646856E0,3.8994557E-1,-1.4377809E0,3.70564E-2,-8.577484E-1,-1.3258292E-1,-2.7316695E-1,-8.311607E-3,1.5918447E0,-9.1929715E-3,-2.0687744E-2,-9.4271964E-1,6.88494E-1,1.8933119E-1,-1.959271E0,-6.6257365E-2,7.523782E0,9.351335E-1,8.386527E-1,1.1989885E1,-1.4454642E-1,1.6899167E-1,8.512438E0,-1.7315248E0,-3.0383067E0,-1.283314E0],"split_indices":[4,4,5,1,1,3,2,3,1,4,0,0,1,2,0,7,5,3,6,6,2,2,2,0,0,0,7,2,0,0,0,0,0,0,0,0,0,0,0,0,0,0,0,0,0,0,0,0,0,0,0,0,0,0,0],"split_type":[0,0,0,0,0,0,0,0,0,0,0,0,0,0,0,0,0,0,0,0,0,0,0,0,0,0,0,0,0,0,0,0,0,0,0,0,0,0,0,0,0,0,0,0,0,0,0,0,0,0,0,0,0,0,0],"sum_hessian":[6.5157E4,5.7264E4,7.893E3,4.7588E4,9.676E3,1.7E1,7.876E3,4.304E3,4.3284E4,2.247E3,7.429E3,3E0,1.4E1,7.767E3,1.09E2,1.313E3,2.991E3,1.324E3,4.196E4,1.547E3,7E2,6.476E3,9.53E2,2E0,1.2E1,4.1E1,7.726E3,7E0,1.02E2,3.3E1,1.28E3,1.39E2,2.852E3,3.26E2,9.98E2,1.365E3,4.0595E4,8.6E1,1.461E3,3.3E2,3.7E2,7.82E2,5.694E3,6.2E1,8.91E2,9E0,3E0,3.8E1,3E0,5.974E3,1.752E3,2E0,5E0,2.2E1,8E1],"tree_param":{"num_deleted":"0","num_feature":"8","num_nodes":"55","size_leaf_vector":"1"}},{"base_weights":[1.6196584E-5,-1.3155562E-2,6.594609E-1,-5.288374E-1,9.847793E-3,3.156386E0,-1.9013326E-1,-4.8413432E-1,-1.0606285E1,2.3340175E0,1.1620571E-4,5.356463E0,1.1318665E0,-3.67297E-1,1.2648422E1,-6.1603135E-1,2.70786E0,-2.5326347E-1,-3.4251E0,1.4329822E1,1.6826617E0,6.384458E-1,-1.582619E-2,4.2506514E0,1.8179832E1,1.1957034E1,3.8056207E-1,8.976045E-1,-1.3288814E0,1.8378094E1,-4.83786E0,4.646281E-1,-2.4866451E-1,-2.0092103E-1,3.0236394E0,-1.2000663E0,5.407864E0,2.0944164E0,8.21285E-2,6.9564095E0,1.7313331E-1,-2.6689845E-1,-3.0606674E-4,7.186621E-1,2.3071048E0,8.637629E0,-7.307246E-1,-2.8420856E0,5.331608E0,8.073157E0,1.333752E-2,-1.2807457E-1,1.4904448E0,-8.048742E-1,3.312044E-1,7.55293E0,1.9633404E0,-2.9381042E0,1.5044404E0],"categories":[],"categories_nodes":[],"categories_segments":[],"categories_sizes":[],"default_left":[0,0,0,0,0,0,0,0,0,0,0,0,0,0,0,0,0,0,0,0,0,0,0,0,0,0,0,0,0,0,0,0,0,0,0,0,0,0,0,0,0,0,0,0,0,0,0,0,0,0,0,0,0,0,0,0,0,0,0],"id":10,"left_children":[1,3,5,7,9,11,13,15,17,19,21,23,25,27,29,31,33,-1,-1,35,37,39,41,43,45,47,49,51,53,55,57,-1,-1,-1,-1,-1,-1,-1,-1,-1,-1,-1,-1,-1,-1,-1,-1,-1,-1,-1,-1,-1,-1,-1,-1,-1,-1,-1,-1],"loss_changes":[5.6597406E2,7.5781165E2,2.707472E3,1.2238093E3,1.3832175E3,1.4370652E3,2.1722695E3,1.1455646E3,8.533276E1,1.9683397E3,6.1977954E2,2.1206602E3,1.378059E3,1.14574E3,1.3913889E3,1.2039106E3,2.6955244E3,0E0,0E0,9.529243E2,1.8121748E3,2.0390989E3,7.687607E2,9.004446E2,2.6954653E3,1.539175E3,1.4254944E3,2.1964683E3,1.7653696E3,6.397239E2,2.4442543E2,0E0,0E0,0E0,0E0,0E0,0E0,0E0,0E0,0E0,0E0,0E0,0E0,0E0,0E0,0E0,0E0,0E0,0E0,0E0,0E0,0E0,0E0,0E0,0E0,0E0,0E0,0E0,0E0],"parents":[2147483647,0,0,1,1,2,2,3,3,4,4,5,5,6,6,7,7,8,8,9,9,10,10,11,11,12,12,13,13,14,14,15,15,16,16,19,19,20,20,21,21,22,22,23,23,24,24,25,25,26,26,27,27,28,28,29,29,30,30],"right_children":[2,4,6,8,10,12,14,16,18,20,22,24,26,28,30,32,34,-1,-1,36,38,40,42,44,46,48,50,52,54,56,58,-1,-1,-1,-1,-1,-1,-1,-1,-1,-1,-1,-1,-1,-1,-1,-1,-1,-1,-1,-1,-1,-1,-1,-1,-1,-1,-1,-1],"split_conditions":[8.8306963E-1,1.5151928E-1,3.1389618E-1,9.3180615E-1,1.5676342E-1,5.324713E-1,9.0403223E-1,8.186081E-1,1.5738234E-1,1.9803862E-1,1.8596406E-1,8.121357E-1,1.3652359E-1,3.8226235E-1,5.886057E-1,2.6806545E-1,1.3541314E-1,-2.5326347E-1,-3.4251E0,1.6714683E-1,2.555418E-1,6.685104E-2,2.0147018E-1,4.3325868E-1,3.8634947E-1,6.845553E-2,1.2031047E-1,3.2085073E-1,6.1779416E-1,5.0670457E-1,2.7110717E-1,4.646281E-1,-2.4866451E-1,-2.0092103E-1,3.0236394E0,-1.2000663E0,5.407864E0,2.0944164E0,8.21285E-2,6.9564095E0,1.7313331E-1,-2.6689845E-1,-3.0606674E-4,7.186621E-1,2.3071048E0,8.637629E0,-7.307246E-1,-2.8420856E0,5.331608E0,8.073157E0,1.333752E-2,-1.2807457E-1,1.4904448E0,-8.048742E-1,3.312044E-1,7.55293E0,1.9633404E0,-2.9381042E0,1.5044404E0],"split_indices":[4,2,2,7,2,7,7,7,1,1,2,3,0,6,6,1,2,0,0,7,3,4,2,7,0,0,1,6,6,0,1,0,0,0,0,0,0,0,0,0,0,0,0,0,0,0,0,0,0,0,0,0,0,0,0,0,0,0,0],"split_type":[0,0,0,0,0,0,0,0,0,0,0,0,0,0,0,0,0,0,0,0,0,0,0,0,0,0,0,0,0,0,0,0,0,0,0,0,0,0,0,0,0,0,0,0,0,0,0,0,0,0,0,0,0,0,0,0,0,0,0],"sum_hessian":[6.5157E4,6.3882E4,1.275E3,2.727E3,6.1155E4,3.23E2,9.52E2,2.716E3,1.1E1,2.54E2,6.0901E4,1.54E2,1.69E2,9.4E2,1.2E1,2.609E3,1.07E2,1E0,1E1,1.2E1,2.42E2,1.483E3,5.9418E4,1.43E2,1.1E1,1E1,1.59E2,4.06E2,5.34E2,9E0,3E0,2.33E2,2.376E3,7.4E1,3.3E1,2E0,1E1,5E1,1.92E2,3E0,1.48E3,9.89E2,5.8429E4,9.4E1,4.9E1,7E0,4E0,2E0,8E0,1E0,1.58E2,3.07E2,9.9E1,3.43E2,1.91E2,5E0,4E0,2E0,1E0],"tree_param":{"num_deleted":"0","num_feature":"8","num_nodes":"59","size_leaf_vector":"1"}},{"base_weights":[6.7181967E-4,-1.1985451E-1,5.549491E-2,-1.7948128E-1,1.246453E0,1.6047926E-1,-2.0300981E-1,-2.9475057E-1,5.390643E-1,1.9086761E0,-1.1026148E0,1.4292437E-1,3.3556569E0,-7.854552E-2,-1.9206412E0,-5.8845896E-1,1.8755317E-1,4.3279495E0,2.552866E-1,1.5478802E0,8.997299E0,2.2912216E1,-1.7491992E0,2.936063E-1,-1.55899E-1,8.03004E0,-7.0796674E-1,1.9069273E0,-1.5849182E-1,4.180899E-2,-3.01563E0,-1.09859414E-1,-5.1117104E-1,1.7405453E0,3.8890567E-2,1.034018E0,7.9864416E0,3.717646E-1,-1.04091994E-1,7.1287763E-1,-3.9390883E-1,-8.2229924E-1,4.112916E0,3.6516445E0,9.880874E0,-2.0172038E0,6.269772E-2,-4.4134974E-2,1.6059493E-1,2.6312074E-1,-1.1277003E-1,6.7009473E0,1.6388371E0,9.2951975E0,-5.2011144E-1,1.0956569E0,-4.6871826E-1,2.3174176E-1,-1.0468843E-1,1.0720514E0,-5.8021486E-1,-1.5488229E0,-5.4907656E-1],"categories":[],"categories_nodes":[],"categories_segments":[],"categories_sizes":[],"default_left":[0,0,0,0,0,0,0,0,0,0,0,0,0,0,0,0,0,0,0,0,0,0,0,0,0,0,0,0,0,0,0,0,0,0,0,0,0,0,0,0,0,0,0,0,0,0,0,0,0,0,0,0,0,0,0,0,0,0,0,0,0,0,0],"id":11,"left_children":[1,3,5,7,9,11,13,15,17,19,21,23,25,27,29,31,33,35,37,39,41,43,45,47,49,51,53,55,57,59,61,-1,-1,-1,-1,-1,-1,-1,-1,-1,-1,-1,-1,-1,-1,-1,-1,-1,-1,-1,-1,-1,-1,-1,-1,-1,-1,-1,-1,-1,-1,-1,-1],"loss_changes":[4.305463E2,1.6599003E3,1.2155048E3,1.6170098E3,1.3274814E3,1.7861309E3,2.765356E3,2.3832002E3,2.900863E3,1.6868418E3,2.9592698E3,1.4264651E3,3.3108032E3,1.9150769E3,1.8782307E3,2.5916255E3,2.0699092E3,3.6016094E3,1.4889928E3,1.5056467E3,1.8076836E3,1.3738916E2,1.7938665E3,2.243541E3,2.413768E3,2.8529663E3,3.109436E3,2.8333333E3,2.056654E3,2.1980444E3,1.4183701E3,0E0,0E0,0E0,0E0,0E0,0E0,0E0,0E0,0E0,0E0,0E0,0E0,0E0,0E0,0E0,0E0,0E0,0E0,0E0,0E0,0E0,0E0,0E0,0E0,0E0,0E0,0E0,0E0,0E0,0E0,0E0,0E0],"parents":[2147483647,0,0,1,1,2,2,3,3,4,4,5,5,6,6,7,7,8,8,9,9,10,10,11,11,12,12,13,13,14,14,15,15,16,16,17,17,18,18,19,19,20,20,21,21,22,22,23,23,24,24,25,25,26,26,27,27,28,28,29,29,30,30],"right_children":[2,4,6,8,10,12,14,16,18,20,22,24,26,28,30,32,34,36,38,40,42,44,46,48,50,52,54,56,58,60,62,-1,-1,-1,-1,-1,-1,-1,-1,-1,-1,-1,-1,-1,-1,-1,-1,-1,-1,-1,-1,-1,-1,-1,-1,-1,-1,-1,-1,-1,-1,-1,-1],"split_conditions":[3.7973723E-1,8.3753186E-1,6.334085E-1,7.458018E-1,6.2871003E-1,6.307862E-1,8.251426E-1,5.688029E-1,1.6037889E-1,5.985343E-1,1.2262076E-1,5.901618E-1,5.1794773E-1,1.9387719E-1,4.5406455E-1,7.168408E-1,9.661126E-2,7.9712415E-1,4.7982654E-1,7.139929E-1,4.1548735E-1,2.0147786E-1,2.5520676E-1,4.2763728E-1,2.6483968E-1,3.0053493E-1,9.914945E-2,5.280352E-1,4.5271587E-1,5.3457934E-1,4.0298167E-1,-1.09859414E-1,-5.1117104E-1,1.7405453E0,3.8890567E-2,1.034018E0,7.9864416E0,3.717646E-1,-1.04091994E-1,7.1287763E-1,-3.9390883E-1,-8.2229924E-1,4.112916E0,3.6516445E0,9.880874E0,-2.0172038E0,6.269772E-2,-4.4134974E-2,1.6059493E-1,2.6312074E-1,-1.1277003E-1,6.7009473E0,1.6388371E0,9.2951975E0,-5.2011144E-1,1.0956569E0,-4.6871826E-1,2.3174176E-1,-1.0468843E-1,1.0720514E0,-5.8021486E-1,-1.5488229E0,-5.4907656E-1],"split_indices":[7,2,6,0,4,6,5,6,3,4,0,0,2,2,4,1,0,4,6,3,6,7,1,1,1,3,5,3,7,7,2,0,0,0,0,0,0,0,0,0,0,0,0,0,0,0,0,0,0,0,0,0,0,0,0,0,0,0,0,0,0,0,0],"split_type":[0,0,0,0,0,0,0,0,0,0,0,0,0,0,0,0,0,0,0,0,0,0,0,0,0,0,0,0,0,0,0,0,0,0,0,0,0,0,0,0,0,0,0,0,0,0,0,0,0,0,0,0,0,0,0,0,0,0,0,0,0,0,0],"sum_hessian":[6.5157E4,2.0371E4,4.4786E4,1.952E4,8.51E2,3.1851E4,1.2935E4,1.6822E4,2.698E3,6.64E2,1.87E2,3.1678E4,1.73E2,1.2062E4,8.73E2,1.0455E4,6.367E3,1.87E2,2.511E3,6.33E2,3.1E1,4E0,1.83E2,2.1059E4,1.0619E4,8E1,9.3E1,4.66E2,1.1596E4,3.13E2,5.6E2,8.719E3,1.736E3,6.4E1,6.303E3,1.81E2,6E0,9.53E2,1.558E3,4.91E2,1.42E2,9E0,2.2E1,3E0,1E0,5.1E1,1.32E2,7.459E3,1.36E4,1.864E3,8.755E3,1.1E1,6.9E1,2E0,9.1E1,3.1E2,1.56E2,1.969E3,9.627E3,1.12E2,2.01E2,1.98E2,3.62E2],"tree_param":{"num_deleted":"0","num_feature":"8","num_nodes":"63","size_leaf_vector":"1"}},{"base_weights":[1.1173065E-3,-3.925633E-2,1.7152041E-1,1.01430565E-2,-6.2845105E-1,3.4100965E-1,-4.6930668E-1,-1.0827822E-1,1.9861892E-1,-3.3842793E0,-4.4206232E-1,2.687989E-1,2.3221807E0,-6.230964E-1,5.9698234E0,-1.7997736E-2,-5.583736E-1,5.4553056E-1,5.0027794E-3,2.2777224E1,-3.6776395E0,1.1928973E0,-8.487864E-1,1.2144114E0,1.1208961E-1,6.3730364E0,7.474589E-1,2.5056183E0,-9.00464E-1,1.3320424E1,8.418547E-1,2.4448344E-2,-1.5391186E-1,-9.33343E-1,-1.1180922E-1,4.818777E-1,5.0251957E-2,-8.5989095E-2,2.193123E-1,9.463501E0,7.8625005E-1,-1.4878523E0,-1.8215347E-2,-1.185443E0,6.121809E-1,-7.300614E-1,-1.4211428E-1,2.02136E-1,1.2776246E0,1.1458118E-1,-2.5362867E-1,1.793027E1,1.5582794E0,2.9639814E-2,7.0031295E0,-1.3955016E0,1.2554476E0,-1.5605623E-1,-1.0498838E0,-1.6795937E0,5.4990373E0,2.1883614E0,-1.3265502E0],"categories":[],"categories_nodes":[],"categories_segments":[],"categories_sizes":[],"default_left":[0,0,0,0,0,0,0,0,0,0,0,0,0,0,0,0,0,0,0,0,0,0,0,0,0,0,0,0,0,0,0,0,0,0,0,0,0,0,0,0,0,0,0,0,0,0,0,0,0,0,0,0,0,0,0,0,0,0,0,0,0,0,0],"id":12,"left_children":[1,3,5,7,9,11,13,15,17,19,21,23,25,27,29,31,33,35,37,39,41,43,45,47,49,51,53,55,57,59,61,-1,-1,-1,-1,-1,-1,-1,-1,-1,-1,-1,-1,-1,-1,-1,-1,-1,-1,-1,-1,-1,-1,-1,-1,-1,-1,-1,-1,-1,-1,-1,-1],"loss_changes":[4.482803E2,1.5332448E3,1.3557625E3,1.0848411E3,2.091649E3,1.4115394E3,2.5893203E3,1.2129396E3,1.2597275E3,2.0638508E3,2.5398965E3,1.4113379E3,2.2087393E3,2.2160242E3,2.2880986E3,1.2246636E3,2.3626216E3,2.6935205E3,2.5490964E3,4.475061E2,1.1866211E3,3.32672E3,1.8165107E3,2.225603E3,2.1118376E3,5.7947275E3,3.676678E3,2.5193293E3,2.3149785E3,2.4720952E3,1.288957E3,0E0,0E0,0E0,0E0,0E0,0E0,0E0,0E0,0E0,0E0,0E0,0E0,0E0,0E0,0E0,0E0,0E0,0E0,0E0,0E0,0E0,0E0,0E0,0E0,0E0,0E0,0E0,0E0,0E0,0E0,0E0,0E0],"parents":[2147483647,0,0,1,1,2,2,3,3,4,4,5,5,6,6,7,7,8,8,9,9,10,10,11,11,12,12,13,13,14,14,15,15,16,16,17,17,18,18,19,19,20,20,21,21,22,22,23,23,24,24,25,25,26,26,27,27,28,28,29,29,30,30],"right_children":[2,4,6,8,10,12,14,16,18,20,22,24,26,28,30,32,34,36,38,40,42,44,46,48,50,52,54,56,58,60,62,-1,-1,-1,-1,-1,-1,-1,-1,-1,-1,-1,-1,-1,-1,-1,-1,-1,-1,-1,-1,-1,-1,-1,-1,-1,-1,-1,-1,-1,-1,-1,-1],"split_conditions":[7.073008E-1,6.602561E-1,7.4837565E-1,5.480631E-1,6.6321105E-1,8.48717E-1,8.7827075E-1,4.83004E-1,4.0173525E-1,1.0024611E-1,3.2551807E-1,2.6214877E-1,8.660687E-1,1.8315199E-1,5.4378104E-1,7.1789795E-1,1.8136305E-1,3.3081675E-1,5.353235E-1,1.6940781E-1,5.985745E-1,2.947288E-1,3.069868E-1,6.799155E-1,6.456911E-1,6.7054525E-2,8.0974185E-1,3.6940816E-1,7.2812694E-1,3.5610813E-1,4.0216884E-1,2.4448344E-2,-1.5391186E-1,-9.33343E-1,-1.1180922E-1,4.818777E-1,5.0251957E-2,-8.5989095E-2,2.193123E-1,9.463501E0,7.8625005E-1,-1.4878523E0,-1.8215347E-2,-1.185443E0,6.121809E-1,-7.300614E-1,-1.4211428E-1,2.02136E-1,1.2776246E0,1.1458118E-1,-2.5362867E-1,1.793027E1,1.5582794E0,2.9639814E-2,7.0031295E0,-1.3955016E0,1.2554476E0,-1.5605623E-1,-1.0498838E0,-1.6795937E0,5.4990373E0,2.1883614E0,-1.3265502E0],"split_indices":[5,5,3,3,5,0,7,3,0,3,4,7,0,0,4,2,7,1,5,0,6,3,7,0,0,2,2,4,6,6,1,0,0,0,0,0,0,0,0,0,0,0,0,0,0,0,0,0,0,0,0,0,0,0,0,0,0,0,0,0,0,0,0],"split_type":[0,0,0,0,0,0,0,0,0,0,0,0,0,0,0,0,0,0,0,0,0,0,0,0,0,0,0,0,0,0,0,0,0,0,0,0,0,0,0,0,0,0,0,0,0,0,0,0,0,0,0,0,0,0,0,0,0,0,0,0,0,0,0],"sum_hessian":[6.5157E4,5.2677E4,1.248E4,4.8603E4,4.074E3,9.87E3,2.61E3,2.9849E4,1.8754E4,2.57E2,3.817E3,9.524E3,3.46E2,2.55E3,6E1,2.4863E4,4.986E3,6.717E3,1.2037E4,2E0,2.55E2,7.6E2,3.057E3,1.353E3,8.171E3,9.6E1,2.5E2,2.07E2,2.343E3,2.4E1,3.6E1,2.0703E4,4.16E3,3.37E2,4.649E3,1.764E3,4.953E3,8.588E3,3.449E3,1E0,1E0,1.88E2,6.7E1,1.07E2,6.53E2,5.84E2,2.473E3,1.15E3,2.03E2,6.375E3,1.796E3,1E0,9.5E1,2.44E2,6E0,3.9E1,1.68E2,2.045E3,2.98E2,5E0,1.9E1,1.6E1,2E1],"tree_param":{"num_deleted":"0","num_feature":"8","num_nodes":"63","size_leaf_vector":"1"}},{"base_weights":[1.3649584E-3,-6.949716E-2,9.995761E-2,2.8694646E0,-8.5630186E-2,-1.6220851E-1,2.7189848E-1,8.293239E-1,7.0275564E0,-3.2637197E-1,4.4683274E-2,-3.66675E-2,-1.5438172E0,9.2306495E-1,1.0419749E-1,-4.4426492E-1,1.1472181E1,4.835973E0,1.7944313E1,-2.2666893E0,-2.6731578E-1,2.0578629E-1,-4.0967745E-1,6.4793116E-1,-3.158975E-1,-5.7667084E0,-9.961363E-1,7.6702243E-1,6.0179853E0,-2.1722145E0,1.4346838E-1,5.822455E0,-2.7629498E-1,1.6038076E0,1.025844E1,4.2736773E0,9.1365653E-1,7.389011E0,1.4986316E0,-7.50165E-1,1.3340826E1,-6.860326E-2,-1.1966711E0,-1.7001595E-2,1.9087659E-1,-3.4374768E-1,2.7741695E-2,1.2836304E-1,2.0197673E0,2.6295653E-1,-1.7151436E-1,5.826558E0,-1.8612198E0,3.0663936E0,-3.7611702E-1,5.706342E-1,2.9383115E-2,3.1620793E0,6.841883E-3,-1.2720101E0,7.719423E-1,6.559005E-1,2.7356546E-2],"categories":[],"categories_nodes":[],"categories_segments":[],"categories_sizes":[],"default_left":[0,0,0,0,0,0,0,0,0,0,0,0,0,0,0,0,0,0,0,0,0,0,0,0,0,0,0,0,0,0,0,0,0,0,0,0,0,0,0,0,0,0,0,0,0,0,0,0,0,0,0,0,0,0,0,0,0,0,0,0,0,0,0],"id":13,"left_children":[1,3,5,7,9,11,13,15,17,19,21,23,25,27,29,31,33,35,37,39,41,43,45,47,49,51,53,55,57,59,61,-1,-1,-1,-1,-1,-1,-1,-1,-1,-1,-1,-1,-1,-1,-1,-1,-1,-1,-1,-1,-1,-1,-1,-1,-1,-1,-1,-1,-1,-1,-1,-1],"loss_changes":[4.552323E2,1.7977708E3,1.2283042E3,1.7501721E3,1.1828918E3,1.8719739E3,1.7969199E3,1.902744E3,1.5401206E3,1.5167657E3,1.7908215E3,1.8917377E3,2.0734597E3,2.6746157E3,1.1702466E3,1.210342E3,1.9052284E3,9.337676E2,8.2926025E2,4.3847188E3,1.8471484E3,2.0405706E3,2.3673872E3,3.8358848E3,2.1446353E3,1.2551838E3,2.315722E3,2.4840254E3,2.710947E3,2.1892935E3,1.3739004E3,0E0,0E0,0E0,0E0,0E0,0E0,0E0,0E0,0E0,0E0,0E0,0E0,0E0,0E0,0E0,0E0,0E0,0E0,0E0,0E0,0E0,0E0,0E0,0E0,0E0,0E0,0E0,0E0,0E0,0E0,0E0,0E0],"parents":[2147483647,0,0,1,1,2,2,3,3,4,4,5,5,6,6,7,7,8,8,9,9,10,10,11,11,12,12,13,13,14,14,15,15,16,16,17,17,18,18,19,19,20,20,21,21,22,22,23,23,24,24,25,25,26,26,27,27,28,28,29,29,30,30],"right_children":[2,4,6,8,10,12,14,16,18,20,22,24,26,28,30,32,34,36,38,40,42,44,46,48,50,52,54,56,58,60,62,-1,-1,-1,-1,-1,-1,-1,-1,-1,-1,-1,-1,-1,-1,-1,-1,-1,-1,-1,-1,-1,-1,-1,-1,-1,-1,-1,-1,-1,-1,-1,-1],"split_conditions":[5.522029E-1,8.74358E-2,4.388204E-1,4.732719E-1,4.352115E-1,4.1931242E-1,3.6629024E-1,7.5502235E-1,7.9759735E-1,1.1478544E-1,6.402457E-1,3.5015398E-1,2.1751386E-1,3.611669E-1,9.484679E-2,1.0024611E-1,3.7968186E-1,1.7130455E-1,5.393665E-1,9.324503E-1,4.3286192E-1,5.408726E-1,4.696871E-1,8.5892177E-1,5.9569794E-1,8.9338504E-2,2.3142122E-1,6.404813E-1,5.314918E-1,7.700719E-1,5.595243E-1,5.822455E0,-2.7629498E-1,1.6038076E0,1.025844E1,4.2736773E0,9.1365653E-1,7.389011E0,1.4986316E0,-7.50165E-1,1.3340826E1,-6.860326E-2,-1.1966711E0,-1.7001595E-2,1.9087659E-1,-3.4374768E-1,2.7741695E-2,1.2836304E-1,2.0197673E0,2.6295653E-1,-1.7151436E-1,5.826558E0,-1.8612198E0,3.0663936E0,-3.7611702E-1,5.706342E-1,2.9383115E-2,3.1620793E0,6.841883E-3,-1.2720101E0,7.719423E-1,6.559005E-1,2.7356546E-2],"split_indices":[2,5,0,2,1,0,6,6,1,7,0,1,5,6,4,3,4,4,7,6,1,3,6,6,2,3,5,2,4,2,2,0,0,0,0,0,0,0,0,0,0,0,0,0,0,0,0,0,0,0,0,0,0,0,0,0,0,0,0,0,0,0,0],"split_type":[0,0,0,0,0,0,0,0,0,0,0,0,0,0,0,0,0,0,0,0,0,0,0,0,0,0,0,0,0,0,0,0,0,0,0,0,0,0,0,0,0,0,0,0,0,0,0,0,0,0,0,0,0,0,0,0,0,0,0,0,0,0,0],"sum_hessian":[6.5157E4,3.791E4,2.7247E4,2.06E2,3.7704E4,1.0792E4,1.6455E4,1.39E2,6.7E1,1.3241E4,2.4463E4,9.894E3,8.98E2,3.369E3,1.3086E4,1.25E2,1.4E1,5.7E1,1E1,3.9E2,1.2851E4,1.806E4,6.403E3,2.866E3,7.028E3,1.02E2,7.96E2,3.27E3,9.9E1,2.21E2,1.2865E4,2E0,1.23E2,1.2E1,2E0,8E0,4.9E1,6E0,4E0,3.89E2,1E0,1.272E4,1.31E2,1.122E4,6.84E3,2.596E3,3.807E3,2.767E3,9.9E1,1.241E3,5.787E3,1E0,1.01E2,1.7E1,7.79E2,1.212E3,2.058E3,5.6E1,4.3E1,1.54E2,6.7E1,3.2E2,1.2545E4],"tree_param":{"num_deleted":"0","num_feature":"8","num_nodes":"63","size_leaf_vector":"1"}},{"base_weights":[1.8075613E-3,5.895473E-1,-1.4718212E-2,-1.3905131E0,1.1785247E0,-1.0401282E0,2.038111E-3,1.0540473E0,-4.327024E0,1.932352E1,1.044731E0,-1.5826107E0,8.3822894E-1,1.1678046E-1,-7.245904E-2,-1.5087769E0,5.262769E0,-5.6057587E0,9.739822E-1,-2.0088465E0,2.666546E1,1.527773E-1,2.4324853E0,1.6014318E1,-1.6699269E0,6.580066E0,-1.2785664E-1,5.0792135E-2,1.3699262E0,-1.2690573E0,-4.0718883E-2,-1.1062741E0,7.097264E-1,-4.763632E-1,2.9583006E0,-1.1944412E0,-3.1376448E0,-8.304861E-1,2.4287195E0,1.2473313E1,2.8207703E0,-1.0791162E0,2.0625693E-1,1.7761816E0,4.0893036E-1,6.125009E0,4.2107764E-1,-8.49202E-1,-1.3612005E-1,3.6422834E0,-1.2489649E0,-4.080924E-1,1.5715283E0,-2.1206148E-2,1.4386731E-1,2.6487413E-1,2.0744755E0,-4.3310013E-1,4.2588296E0,1.3322105E-2,-1.16339795E-1],"categories":[],"categories_nodes":[],"categories_segments":[],"categories_sizes":[],"default_left":[0,0,0,0,0,0,0,0,0,0,0,0,0,0,0,0,0,0,0,0,0,0,0,0,0,0,0,0,0,0,0,0,0,0,0,0,0,0,0,0,0,0,0,0,0,0,0,0,0,0,0,0,0,0,0,0,0,0,0,0,0],"id":14,"left_children":[1,3,5,7,9,11,13,15,17,19,21,23,25,27,29,31,33,35,37,-1,39,41,43,45,47,49,51,53,55,57,59,-1,-1,-1,-1,-1,-1,-1,-1,-1,-1,-1,-1,-1,-1,-1,-1,-1,-1,-1,-1,-1,-1,-1,-1,-1,-1,-1,-1,-1,-1],"loss_changes":[6.3287866E2,2.079827E3,1.0889521E3,2.9405586E3,3.315455E3,1.0396632E3,5.330519E2,2.4240522E3,1.2662759E3,2.0889048E3,1.6892424E3,1.2421108E3,1.2711287E3,2.0299607E3,1.4360186E3,1.1905818E3,2.6932317E3,1.140773E3,1.00851697E3,0E0,1.6684917E3,1.6708046E3,1.9838245E3,2.286311E2,1.1111287E3,2.0220343E3,1.3100216E3,1.2147867E3,3.310084E3,2.658753E3,1.0883268E3,0E0,0E0,0E0,0E0,0E0,0E0,0E0,0E0,0E0,0E0,0E0,0E0,0E0,0E0,0E0,0E0,0E0,0E0,0E0,0E0,0E0,0E0,0E0,0E0,0E0,0E0,0E0,0E0,0E0,0E0],"parents":[2147483647,0,0,1,1,2,2,3,3,4,4,5,5,6,6,7,7,8,8,9,9,10,10,11,11,12,12,13,13,14,14,15,15,16,16,17,17,18,18,20,20,21,21,22,22,23,23,24,24,25,25,26,26,27,27,28,28,29,29,30,30],"right_children":[2,4,6,8,10,12,14,16,18,20,22,24,26,28,30,32,34,36,38,-1,40,42,44,46,48,50,52,54,56,58,60,-1,-1,-1,-1,-1,-1,-1,-1,-1,-1,-1,-1,-1,-1,-1,-1,-1,-1,-1,-1,-1,-1,-1,-1,-1,-1,-1,-1,-1,-1],"split_conditions":[1.2851667E-1,3.048434E-1,1.5153036E-1,4.8637652E-1,3.1031317E-1,6.7174596E-1,4.3090284E-1,3.6679727E-1,7.324218E-1,1.9890688E-1,5.4298264E-1,7.272573E-2,6.975654E-1,4.1879758E-1,4.4105127E-1,1.1478544E-1,4.4157514E-1,6.704547E-1,4.0298167E-1,-2.0088465E0,4.3410364E-1,2.2441977E-1,2.621258E-1,2.8972414E-1,4.564782E-1,5.8023804E-1,6.932124E-1,6.501628E-1,7.9853153E-1,9.0213966E-1,7.258599E-1,-1.1062741E0,7.097264E-1,-4.763632E-1,2.9583006E0,-1.1944412E0,-3.1376448E0,-8.304861E-1,2.4287195E0,1.2473313E1,2.8207703E0,-1.0791162E0,2.0625693E-1,1.7761816E0,4.0893036E-1,6.125009E0,4.2107764E-1,-8.49202E-1,-1.3612005E-1,3.6422834E0,-1.2489649E0,-4.080924E-1,1.5715283E0,-2.1206148E-2,1.4386731E-1,2.6487413E-1,2.0744755E0,-4.3310013E-1,4.2588296E0,1.3322105E-2,-1.16339795E-1],"split_indices":[7,0,7,4,0,0,5,4,4,3,5,3,0,5,5,7,3,1,2,0,3,2,2,0,4,2,3,4,6,4,4,0,0,0,0,0,0,0,0,0,0,0,0,0,0,0,0,0,0,0,0,0,0,0,0,0,0,0,0,0,0],"split_type":[0,0,0,0,0,0,0,0,0,0,0,0,0,0,0,0,0,0,0,0,0,0,0,0,0,0,0,0,0,0,0,0,0,0,0,0,0,0,0,0,0,0,0,0,0,0,0,0,0,0,0,0,0,0,0,0,0,0,0,0,0],"sum_hessian":[6.5157E4,1.781E3,6.3376E4,4.08E2,1.373E3,1.018E3,6.2358E4,2.23E2,1.85E2,9E0,1.364E3,7.9E2,2.28E2,2.4548E4,3.781E4,1.39E2,8.4E1,1.49E2,3.6E1,2E0,7E0,8.31E2,5.33E2,3E0,7.87E2,3.2E1,1.96E2,2.3321E4,1.227E3,9.76E2,3.6834E4,8.9E1,5E1,3.4E1,5E1,1.13E2,3.6E1,2.4E1,1.2E1,3E0,4E0,1.03E2,7.28E2,1.24E2,4.09E2,2E0,1E0,4.02E2,3.85E2,2.1E1,1.1E1,1.6E2,3.6E1,1.8173E4,5.148E3,1.129E3,9.8E1,9.66E2,1E1,2.958E4,7.254E3],"tree_param":{"num_deleted":"0","num_feature":"8","num_nodes":"61","size_leaf_vector":"1"}},{"base_weights":[1.7139075E-3,1.1886358E-2,-6.379454E-1,-2.4524186E-4,6.2174433E-1,1.5223821E0,-1.9446878E0,7.81306E-3,-2.0274734E0,-1.8406836E0,1.1931137E0,1.6625504E1,1.0752975E0,6.3758626E0,-2.4840803E0,4.4651404E-2,-2.3421693E-1,-2.513213E0,3.8640915E1,1.346833E1,-2.230352E0,2.1554987E0,-4.1651887E-1,2.6487317E0,3.2867886E1,-1.9094226E0,2.5752952E0,1.3893164E0,1.6242085E1,-3.479969E0,5.403089E-1,-9.421068E-2,2.7625196E-2,1.5208443E0,-9.149205E-2,-1.2411158E0,1.460387E0,5.8105546E-1,1.6807358E1,-5.723446E-1,6.490007E0,-9.159527E-1,1.7175759E0,5.1054823E-1,1.9447142E0,-1.4801079E0,1.7948541E-1,-7.039722E-1,3.0273993E0,1.3694707E1,2.739236E0,-9.792953E-1,1.7677742E0,1.8063072E0,2.2911961E-1,8.573274E0,-2.2665708E-1,7.032567E-1,8.345905E0,-8.525653E-1,-2.5931551E0,-8.677253E-1,1.2754775E0],"categories":[],"categories_nodes":[],"categories_segments":[],"categories_sizes":[],"default_left":[0,0,0,0,0,0,0,0,0,0,0,0,0,0,0,0,0,0,0,0,0,0,0,0,0,0,0,0,0,0,0,0,0,0,0,0,0,0,0,0,0,0,0,0,0,0,0,0,0,0,0,0,0,0,0,0,0,0,0,0,0,0,0],"id":15,"left_children":[1,3,5,7,9,11,13,15,17,19,21,23,25,27,29,31,33,35,37,39,41,43,45,47,49,51,53,55,57,59,61,-1,-1,-1,-1,-1,-1,-1,-1,-1,-1,-1,-1,-1,-1,-1,-1,-1,-1,-1,-1,-1,-1,-1,-1,-1,-1,-1,-1,-1,-1,-1,-1],"loss_changes":[4.2398438E2,4.7453595E2,2.8824119E3,1.0273715E3,1.7622977E3,2.5817864E3,2.8702334E3,5.585166E2,5.015921E3,1.4378826E3,1.5747694E3,2.4101184E3,1.68382E3,1.8961711E3,1.8030298E3,9.249991E2,3.106917E3,2.9806401E3,1.8056357E3,7.9455225E2,1.5296199E3,1.2374246E3,1.7494727E3,2.8392645E2,1.100124E3,1.3511677E3,1.5559402E3,1.5960817E3,2.0265408E3,1.4581831E3,1.9105302E3,0E0,0E0,0E0,0E0,0E0,0E0,0E0,0E0,0E0,0E0,0E0,0E0,0E0,0E0,0E0,0E0,0E0,0E0,0E0,0E0,0E0,0E0,0E0,0E0,0E0,0E0,0E0,0E0,0E0,0E0,0E0,0E0],"parents":[2147483647,0,0,1,1,2,2,3,3,4,4,5,5,6,6,7,7,8,8,9,9,10,10,11,11,12,12,13,13,14,14,15,15,16,16,17,17,18,18,19,19,20,20,21,21,22,22,23,23,24,24,25,25,26,26,27,27,28,28,29,29,30,30],"right_children":[2,4,6,8,10,12,14,16,18,20,22,24,26,28,30,32,34,36,38,40,42,44,46,48,50,52,54,56,58,60,62,-1,-1,-1,-1,-1,-1,-1,-1,-1,-1,-1,-1,-1,-1,-1,-1,-1,-1,-1,-1,-1,-1,-1,-1,-1,-1,-1,-1,-1,-1,-1,-1],"split_conditions":[8.9604914E-1,8.8481647E-1,3.4273136E-1,8.771204E-1,2.4948382E-1,1.21965334E-1,1.8283913E-1,7.545833E-1,8.952711E-1,7.1314804E-2,4.3925926E-1,4.8292887E-1,1.9288296E-1,6.199149E-1,6.559236E-1,2.324878E-1,1.1774736E-1,6.2210166E-1,3.991958E-1,1.5448387E-1,7.384003E-1,3.9638984E-1,4.879593E-1,3.7902763E-1,1.1478544E-1,6.961725E-1,3.5928035E-1,1.750347E-1,1.5509112E-1,6.055954E-1,5.3043926E-1,-9.421068E-2,2.7625196E-2,1.5208443E0,-9.149205E-2,-1.2411158E0,1.460387E0,5.8105546E-1,1.6807358E1,-5.723446E-1,6.490007E0,-9.159527E-1,1.7175759E0,5.1054823E-1,1.9447142E0,-1.4801079E0,1.7948541E-1,-7.039722E-1,3.0273993E0,1.3694707E1,2.739236E0,-9.792953E-1,1.7677742E0,1.8063072E0,2.2911961E-1,8.573274E0,-2.2665708E-1,7.032567E-1,8.345905E0,-8.525653E-1,-2.5931551E0,-8.677253E-1,1.2754775E0],"split_indices":[6,1,4,1,0,7,5,7,7,5,3,5,4,1,7,3,3,3,0,0,3,3,3,1,7,3,5,3,5,7,5,0,0,0,0,0,0,0,0,0,0,0,0,0,0,0,0,0,0,0,0,0,0,0,0,0,0,0,0,0,0,0,0],"split_type":[0,0,0,0,0,0,0,0,0,0,0,0,0,0,0,0,0,0,0,0,0,0,0,0,0,0,0,0,0,0,0,0,0,0,0,0,0,0,0,0,0,0,0,0,0,0,0,0,0,0,0,0,0,0,0,0,0,0,0,0,0,0,0],"sum_hessian":[6.5157E4,6.4138E4,1.019E3,6.2888E4,1.25E3,3.84E2,6.35E2,6.264E4,2.48E2,2.35E2,1.015E3,1E1,3.74E2,3.8E1,5.97E2,5.4366E4,8.274E3,2.46E2,2E0,5E0,2.3E2,6.35E2,3.8E2,6E0,4E0,1.25E2,2.49E2,2.6E1,1.2E1,4.49E2,1.48E2,6.349E3,4.8017E4,1.08E2,8.166E3,2.02E2,4.4E1,1E0,1E0,2E0,3E0,2.09E2,2.1E1,5.76E2,5.9E1,6.9E1,3.11E2,4E0,2E0,2E0,2E0,1.07E2,1.8E1,8.5E1,1.64E2,1E0,2.5E1,6E0,6E0,4.01E2,4.8E1,7.7E1,7.1E1],"tree_param":{"num_deleted":"0","num_feature":"8","num_nodes":"63","size_leaf_vector":"1"}},{"base_weights":[2.1627238E-3,-5.515738E-2,1.0427737E-1,-1.1608423E-1,2.73017E-1,2.119407E0,5.9517562E-2,-1.0476862E0,-8.811151E-2,3.1003833E-1,-8.04322E0,1.7154137E0,2.4372879E1,1.9162935E-1,-3.412692E-1,5.440572E-1,-2.7364101E0,-1.7903803E-1,2.1471539E-1,1.5453005E0,1.6277319E-1,-9.020837E0,2.8995128E0,2.8012717E0,-3.5570552E0,-2.0125518E0,4.1031654E1,1.6322486E-2,1.0501056E0,9.047721E0,-3.843614E-1,4.471591E-2,3.7295659E0,1.956604E0,-9.4123095E-1,-9.935951E-2,2.2442164E-2,4.8418382E-1,-1.1374466E-2,1.505979E0,1.7531462E-1,2.1337523E0,3.6926165E-2,-3.0891254E0,1.514075E0,-1.0737822E0,1.2241021E0,-1.962828E0,1.9868728E0,1.3316384E1,3.6375308E0,-1.53589705E-2,5.0524414E-1,2.4232385E-1,1.5211354E0,-6.646621E-1,6.1444225E0,-3.570503E-2,-4.846389E-1],"categories":[],"categories_nodes":[],"categories_segments":[],"categories_sizes":[],"default_left":[0,0,0,0,0,0,0,0,0,0,0,0,0,0,0,0,0,0,0,0,0,0,0,0,0,0,0,0,0,0,0,0,0,0,0,0,0,0,0,0,0,0,0,0,0,0,0,0,0,0,0,0,0,0,0,0,0,0,0],"id":16,"left_children":[1,3,5,7,9,11,13,15,17,19,21,23,25,27,29,31,33,35,37,39,41,43,-1,45,47,-1,49,51,53,55,57,-1,-1,-1,-1,-1,-1,-1,-1,-1,-1,-1,-1,-1,-1,-1,-1,-1,-1,-1,-1,-1,-1,-1,-1,-1,-1,-1,-1],"loss_changes":[3.8138998E2,8.344677E2,2.1128245E3,9.171739E2,2.0144775E3,4.5342295E3,1.2135427E3,2.7593926E3,9.4101953E2,1.1834436E3,5.892324E2,2.8782656E3,4.9352627E3,2.5940962E3,2.3023694E3,2.4821946E3,1.8694712E3,1.0152102E3,2.7897886E3,2.3108794E3,1.6029424E3,5.5467847E2,0E0,3.409646E3,2.6572478E3,0E0,4.3904297E1,1.6120977E3,2.8439844E3,3.393673E3,1.8477582E3,0E0,0E0,0E0,0E0,0E0,0E0,0E0,0E0,0E0,0E0,0E0,0E0,0E0,0E0,0E0,0E0,0E0,0E0,0E0,0E0,0E0,0E0,0E0,0E0,0E0,0E0,0E0,0E0],"parents":[2147483647,0,0,1,1,2,2,3,3,4,4,5,5,6,6,7,7,8,8,9,9,10,10,11,11,12,12,13,13,14,14,15,15,16,16,17,17,18,18,19,19,20,20,21,21,23,23,24,24,26,26,27,27,28,28,29,29,30,30],"right_children":[2,4,6,8,10,12,14,16,18,20,22,24,26,28,30,32,34,36,38,40,42,44,-1,46,48,-1,50,52,54,56,58,-1,-1,-1,-1,-1,-1,-1,-1,-1,-1,-1,-1,-1,-1,-1,-1,-1,-1,-1,-1,-1,-1,-1,-1,-1,-1,-1,-1],"split_conditions":[5.912304E-1,7.4299E-1,5.961429E-1,1.3856E-1,9.170632E-1,9.053738E-1,6.256286E-1,6.5384513E-1,6.7889065E-1,7.5590706E-1,9.17494E-1,6.885052E-1,1.6471872E-1,6.86443E-1,8.74358E-2,7.996657E-1,9.914945E-2,5.8602375E-1,7.049132E-1,2.4501626E-1,8.403641E-2,8.55339E-1,2.8995128E0,2.8309056E-1,6.593733E-1,-2.0125518E0,6.9899255E-1,8.6157006E-1,8.1632173E-1,5.274915E-1,7.5280595E-1,4.471591E-2,3.7295659E0,1.956604E0,-9.4123095E-1,-9.935951E-2,2.2442164E-2,4.8418382E-1,-1.1374466E-2,1.505979E0,1.7531462E-1,2.1337523E0,3.6926165E-2,-3.0891254E0,1.514075E0,-1.0737822E0,1.2241021E0,-1.962828E0,1.9868728E0,1.3316384E1,3.6375308E0,-1.53589705E-2,5.0524414E-1,2.4232385E-1,1.5211354E0,-6.646621E-1,6.1444225E0,-3.570503E-2,-4.846389E-1],"split_indices":[4,0,4,3,5,0,6,1,1,0,6,0,5,2,5,5,5,6,1,4,2,3,0,3,2,0,3,3,5,1,2,0,0,0,0,0,0,0,0,0,0,0,0,0,0,0,0,0,0,0,0,0,0,0,0,0,0,0,0],"split_type":[0,0,0,0,0,0,0,0,0,0,0,0,0,0,0,0,0,0,0,0,0,0,0,0,0,0,0,0,0,0,0,0,0,0,0,0,0,0,0,0,0,0,0,0,0,0,0,0,0,0,0,0,0,0,0,0,0,0,0],"sum_hessian":[6.5157E4,4.1732E4,2.3425E4,3.5198E4,6.534E3,5.08E2,2.2917E4,1.025E3,3.4173E4,6.506E3,2.8E1,5E2,8E0,1.7236E4,5.681E3,5.28E2,4.97E2,2.6282E4,7.891E3,6.92E2,5.814E3,2.7E1,1E0,4.15E2,8.5E1,3E0,5E0,1.4314E4,2.922E3,2.5E1,5.656E3,5.12E2,1.6E1,2E1,4.77E2,1.6432E4,9.85E3,1.206E3,6.685E3,1.49E2,5.43E2,3.2E1,5.782E3,2.5E1,2E0,6.9E1,3.46E2,6.6E1,1.9E1,4E0,1E0,1.3758E4,5.56E2,2.757E3,1.65E2,1.3E1,1.2E1,4.654E3,1.002E3],"tree_param":{"num_deleted":"0","num_feature":"8","num_nodes":"59","size_leaf_vector":"1"}},{"base_weights":[2.0158165E-3,5.823078E-1,-9.565712E-3,-2.8688595E0,1.0554785E0,-1.096537E0,3.5908553E-3,1.4760934E-1,-5.319259E0,-2.1664813E0,1.8128425E0,6.8254547E0,-1.35164E0,-9.868447E-2,6.996285E-2,6.1459155E0,-2.54852E0,-5.948223E0,5.933808E0,-4.0416565E0,6.714732E-1,8.284795E0,1.4184902E0,1.3950871E1,1.1046458E0,8.377931E0,-1.5505284E0,5.657741E-2,-4.4181672E-1,9.306522E-2,-1.515029E0,5.257941E0,2.3484112E-1,-1.9026588E0,7.1869093E-1,-2.442368E0,-7.007317E-1,-1.0821474E0,2.7662516E0,1.996545E-1,-1.6059613E0,-2.2734883E-1,4.410571E0,1.2014434E1,1.2160896E0,-1.2264539E0,5.6476235E-1,1.02961E0,-3.067982E0,1.1106128E0,6.093334E0,7.0107967E-1,-6.289458E-1,6.275816E-2,-1.7888586E-1,8.970195E-1,-1.513553E-1,3.6892742E-1,1.9605158E-2,7.816533E-2,-8.9541906E-1],"categories":[],"categories_nodes":[],"categories_segments":[],"categories_sizes":[],"default_left":[0,0,0,0,0,0,0,0,0,0,0,0,0,0,0,0,0,0,0,0,0,0,0,0,0,0,0,0,0,0,0,0,0,0,0,0,0,0,0,0,0,0,0,0,0,0,0,0,0,0,0,0,0,0,0,0,0,0,0,0,0],"id":17,"left_children":[1,3,5,7,9,11,13,15,17,19,21,23,25,27,29,31,33,35,37,39,41,43,45,-1,47,49,51,53,55,57,59,-1,-1,-1,-1,-1,-1,-1,-1,-1,-1,-1,-1,-1,-1,-1,-1,-1,-1,-1,-1,-1,-1,-1,-1,-1,-1,-1,-1,-1,-1],"loss_changes":[4.3791092E2,2.0850918E3,9.135969E2,1.1390844E3,2.741828E3,1.5532112E3,4.2848596E2,1.1477178E3,6.369065E2,1.1415496E3,2.3082253E3,5.3963213E3,1.4468987E3,1.3234915E3,1.4018424E3,1.329054E3,9.342634E2,6.2267554E2,1.9006824E2,7.999675E2,1.7357622E3,6.82624E3,2.2002085E3,0E0,6.152868E2,7.617809E2,1.547876E3,1.7043281E3,1.6668033E3,1.188563E3,1.4360421E3,0E0,0E0,0E0,0E0,0E0,0E0,0E0,0E0,0E0,0E0,0E0,0E0,0E0,0E0,0E0,0E0,0E0,0E0,0E0,0E0,0E0,0E0,0E0,0E0,0E0,0E0,0E0,0E0,0E0,0E0],"parents":[2147483647,0,0,1,1,2,2,3,3,4,4,5,5,6,6,7,7,8,8,9,9,10,10,11,11,12,12,13,13,14,14,15,15,16,16,17,17,18,18,19,19,20,20,21,21,22,22,24,24,25,25,26,26,27,27,28,28,29,29,30,30],"right_children":[2,4,6,8,10,12,14,16,18,20,22,24,26,28,30,32,34,36,38,40,42,44,46,-1,48,50,52,54,56,58,60,-1,-1,-1,-1,-1,-1,-1,-1,-1,-1,-1,-1,-1,-1,-1,-1,-1,-1,-1,-1,-1,-1,-1,-1,-1,-1,-1,-1,-1,-1],"split_conditions":[1.1774736E-1,2.54695E-1,1.3856E-1,1.8042168E-1,2.4532892E-1,1.1436225E-1,4.2763728E-1,4.4424862E-1,8.723295E-1,7.4164444E-1,1.9517449E-1,4.0991175E-1,1.1478544E-1,3.473004E-1,8.859599E-1,1.6222367E-1,5.2962404E-1,4.758444E-1,8.9338504E-2,3.5359094E-1,7.2616696E-1,3.5019708E-1,2.5947887E-1,1.3950871E1,6.628108E-1,6.501628E-1,2.6271114E-1,7.660677E-1,1.2194352E-1,1.2851667E-1,5.222888E-1,5.257941E0,2.3484112E-1,-1.9026588E0,7.1869093E-1,-2.442368E0,-7.007317E-1,-1.0821474E0,2.7662516E0,1.996545E-1,-1.6059613E0,-2.2734883E-1,4.410571E0,1.2014434E1,1.2160896E0,-1.2264539E0,5.6476235E-1,1.02961E0,-3.067982E0,1.1106128E0,6.093334E0,7.0107967E-1,-6.289458E-1,6.275816E-2,-1.7888586E-1,8.970195E-1,-1.513553E-1,3.6892742E-1,1.9605158E-2,7.816533E-2,-8.9541906E-1],"split_indices":[3,4,3,4,2,2,1,0,0,1,0,1,7,1,2,2,2,5,3,5,5,4,0,0,6,4,0,3,2,7,7,0,0,0,0,0,0,0,0,0,0,0,0,0,0,0,0,0,0,0,0,0,0,0,0,0,0,0,0,0,0],"split_type":[0,0,0,0,0,0,0,0,0,0,0,0,0,0,0,0,0,0,0,0,0,0,0,0,0,0,0,0,0,0,0,0,0,0,0,0,0,0,0,0,0,0,0,0,0,0,0,0,0,0,0,0,0,0,0,0,0,0,0,0,0],"sum_hessian":[6.5157E4,1.274E3,6.3883E4,1.53E2,1.121E3,7.63E2,6.312E4,6.9E1,8.4E1,2.13E2,9.08E2,2.3E1,7.4E2,2.4841E4,3.8279E4,2.1E1,4.8E1,8E1,4E0,1.28E2,8.5E1,5.1E1,8.57E2,2E0,2.1E1,1.4E1,7.26E2,1.7103E4,7.738E3,3.773E4,5.49E2,6E0,1.5E1,2.7E1,2.1E1,4.9E1,3.1E1,1E0,3E0,2.8E1,1E2,7.8E1,7E0,5E0,4.6E1,6.6E1,7.91E2,1.8E1,3E0,1.1E1,3E0,8.9E1,6.37E2,1.3863E4,3.24E3,1.38E2,7.6E3,8.97E2,3.6833E4,2.49E2,3E2],"tree_param":{"num_deleted":"0","num_feature":"8","num_nodes":"61","size_leaf_vector":"1"}},{"base_weights":[1.9878636E-3,6.941741E-3,-1.2393582E0,3.4445383E-2,-1.9196518E-1,-8.086286E0,-6.3255966E-1,-3.0467372E-2,2.4988113E-1,-1.3595244E0,-6.6854306E-2,-1.0847944E1,2.92061E0,-3.2194927E0,7.1402943E-1,-1.7250413E0,-2.1954548E-2,-1.450872E0,3.1444198E-1,-8.443703E0,-1.0681281E0,-1.3390145E0,1.2490537E-1,-6.1230755E-1,-3.381244E0,-2.6361692E0,3.772159E0,1.33263855E1,-4.0165057E0,9.298752E0,1.9418587E-1,-6.9925964E-1,3.8009527E0,-1.1411676E-1,2.7907332E-3,-1.0121276E0,1.829084E-1,-1.6173357E-1,1.297495E-1,-2.90893E0,6.3694525E-1,2.8215766E0,-3.9438528E-1,4.5417776E0,-4.4936883E-1,7.5922525E-1,4.6804603E-3,-1.3283063E0,4.1075793E-1,-1.3788729E0,6.249803E0,1.5582892E0,-1.4127151E0,-2.4000517E-1,6.6366653E0,2.5436804E-1,-1.7237126E0],"categories":[],"categories_nodes":[],"categories_segments":[],"categories_sizes":[],"default_left":[0,0,0,0,0,0,0,0,0,0,0,0,0,0,0,0,0,0,0,0,0,0,0,0,0,0,0,0,0,0,0,0,0,0,0,0,0,0,0,0,0,0,0,0,0,0,0,0,0,0,0,0,0,0,0,0,0],"id":18,"left_children":[1,3,5,7,9,11,13,15,17,19,21,23,25,27,29,31,33,35,37,39,41,43,45,-1,-1,47,-1,49,51,53,55,-1,-1,-1,-1,-1,-1,-1,-1,-1,-1,-1,-1,-1,-1,-1,-1,-1,-1,-1,-1,-1,-1,-1,-1,-1,-1],"loss_changes":[4.0069617E2,3.5505273E2,1.0709536E3,7.9736346E2,1.1515593E3,6.7002576E2,8.3486383E2,6.320347E2,1.4500627E3,1.5660444E3,1.7375721E3,4.030664E1,3.013518E2,1.1348823E3,7.033029E2,1.9393801E3,4.8845758E2,1.9158171E3,1.2819952E3,4.1770947E2,1.9072426E3,2.4653584E3,1.6277332E3,0E0,0E0,3.4765076E1,0E0,6.338818E2,5.283926E2,1.1832092E3,5.8731476E2,0E0,0E0,0E0,0E0,0E0,0E0,0E0,0E0,0E0,0E0,0E0,0E0,0E0,0E0,0E0,0E0,0E0,0E0,0E0,0E0,0E0,0E0,0E0,0E0,0E0,0E0],"parents":[2147483647,0,0,1,1,2,2,3,3,4,4,5,5,6,6,7,7,8,8,9,9,10,10,11,11,12,12,13,13,14,14,15,15,16,16,17,17,18,18,19,19,20,20,21,21,22,22,25,25,27,27,28,28,29,29,30,30],"right_children":[2,4,6,8,10,12,14,16,18,20,22,24,26,28,30,32,34,36,38,40,42,44,46,-1,-1,48,-1,50,52,54,56,-1,-1,-1,-1,-1,-1,-1,-1,-1,-1,-1,-1,-1,-1,-1,-1,-1,-1,-1,-1,-1,-1,-1,-1,-1,-1],"split_conditions":[9.3442E-1,7.644934E-1,2.0147786E-1,6.1355793E-1,7.753159E-1,7.7946293E-1,3.2408613E-1,7.1314804E-2,1.461852E-1,1.464856E-1,2.0591755E-1,1.2417116E-1,4.7822753E-1,1.1286142E-1,3.40266E-1,8.933747E-1,1.854956E-1,4.7990012E-1,2.5778383E-1,8.299515E-1,1.2262076E-1,6.7054525E-2,2.3212747E-1,-6.1230755E-1,-3.381244E0,4.5051512E-1,3.772159E0,1.8103719E-1,2.600294E-1,4.8023993E-1,7.450226E-1,-6.9925964E-1,3.8009527E0,-1.1411676E-1,2.7907332E-3,-1.0121276E0,1.829084E-1,-1.6173357E-1,1.297495E-1,-2.90893E0,6.3694525E-1,2.8215766E0,-3.9438528E-1,4.5417776E0,-4.4936883E-1,7.5922525E-1,4.6804603E-3,-1.3283063E0,4.1075793E-1,-1.3788729E0,6.249803E0,1.5582892E0,-1.4127151E0,-2.4000517E-1,6.6366653E0,2.5436804E-1,-1.7237126E0],"split_indices":[0,4,7,4,4,6,5,5,1,2,6,5,1,4,5,1,7,7,5,5,0,2,6,0,0,1,0,1,6,3,3,0,0,0,0,0,0,0,0,0,0,0,0,0,0,0,0,0,0,0,0,0,0,0,0,0,0],"split_type":[0,0,0,0,0,0,0,0,0,0,0,0,0,0,0,0,0,0,0,0,0,0,0,0,0,0,0,0,0,0,0,0,0,0,0,0,0,0,0,0,0,0,0,0,0,0,0,0,0,0,0,0,0,0,0,0,0],"sum_hessian":[6.5157E4,6.4899E4,2.58E2,5.7016E4,7.883E3,2E1,2.38E2,4.3815E4,1.3201E4,7.62E2,7.121E3,1.6E1,4E0,8.1E1,1.57E2,2.18E2,4.3597E4,4.82E2,1.2719E4,2.9E1,7.33E2,9.32E2,6.189E3,1E0,1.5E1,3E0,1E0,3E0,7.8E1,8E0,1.49E2,2.1E2,8E0,3.496E3,4.0101E4,2.49E2,2.33E2,1.545E3,1.1174E4,2.6E1,3E0,1.6E1,7.17E2,8E0,9.24E2,2.68E2,5.921E3,2E0,1E0,1E0,2E0,5E0,7.3E1,5E0,3E0,1.35E2,1.4E1],"tree_param":{"num_deleted":"0","num_feature":"8","num_nodes":"57","size_leaf_vector":"1"}},{"base_weights":[1.6364004E-3,-3.5066727E-1,1.7449364E-2,7.320273E-2,-1.2136577E0,7.073551E-1,8.518199E-5,-2.1607528E-2,9.350776E0,-6.958066E-1,-3.7325132E0,-7.1070766E-1,1.5468441E0,5.258321E-2,-1.476116E-1,2.6623867E0,-3.1430677E-1,-3.1075263E0,1.8693861E1,-9.625796E-1,9.302955E0,-4.2409506E0,4.165607E0,5.634733E0,-9.8781896E-1,3.6844034E0,3.5104352E-1,4.119163E-2,2.171198E0,-1.727042E0,-7.273167E-2,3.0176533E-2,2.7872853E0,-1.4520463E-1,1.7997173E0,-3.4059668E0,3.01137E0,8.306363E0,7.0904034E-1,4.651707E0,-3.283347E-1,-4.0372673E-1,8.781415E0,-2.4509664E0,-7.1669394E-1,-5.0915176E-1,5.523345E0,3.3614957E-1,5.697206E0,3.9948884E-2,-8.1187093E-1,8.1661874E-1,3.72208E0,6.8148904E0,2.8397443E-2,3.1237844E-1,7.418114E-3,4.3525526E-1,6.1496706E0,-6.866592E-1,8.624204E-1,8.015084E-2,-9.246423E-2],"categories":[],"categories_nodes":[],"categories_segments":[],"categories_sizes":[],"default_left":[0,0,0,0,0,0,0,0,0,0,0,0,0,0,0,0,0,0,0,0,0,0,0,0,0,0,0,0,0,0,0,0,0,0,0,0,0,0,0,0,0,0,0,0,0,0,0,0,0,0,0,0,0,0,0,0,0,0,0,0,0,0,0],"id":19,"left_children":[1,3,5,7,9,11,13,15,17,19,21,23,25,27,29,31,33,35,37,39,41,43,45,47,49,51,53,55,57,59,61,-1,-1,-1,-1,-1,-1,-1,-1,-1,-1,-1,-1,-1,-1,-1,-1,-1,-1,-1,-1,-1,-1,-1,-1,-1,-1,-1,-1,-1,-1,-1,-1],"loss_changes":[3.6299905E2,1.0239512E3,7.470508E2,1.6521079E3,1.2000526E3,1.8236754E3,4.7167084E2,1.4620583E3,2.269672E3,2.0521826E3,6.481304E2,1.00785016E3,2.4576697E3,1.0830369E3,1.8864797E3,3.1065967E3,1.8007677E3,1.0895011E3,1.5501941E3,1.6392E3,4.2921523E3,1.0573713E3,8.6643164E2,1.4257268E3,1.0540547E3,2.8621748E3,3.5415393E3,7.3500464E2,3.138813E3,1.8732231E3,1.2191829E3,0E0,0E0,0E0,0E0,0E0,0E0,0E0,0E0,0E0,0E0,0E0,0E0,0E0,0E0,0E0,0E0,0E0,0E0,0E0,0E0,0E0,0E0,0E0,0E0,0E0,0E0,0E0,0E0,0E0,0E0,0E0,0E0],"parents":[2147483647,0,0,1,1,2,2,3,3,4,4,5,5,6,6,7,7,8,8,9,9,10,10,11,11,12,12,13,13,14,14,15,15,16,16,17,17,18,18,19,19,20,20,21,21,22,22,23,23,24,24,25,25,26,26,27,27,28,28,29,29,30,30],"right_children":[2,4,6,8,10,12,14,16,18,20,22,24,26,28,30,32,34,36,38,40,42,44,46,48,50,52,54,56,58,60,62,-1,-1,-1,-1,-1,-1,-1,-1,-1,-1,-1,-1,-1,-1,-1,-1,-1,-1,-1,-1,-1,-1,-1,-1,-1,-1,-1,-1,-1,-1,-1,-1],"split_conditions":[1.5151928E-1,5.929994E-1,1.8109508E-1,5.8754617E-1,6.807136E-1,3.9257175E-1,6.597571E-1,2.7950424E-1,3.666705E-1,6.6407996E-1,8.933747E-1,1.6919312E-1,5.36857E-1,6.573526E-1,6.6823995E-1,4.7903046E-1,8.9155966E-1,5.787621E-1,4.9503005E-1,8.364147E-2,6.4747685E-1,3.545752E-1,1.3541314E-1,6.628108E-1,6.199149E-1,7.5177366E-1,1.461852E-1,1.1774736E-1,8.564018E-1,7.645722E-1,4.4799423E-1,3.0176533E-2,2.7872853E0,-1.4520463E-1,1.7997173E0,-3.4059668E0,3.01137E0,8.306363E0,7.0904034E-1,4.651707E0,-3.283347E-1,-4.0372673E-1,8.781415E0,-2.4509664E0,-7.1669394E-1,-5.0915176E-1,5.523345E0,3.3614957E-1,5.697206E0,3.9948884E-2,-8.1187093E-1,8.1661874E-1,3.72208E0,6.8148904E0,2.8397443E-2,3.1237844E-1,7.418114E-3,4.3525526E-1,6.1496706E0,-6.866592E-1,8.624204E-1,8.015084E-2,-9.246423E-2],"split_indices":[2,0,2,0,7,7,6,5,7,7,1,5,7,6,6,0,4,3,3,6,4,3,2,6,1,3,1,3,4,7,1,0,0,0,0,0,0,0,0,0,0,0,0,0,0,0,0,0,0,0,0,0,0,0,0,0,0,0,0,0,0,0,0],"split_type":[0,0,0,0,0,0,0,0,0,0,0,0,0,0,0,0,0,0,0,0,0,0,0,0,0,0,0,0,0,0,0,0,0,0,0,0,0,0,0,0,0,0,0,0,0,0,0,0,0,0,0,0,0,0,0,0,0,0,0,0,0,0,0],"sum_hessian":[6.5157E4,2.798E3,6.2359E4,1.877E3,9.21E2,1.53E3,6.0829E4,1.859E3,1.8E1,7.65E2,1.56E2,5.69E2,9.61E2,4.4878E4,1.5951E4,1.82E2,1.677E3,8E0,1E1,7.46E2,1.9E1,1.47E2,9E0,2.3E1,5.46E2,3.44E2,6.17E2,4.4639E4,2.39E2,7.21E2,1.523E4,1.32E2,5E1,1.634E3,4.3E1,5E0,3E0,6E0,4E0,5E0,7.41E2,1.3E1,6E0,4.6E1,1.01E2,7E0,2E0,1.8E1,5E0,3.31E2,2.15E2,3.11E2,3.3E1,6E0,6.11E2,7.22E2,4.3917E4,2.31E2,8E0,6.43E2,7.8E1,6.233E3,8.997E3],"tree_param":{"num_deleted":"0","num_feature":"8","num_nodes":"63","size_leaf_vector":"1"}},{"base_weights":[1.9339471E-3,8.517062E-2,-5.234511E-2,3.692872E-2,1.0077398E0,3.4661204E-1,-1.1200692E-1,-8.713021E-1,9.156436E-2,3.329745E0,1.0356753E-2,-1.093422E-2,1.3108099E0,-1.3496563E-1,1.2448032E0,1.5703127E0,-1.3131683E0,-1.2585926E-1,2.8276846E-1,1.8181164E1,2.4637847E0,-3.3359017E0,7.103024E-1,-6.849941E-2,1.0197813E1,8.222218E-1,5.368114E0,-2.585982E0,-1.24016635E-1,4.9715705E0,4.3336692E-1,-2.712269E-1,1.6143153E0,-3.4518304E-1,-3.1930115E0,-1.01153724E-1,1.5286782E-1,9.762015E-2,-9.3527853E-1,9.897099E0,5.1575124E-1,6.1837935E-1,4.9520636E0,3.407712E0,-1.3283054E0,4.0117633E-2,1.9525497E0,-2.1284434E-1,1.2891026E-1,2.0067663E0,1.20554495E1,7.8391045E-1,-3.5350542E-3,4.5157018E-1,3.7009885E0,6.4304376E-1,-1.5132068E0,-1.1993011E-1,-1.04584005E-2,-1.6806668E0,2.2378724E0,-1.9778417E-1,1.3925363E0],"categories":[],"categories_nodes":[],"categories_segments":[],"categories_sizes":[],"default_left":[0,0,0,0,0,0,0,0,0,0,0,0,0,0,0,0,0,0,0,0,0,0,0,0,0,0,0,0,0,0,0,0,0,0,0,0,0,0,0,0,0,0,0,0,0,0,0,0,0,0,0,0,0,0,0,0,0,0,0,0,0,0,0],"id":20,"left_children":[1,3,5,7,9,11,13,15,17,19,21,23,25,27,29,31,33,35,37,39,41,43,45,47,49,51,53,55,57,59,61,-1,-1,-1,-1,-1,-1,-1,-1,-1,-1,-1,-1,-1,-1,-1,-1,-1,-1,-1,-1,-1,-1,-1,-1,-1,-1,-1,-1,-1,-1,-1,-1],"loss_changes":[2.9438882E2,1.1446251E3,9.388096E2,1.2129352E3,2.9597227E3,1.7689023E3,1.068945E3,1.4984503E3,9.5852625E2,4.893729E3,2.098638E3,2.2009294E3,2.747088E3,9.051309E2,1.7245692E3,2.0133054E3,1.7698768E3,1.4488815E3,1.779438E3,5.062837E3,2.0235325E3,2.5370645E3,2.4763716E3,1.1895167E3,1.9406514E3,1.8520298E3,3.9922925E3,1.7545925E3,8.258076E2,2.7251685E3,2.1642705E3,0E0,0E0,0E0,0E0,0E0,0E0,0E0,0E0,0E0,0E0,0E0,0E0,0E0,0E0,0E0,0E0,0E0,0E0,0E0,0E0,0E0,0E0,0E0,0E0,0E0,0E0,0E0,0E0,0E0,0E0,0E0,0E0],"parents":[2147483647,0,0,1,1,2,2,3,3,4,4,5,5,6,6,7,7,8,8,9,9,10,10,11,11,12,12,13,13,14,14,15,15,16,16,17,17,18,18,19,19,20,20,21,21,22,22,23,23,24,24,25,25,26,26,27,27,28,28,29,29,30,30],"right_children":[2,4,6,8,10,12,14,16,18,20,22,24,26,28,30,32,34,36,38,40,42,44,46,48,50,52,54,56,58,60,62,-1,-1,-1,-1,-1,-1,-1,-1,-1,-1,-1,-1,-1,-1,-1,-1,-1,-1,-1,-1,-1,-1,-1,-1,-1,-1,-1,-1,-1,-1,-1,-1],"split_conditions":[4.3090284E-1,4.1879758E-1,2.461895E-1,1.8103719E-1,3.7667826E-1,2.1308428E-1,8.865505E-1,3.1872737E-1,4.4160005E-1,1.762075E-1,2.7027416E-1,9.139094E-1,8.081722E-1,2.4924739E-1,3.4528598E-1,5.0042194E-1,8.970036E-1,6.9044536E-1,9.053738E-1,4.759856E-1,8.8306963E-1,1.2031047E-1,7.9853153E-1,3.977355E-1,8.346603E-1,2.2459166E-1,4.75473E-1,3.5255986E-1,3.6014053E-1,1.937089E-1,6.7511165E-1,-2.712269E-1,1.6143153E0,-3.4518304E-1,-3.1930115E0,-1.01153724E-1,1.5286782E-1,9.762015E-2,-9.3527853E-1,9.897099E0,5.1575124E-1,6.1837935E-1,4.9520636E0,3.407712E0,-1.3283054E0,4.0117633E-2,1.9525497E0,-2.1284434E-1,1.2891026E-1,2.0067663E0,1.20554495E1,7.8391045E-1,-3.5350542E-3,4.5157018E-1,3.7009885E0,6.4304376E-1,-1.5132068E0,-1.1993011E-1,-1.04584005E-2,-1.6806668E0,2.2378724E0,-1.9778417E-1,1.3925363E0],"split_indices":[5,5,7,1,2,7,0,0,4,1,4,1,5,7,6,7,3,1,0,4,4,1,6,2,5,7,2,1,3,6,2,0,0,0,0,0,0,0,0,0,0,0,0,0,0,0,0,0,0,0,0,0,0,0,0,0,0,0,0,0,0,0,0],"split_type":[0,0,0,0,0,0,0,0,0,0,0,0,0,0,0,0,0,0,0,0,0,0,0,0,0,0,0,0,0,0,0,0,0,0,0,0,0,0,0,0,0,0,0,0,0,0,0,0,0,0,0,0,0,0,0,0,0,0,0,0,0,0,0],"sum_hessian":[6.5157E4,2.5718E4,3.9439E4,2.4441E4,1.277E3,5.13E3,3.4309E4,1.386E3,2.3055E4,3.83E2,8.94E2,3.743E3,1.387E3,3.3739E4,5.7E2,2.12E2,1.174E3,1.0788E4,1.2267E4,2E1,3.63E2,1.54E2,7.4E2,3.723E3,2E1,1.239E3,1.48E2,1.49E2,3.359E4,1.01E2,4.69E2,1.29E2,8.3E1,1.155E3,1.9E1,8.096E3,2.692E3,1.2116E4,1.51E2,1E1,1E1,3.54E2,9E0,1E1,1.44E2,6.74E2,6.6E1,1.628E3,2.095E3,1.9E1,1E0,3.93E2,8.46E2,9.6E1,5.2E1,5.1E1,9.8E1,8.206E3,2.5384E4,1.9E1,8.2E1,3.73E2,9.6E1],"tree_param":{"num_deleted":"0","num_feature":"8","num_nodes":"63","size_leaf_vector":"1"}},{"base_weights":[1.9175226E-3,1.3050753E-1,-3.9217148E-2,4.6060976E-1,-1.6517769E-1,-2.3408892E-2,-1.6160268E0,2.4323428E-1,2.6857233E0,2.6447299E0,-2.3143531E-1,-8.8716894E-1,-5.404757E-3,1.2561255E1,-1.8177311E0,4.1023716E-2,2.0421715E0,1.9083339E0,9.361642E0,7.024465E0,-5.463709E-1,-1.4890913E0,-8.285469E-2,-9.807002E-1,2.2600517E1,1.0720574E0,-1.6498907E-2,2.1433323E1,5.488758E-1,-2.7051644E0,1.188735E0,-4.0306106E-2,6.0302377E-1,4.7811028E-1,2.897892E0,8.5380197E-1,-6.374339E-1,1.3368944E0,4.9155865E0,6.341425E-1,3.3944871E0,-6.5418065E-1,2.6143105E0,-5.252428E-1,4.709258E0,-3.8826555E-2,1.3943491E0,-1.7018117E0,-1.6255218E-1,1.1320046E0,1.1862304E1,-1.2348424E-1,1.0143849E0,-4.2750186E-1,-1.9958492E-3,7.717737E0,1.2833874E0,6.086939E-1,-5.837154E-1,3.4351155E-1,-1.1370921E0,4.3200445E0,-1.6743131E-1],"categories":[],"categories_nodes":[],"categories_segments":[],"categories_sizes":[],"default_left":[0,0,0,0,0,0,0,0,0,0,0,0,0,0,0,0,0,0,0,0,0,0,0,0,0,0,0,0,0,0,0,0,0,0,0,0,0,0,0,0,0,0,0,0,0,0,0,0,0,0,0,0,0,0,0,0,0,0,0,0,0,0,0],"id":21,"left_children":[1,3,5,7,9,11,13,15,17,19,21,23,25,27,29,31,33,35,37,39,41,43,45,47,49,51,53,55,57,59,61,-1,-1,-1,-1,-1,-1,-1,-1,-1,-1,-1,-1,-1,-1,-1,-1,-1,-1,-1,-1,-1,-1,-1,-1,-1,-1,-1,-1,-1,-1,-1,-1],"loss_changes":[3.446588E2,1.5414756E3,1.230514E3,3.6086055E3,1.5516593E3,7.601093E2,1.4240474E3,2.4731487E3,3.4281543E3,2.6872637E3,1.5209438E3,2.2146028E3,5.723645E2,7.342583E2,1.2945461E3,2.1112588E3,2.3315425E3,2.2599639E3,2.3042583E3,1.6826824E3,1.7140316E3,3.8958054E3,1.604566E3,2.0457622E3,1.1265642E3,1.6733442E3,6.5726324E2,1.8450146E2,1.871685E1,1.5669192E3,2.569719E3,0E0,0E0,0E0,0E0,0E0,0E0,0E0,0E0,0E0,0E0,0E0,0E0,0E0,0E0,0E0,0E0,0E0,0E0,0E0,0E0,0E0,0E0,0E0,0E0,0E0,0E0,0E0,0E0,0E0,0E0,0E0,0E0],"parents":[2147483647,0,0,1,1,2,2,3,3,4,4,5,5,6,6,7,7,8,8,9,9,10,10,11,11,12,12,13,13,14,14,15,15,16,16,17,17,18,18,19,19,20,20,21,21,22,22,23,23,24,24,25,25,26,26,27,27,28,28,29,29,30,30],"right_children":[2,4,6,8,10,12,14,16,18,20,22,24,26,28,30,32,34,36,38,40,42,44,46,48,50,52,54,56,58,60,62,-1,-1,-1,-1,-1,-1,-1,-1,-1,-1,-1,-1,-1,-1,-1,-1,-1,-1,-1,-1,-1,-1,-1,-1,-1,-1,-1,-1,-1,-1,-1,-1],"split_conditions":[3.311639E-1,4.83004E-1,9.0549254E-1,4.542994E-1,1.3582611E-1,3.4273136E-1,1.0920034E-1,3.138999E-1,7.8192055E-1,4.6280023E-1,5.179743E-1,9.3013734E-1,9.640491E-2,9.17494E-1,6.749355E-1,8.3712906E-1,8.5449576E-1,2.9924065E-1,4.8947245E-1,1.0536136E-1,7.4164444E-1,3.2831332E-1,9.17494E-1,2.2144169E-1,3.0750954E-1,4.9755672E-1,1.1478544E-1,8.636686E-1,5.146294E-1,3.8371968E-1,1.869924E-1,-4.0306106E-2,6.0302377E-1,4.7811028E-1,2.897892E0,8.5380197E-1,-6.374339E-1,1.3368944E0,4.9155865E0,6.341425E-1,3.3944871E0,-6.5418065E-1,2.6143105E0,-5.252428E-1,4.709258E0,-3.8826555E-2,1.3943491E0,-1.7018117E0,-1.6255218E-1,1.1320046E0,1.1862304E1,-1.2348424E-1,1.0143849E0,-4.2750186E-1,-1.9958492E-3,7.717737E0,1.2833874E0,6.086939E-1,-5.837154E-1,3.4351155E-1,-1.1370921E0,4.3200445E0,-1.6743131E-1],"split_indices":[4,3,6,3,6,4,5,4,1,7,3,5,7,6,7,6,0,4,0,6,1,4,6,6,0,2,7,1,0,0,3,0,0,0,0,0,0,0,0,0,0,0,0,0,0,0,0,0,0,0,0,0,0,0,0,0,0,0,0,0,0,0,0],"split_type":[0,0,0,0,0,0,0,0,0,0,0,0,0,0,0,0,0,0,0,0,0,0,0,0,0,0,0,0,0,0,0,0,0,0,0,0,0,0,0,0,0,0,0,0,0,0,0,0,0,0,0,0,0,0,0,0,0,0,0,0,0,0,0],"sum_hessian":[6.5157E4,1.5791E4,4.9366E4,7.461E3,8.33E3,4.8877E4,4.89E2,6.798E3,6.63E2,1.91E2,8.139E3,9.97E2,4.788E4,6E0,4.83E2,6.112E3,6.86E2,5.95E2,6.8E1,8E1,1.11E2,8.59E2,7.28E3,9.94E2,3E0,4.87E2,4.7393E4,3E0,3E0,3.73E2,1.1E2,5.613E3,4.99E2,6.49E2,3.7E1,4.83E2,1.12E2,4.1E1,2.7E1,3.8E1,4.2E1,9.5E1,1.6E1,8.47E2,1.2E1,7.21E3,7E1,8.4E1,9.1E2,2E0,1E0,2.97E2,1.9E2,3.28E2,4.7065E4,2E0,1E0,2E0,1E0,8.2E1,2.91E2,1.2E1,9.8E1],"tree_param":{"num_deleted":"0","num_feature":"8","num_nodes":"63","size_leaf_vector":"1"}},{"base_weights":[2.0462843E-3,3.7636954E-2,-1.4812519E-1,6.831373E-3,6.44927E-1,-1.3232324E0,-1.4457939E-2,2.4989229E-2,-1.7530044E0,6.983354E0,4.7059017E-1,1.757739E0,-2.3488402E0,5.5681247E-2,-1.8299685E0,-6.635119E-2,1.6898425E-1,-5.012648E0,-6.759897E-1,-3.1023777E0,1.1555754E1,8.638752E-1,-1.2366369E0,1.2573926E0,2.764957E1,-1.9586985E0,-5.495907E0,-2.1375406E0,1.05120584E-1,-3.3584373E0,2.4663801E0,7.73428E-1,-2.3816884E-2,3.42004E-2,3.9272997E-1,-1.7038419E0,7.332781E0,1.6671991E0,-4.606999E-1,1.7346045E0,-2.5776525E0,2.2446806E0,6.843969E0,4.0194535E-1,-2.3202755E-1,1.677277E0,-5.063782E-1,3.9128857E0,1.2338705E-1,2.9086225E0,1.7613058E1,3.822972E-1,-8.155505E-1,-3.1137276E0,-1.1017524E0,1.8868163E-1,-1.3205956E0,-4.1763386E-1,5.3253412E-2,-2.358183E0,-6.9802856E-1,-1.3522172E0,1.7342715E0],"categories":[],"categories_nodes":[],"categories_segments":[],"categories_sizes":[],"default_left":[0,0,0,0,0,0,0,0,0,0,0,0,0,0,0,0,0,0,0,0,0,0,0,0,0,0,0,0,0,0,0,0,0,0,0,0,0,0,0,0,0,0,0,0,0,0,0,0,0,0,0,0,0,0,0,0,0,0,0,0,0,0,0],"id":22,"left_children":[1,3,5,7,9,11,13,15,17,19,21,23,25,27,29,31,33,35,37,39,41,43,45,47,49,51,53,55,57,59,61,-1,-1,-1,-1,-1,-1,-1,-1,-1,-1,-1,-1,-1,-1,-1,-1,-1,-1,-1,-1,-1,-1,-1,-1,-1,-1,-1,-1,-1,-1,-1,-1],"loss_changes":[3.4825577E2,9.854355E2,1.9608845E3,1.6020361E3,2.806783E3,4.0329604E3,1.4275657E3,6.5266785E2,1.794082E3,3.171738E3,1.6635211E3,4.097841E3,1.1642412E3,1.1706338E3,2.7466533E3,1.0471019E3,1.2072002E3,2.6332903E3,2.076969E3,1.1226973E3,1.9845913E3,1.5696885E3,1.4391196E3,3.1257776E3,2.7767852E3,2.0988252E3,8.9680176E2,1.4937289E3,1.144477E3,1.4123025E3,2.568678E3,0E0,0E0,0E0,0E0,0E0,0E0,0E0,0E0,0E0,0E0,0E0,0E0,0E0,0E0,0E0,0E0,0E0,0E0,0E0,0E0,0E0,0E0,0E0,0E0,0E0,0E0,0E0,0E0,0E0,0E0,0E0,0E0],"parents":[2147483647,0,0,1,1,2,2,3,3,4,4,5,5,6,6,7,7,8,8,9,9,10,10,11,11,12,12,13,13,14,14,15,15,16,16,17,17,18,18,19,19,20,20,21,21,22,22,23,23,24,24,25,25,26,26,27,27,28,28,29,29,30,30],"right_children":[2,4,6,8,10,12,14,16,18,20,22,24,26,28,30,32,34,36,38,40,42,44,46,48,50,52,54,56,58,60,62,-1,-1,-1,-1,-1,-1,-1,-1,-1,-1,-1,-1,-1,-1,-1,-1,-1,-1,-1,-1,-1,-1,-1,-1,-1,-1,-1,-1,-1,-1,-1,-1],"split_conditions":[7.0792556E-1,6.7889065E-1,7.230481E-1,6.7340904E-1,1.3476127E-1,3.2140097E-1,8.14043E-1,5.9025097E-1,3.555206E-1,2.885019E-1,7.253844E-1,8.7427324E-1,7.427584E-1,1.1947308E-1,7.189931E-1,8.74358E-2,8.5259897E-1,8.7378603E-1,2.4501626E-1,3.521511E-1,6.6564393E-1,6.67584E-1,1.8079652E-1,1.854956E-1,2.2191751E-1,2.9278746E-1,7.700719E-1,4.9676093E-1,1.6240582E-1,2.647383E-1,2.977182E-1,7.73428E-1,-2.3816884E-2,3.42004E-2,3.9272997E-1,-1.7038419E0,7.332781E0,1.6671991E0,-4.606999E-1,1.7346045E0,-2.5776525E0,2.2446806E0,6.843969E0,4.0194535E-1,-2.3202755E-1,1.677277E0,-5.063782E-1,3.9128857E0,1.2338705E-1,2.9086225E0,1.7613058E1,3.822972E-1,-8.155505E-1,-3.1137276E0,-1.1017524E0,1.8868163E-1,-1.3205956E0,-4.1763386E-1,5.3253412E-2,-2.358183E0,-6.9802856E-1,-1.3522172E0,1.7342715E0],"split_indices":[1,1,1,1,7,0,2,2,7,5,7,3,2,4,7,5,7,5,4,3,6,4,6,7,0,4,2,0,6,4,5,0,0,0,0,0,0,0,0,0,0,0,0,0,0,0,0,0,0,0,0,0,0,0,0,0,0,0,0,0,0,0,0],"split_type":[0,0,0,0,0,0,0,0,0,0,0,0,0,0,0,0,0,0,0,0,0,0,0,0,0,0,0,0,0,0,0,0,0,0,0,0,0,0,0,0,0,0,0,0,0,0,0,0,0,0,0,0,0,0,0,0,0,0,0,0,0,0,0],"sum_hessian":[6.5157E4,5.2674E4,1.2483E4,5.0132E4,2.542E3,1.274E3,1.1209E4,4.9621E4,5.11E2,6.7E1,2.475E3,3.18E2,9.56E2,1.0793E4,4.16E2,3.0362E4,1.9259E4,1.26E2,3.85E2,2.1E1,4.6E1,2.012E3,4.63E2,3.13E2,5E0,8.52E2,1.04E2,2.37E2,1.0556E4,3.07E2,1.09E2,1.48E2,3.0214E4,1.8374E4,8.85E2,1.24E2,2E0,4.6E1,3.39E2,8E0,1.3E1,3.5E1,1.1E1,1.559E3,4.53E2,2.8E1,4.35E2,2E1,2.93E2,4E0,1E0,1.62E2,6.9E2,2.7E1,7.7E1,1.07E2,1.3E2,4.86E2,1.007E4,5.6E1,2.51E2,3.5E1,7.4E1],"tree_param":{"num_deleted":"0","num_feature":"8","num_nodes":"63","size_leaf_vector":"1"}},{"base_weights":[1.9440542E-3,-1.214696E0,6.780516E-3,-1.5087149E0,7.283945E0,1.1334445E0,-2.143037E-3,-4.7944226E0,-4.1975558E-2,2.6076238E0,-7.0131963E-1,-4.1830298E-1,1.3001168E-2,1.0094274E1,-5.5149536E0,-7.294876E-1,1.0462025E1,1.4430679E0,9.255599E0,-1.2025901E0,1.804612E1,-9.7810423E-1,9.3821764E-1,4.653856E-2,-2.0144334E-1,3.4927292E0,8.1747067E-1,-1.91327E0,1.6835366E0,6.334067E0,-2.9601383E-1,4.110874E0,-8.243953E-1,6.063534E-1,-2.4348712E0,-8.5433644E-1,6.4483786E0,2.6177666E-1,-1.5446032E0,8.555186E0,-5.7924265E-1,-3.428805E-1,2.1418405E0,4.5170307E-1,-1.2345489E0,-6.0930956E-2,2.8619435E-2,1.4483978E-1,-1.6960645E-1],"categories":[],"categories_nodes":[],"categories_segments":[],"categories_sizes":[],"default_left":[0,0,0,0,0,0,0,0,0,0,0,0,0,0,0,0,0,0,0,0,0,0,0,0,0,0,0,0,0,0,0,0,0,0,0,0,0,0,0,0,0,0,0,0,0,0,0,0,0],"id":23,"left_children":[1,3,5,7,-1,9,11,13,15,17,19,21,23,25,27,29,31,33,35,37,39,41,43,45,47,-1,-1,-1,-1,-1,-1,-1,-1,-1,-1,-1,-1,-1,-1,-1,-1,-1,-1,-1,-1,-1,-1,-1,-1],"loss_changes":[3.8341312E2,1.9705652E3,6.52507E2,1.2335334E3,0E0,1.3812622E3,4.0583032E2,9.031631E2,1.2930815E3,2.1776123E3,2.1643408E3,1.7178801E3,4.468571E2,1.3911285E1,7.652429E2,9.6475446E2,5.0858923E2,1.3537764E3,6.2828105E3,1.8306034E3,1.3101519E3,2.1503381E3,1.9016715E3,6.5538477E2,2.0926514E3,0E0,0E0,0E0,0E0,0E0,0E0,0E0,0E0,0E0,0E0,0E0,0E0,0E0,0E0,0E0,0E0,0E0,0E0,0E0,0E0,0E0,0E0,0E0,0E0],"parents":[2147483647,0,0,1,1,2,2,3,3,5,5,6,6,7,7,8,8,9,9,10,10,11,11,12,12,13,13,14,14,15,15,16,16,17,17,18,18,19,19,20,20,21,21,22,22,23,23,24,24],"right_children":[2,4,6,8,-1,10,12,14,16,18,20,22,24,26,28,30,32,34,36,38,40,42,44,46,48,-1,-1,-1,-1,-1,-1,-1,-1,-1,-1,-1,-1,-1,-1,-1,-1,-1,-1,-1,-1,-1,-1,-1,-1],"split_conditions":[7.0283085E-2,8.8077486E-1,9.640491E-2,3.5359094E-1,7.283945E0,5.366074E-1,1.436747E-1,1.4465846E-1,7.5600207E-1,7.183294E-1,8.703918E-1,6.1809146E-1,7.545833E-1,6.1374617E-1,7.2260857E-1,8.4259935E-2,8.277175E-1,8.12401E-1,3.7362552E-1,5.811887E-1,9.139094E-1,9.1719854E-1,8.644141E-1,2.6898357E-1,3.8987747E-1,3.4927292E0,8.1747067E-1,-1.91327E0,1.6835366E0,6.334067E0,-2.9601383E-1,4.110874E0,-8.243953E-1,6.063534E-1,-2.4348712E0,-8.5433644E-1,6.4483786E0,2.6177666E-1,-1.5446032E0,8.555186E0,-5.7924265E-1,-3.428805E-1,2.1418405E0,4.5170307E-1,-1.2345489E0,-6.0930956E-2,2.8619435E-2,1.4483978E-1,-1.6960645E-1],"split_indices":[7,5,7,5,0,6,5,3,2,0,1,7,7,0,4,0,6,5,1,5,1,2,7,0,6,0,0,0,0,0,0,0,0,0,0,0,0,0,0,0,0,0,0,0,0,0,0,0,0],"split_type":[0,0,0,0,0,0,0,0,0,0,0,0,0,0,0,0,0,0,0,0,0,0,0,0,0,0,0,0,0,0,0,0,0,0,0,0,0,0,0,0,0,0,0,0,0,0,0,0,0],"sum_hessian":[6.5157E4,2.57E2,6.49E4,2.55E2,2E0,5.09E2,6.4391E4,7.8E1,1.77E2,2.82E2,2.27E2,2.26E3,6.2131E4,3E0,7.5E1,1.67E2,1E1,2.41E2,4.1E1,2.22E2,5E0,1.6E3,6.6E2,5.3729E4,8.402E3,2E0,1E0,7E1,5E0,1E0,1.66E2,8E0,2E0,2.28E2,1.3E1,2.1E1,2E1,1.46E2,7.6E1,3E0,2E0,1.569E3,3.1E1,5.94E2,6.6E1,8.794E3,4.4935E4,2.917E3,5.485E3],"tree_param":{"num_deleted":"0","num_feature":"8","num_nodes":"49","size_leaf_vector":"1"}},{"base_weights":[1.8532987E-3,1.2661481E-1,-3.1518888E-2,-5.054695E-1,3.071225E-1,-1.6021827E-1,1.0261644E-1,3.0965802E-1,-1.2391754E0,2.2436611E-1,2.5844219E0,2.8032851E0,-1.8217327E-1,1.812048E-1,-5.5980116E-1,5.894068E0,5.1382296E-2,4.3532643E0,-1.4587488E0,1.6085432E-1,2.7212892E0,3.5671856E1,2.3113742E0,2.4225227E1,2.3375428E0,-1.5445614E-1,-1.9632542E0,4.315918E-2,6.5929073E-1,-5.98165E-1,8.768156E0,2.816771E0,-1.2964059E0,2.1959846E-3,9.15505E0,1.7765751E-1,3.9915452E0,-2.002397E-1,-9.407068E-1,6.1003033E-2,-1.2229484E0,4.5057412E-2,1.369992E0,1.4423729E1,1.6286076E0,3.2991615E-1,1.7242888E0,1.000238E1,-4.6843246E-1,3.312642E-2,1.985631E0,-1.9589363E-2,-2.0408273E-1,-2.4903798E0,-3.2802075E-1,-7.9415756E-1,2.969388E-2,2.1177277E-1,-1.6017348E0,-1.1107025E0,-1.392232E-1,6.230292E0,-3.166492E-1],"categories":[],"categories_nodes":[],"categories_segments":[],"categories_sizes":[],"default_left":[0,0,0,0,0,0,0,0,0,0,0,0,0,0,0,0,0,0,0,0,0,0,0,0,0,0,0,0,0,0,0,0,0,0,0,0,0,0,0,0,0,0,0,0,0,0,0,0,0,0,0,0,0,0,0,0,0,0,0,0,0,0,0],"id":24,"left_children":[1,3,5,7,9,11,13,15,17,19,21,23,25,27,29,31,33,35,37,39,41,43,45,47,49,51,53,55,57,59,61,-1,-1,-1,-1,-1,-1,-1,-1,-1,-1,-1,-1,-1,-1,-1,-1,-1,-1,-1,-1,-1,-1,-1,-1,-1,-1,-1,-1,-1,-1,-1,-1],"loss_changes":[2.7129355E2,1.5690905E3,8.874797E2,1.8274689E3,2.0153884E3,1.7075222E3,1.3105653E3,2.0881726E3,1.9808958E3,1.6366252E3,3.3054653E3,1.8689542E3,1.2853966E3,1.4851831E3,9.607202E2,2.3256697E3,1.8589718E3,2.0459111E3,2.052002E3,1.813484E3,1.213926E3,8.646958E2,1.546684E3,9.9234937E2,1.8108835E3,1.20227E3,2.190662E3,2.6227944E3,1.4136946E3,1.1054583E3,1.3185865E3,0E0,0E0,0E0,0E0,0E0,0E0,0E0,0E0,0E0,0E0,0E0,0E0,0E0,0E0,0E0,0E0,0E0,0E0,0E0,0E0,0E0,0E0,0E0,0E0,0E0,0E0,0E0,0E0,0E0,0E0,0E0,0E0],"parents":[2147483647,0,0,1,1,2,2,3,3,4,4,5,5,6,6,7,7,8,8,9,9,10,10,11,11,12,12,13,13,14,14,15,15,16,16,17,17,18,18,19,19,20,20,21,21,22,22,23,23,24,24,25,25,26,26,27,27,28,28,29,29,30,30],"right_children":[2,4,6,8,10,12,14,16,18,20,22,24,26,28,30,32,34,36,38,40,42,44,46,48,50,52,54,56,58,60,62,-1,-1,-1,-1,-1,-1,-1,-1,-1,-1,-1,-1,-1,-1,-1,-1,-1,-1,-1,-1,-1,-1,-1,-1,-1,-1,-1,-1,-1,-1,-1,-1],"split_conditions":[3.0790395E-1,3.7362552E-1,5.092436E-1,2.6806545E-1,3.0199194E-1,8.417053E-2,7.8630775E-1,2.1368548E-1,1.9522165E-1,8.8306963E-1,6.845553E-2,3.1106344E-1,5.0411946E-1,6.533866E-1,9.325584E-1,2.4173783E-1,9.324503E-1,2.747508E-1,6.314499E-1,8.6907923E-1,1.9387719E-1,3.7902763E-1,6.8127E-1,2.1048284E-1,3.7312686E-1,7.664811E-1,2.2871354E-1,1.4717773E-1,9.17494E-1,3.41882E-1,5.912304E-1,2.816771E0,-1.2964059E0,2.1959846E-3,9.15505E0,1.7765751E-1,3.9915452E0,-2.002397E-1,-9.407068E-1,6.1003033E-2,-1.2229484E0,4.5057412E-2,1.369992E0,1.4423729E1,1.6286076E0,3.2991615E-1,1.7242888E0,1.000238E1,-4.6843246E-1,3.312642E-2,1.985631E0,-1.9589363E-2,-2.0408273E-1,-2.4903798E0,-3.2802075E-1,-7.9415756E-1,2.969388E-2,2.1177277E-1,-1.6017348E0,-1.1107025E0,-1.392232E-1,6.230292E0,-3.166492E-1],"split_indices":[2,1,0,1,2,7,7,3,5,4,0,2,0,4,3,1,6,2,4,4,2,1,4,0,0,2,3,6,6,2,4,0,0,0,0,0,0,0,0,0,0,0,0,0,0,0,0,0,0,0,0,0,0,0,0,0,0,0,0,0,0,0,0],"split_type":[0,0,0,0,0,0,0,0,0,0,0,0,0,0,0,0,0,0,0,0,0,0,0,0,0,0,0,0,0,0,0,0,0,0,0,0,0,0,0,0,0,0,0,0,0,0,0,0,0,0,0,0,0,0,0,0,0,0,0,0,0,0,0],"sum_hessian":[6.5157E4,1.375E4,5.1407E4,3.054E3,1.0696E4,2.6235E4,2.5172E4,1.447E3,1.607E3,1.0322E4,3.74E2,1.92E2,2.6043E4,2.2503E4,2.669E3,6.3E1,1.384E3,6E1,1.547E3,1.0067E4,2.55E2,2E0,3.72E2,3E0,1.89E2,2.5645E4,3.98E2,1.7462E4,5.041E3,2.659E3,1E1,4.7E1,1.6E1,1.383E3,1E0,4.3E1,1.7E1,1.052E3,4.95E2,9.968E3,9.9E1,1.07E2,1.48E2,1E0,1E0,2.76E2,9.6E1,2E0,1E0,1.25E2,6.4E1,2.1928E4,3.717E3,4.7E1,3.51E2,3.54E2,1.7108E4,5.003E3,3.8E1,1.09E2,2.55E3,4E0,6E0],"tree_param":{"num_deleted":"0","num_feature":"8","num_nodes":"63","size_leaf_vector":"1"}},{"base_weights":[1.9583383E-3,2.8870586E-2,-1.9326992E-1,3.4730238E-1,9.3891035E-4,-2.2634798E-1,3.5071464E0,5.3163395E0,2.8293386E-1,-4.7672775E-1,2.981171E-2,-3.1330302E-1,1.3429899E0,8.1193435E-1,2.4293549E1,-3.2526615E-1,2.0498484E1,7.245853E-2,1.6405877E0,-5.59004E-1,1.1814497E1,9.295194E-4,5.0816053E-1,4.6808925E0,-3.485264E-1,1.0314338E1,-1.9003242E-1,-4.00093E0,8.287525E0,3.167699E-1,2.746237E1,3.6778529E0,-1.0387275E0,1.4939502E-1,9.734696E0,6.9522515E-2,-8.7908214E-1,-1.0096958E0,7.7355117E-1,-4.2345372E-1,1.2631391E-1,-1.1294967E0,6.1479197E0,1.1625995E-2,-1.8320619E-1,2.2475806E-1,-4.0298682E-1,7.0719757E0,5.1126295E-1,-8.998572E-2,-1.1309533E0,4.0598283E0,-1.1061233E0,8.871074E-2,-3.122684E0,-1.9080845E0,1.9995137E-1,6.102283E0,7.410097E-1,1.0325555E1,4.09219E0],"categories":[],"categories_nodes":[],"categories_segments":[],"categories_sizes":[],"default_left":[0,0,0,0,0,0,0,0,0,0,0,0,0,0,0,0,0,0,0,0,0,0,0,0,0,0,0,0,0,0,0,0,0,0,0,0,0,0,0,0,0,0,0,0,0,0,0,0,0,0,0,0,0,0,0,0,0,0,0,0,0],"id":25,"left_children":[1,3,5,7,9,11,13,15,17,19,21,23,25,27,29,31,33,35,37,39,41,43,45,47,49,51,53,55,57,-1,59,-1,-1,-1,-1,-1,-1,-1,-1,-1,-1,-1,-1,-1,-1,-1,-1,-1,-1,-1,-1,-1,-1,-1,-1,-1,-1,-1,-1,-1,-1],"loss_changes":[3.4234775E2,5.093337E2,9.670401E2,1.4755612E3,7.2611304E2,1.0682346E3,3.901938E3,5.0601157E3,1.3029132E3,3.041443E3,6.8592444E2,1.3060217E3,5.654557E3,2.2998347E3,5.6009033E2,1.7795868E3,3.8080977E3,1.8894258E3,2.8822837E3,2.4920586E3,2.7813088E3,1.0831884E3,1.2625847E3,2.884127E3,1.2226704E3,2.753644E3,1.7502943E3,4.337119E2,1.7027739E3,0E0,2.0353174E2,0E0,0E0,0E0,0E0,0E0,0E0,0E0,0E0,0E0,0E0,0E0,0E0,0E0,0E0,0E0,0E0,0E0,0E0,0E0,0E0,0E0,0E0,0E0,0E0,0E0,0E0,0E0,0E0,0E0,0E0],"parents":[2147483647,0,0,1,1,2,2,3,3,4,4,5,5,6,6,7,7,8,8,9,9,10,10,11,11,12,12,13,13,14,14,15,15,16,16,17,17,18,18,19,19,20,20,21,21,22,22,23,23,24,24,25,25,26,26,27,27,28,28,30,30],"right_children":[2,4,6,8,10,12,14,16,18,20,22,24,26,28,30,32,34,36,38,40,42,44,46,48,50,52,54,56,58,-1,60,-1,-1,-1,-1,-1,-1,-1,-1,-1,-1,-1,-1,-1,-1,-1,-1,-1,-1,-1,-1,-1,-1,-1,-1,-1,-1,-1,-1,-1,-1],"split_conditions":[7.644934E-1,2.0214063E-1,9.170832E-1,1.0920034E-1,2.5294E-1,8.583073E-1,8.876766E-1,9.914945E-2,1.8974215E-1,9.170632E-1,8.3753186E-1,6.7237526E-2,3.2615194E-1,6.437546E-1,6.8307444E-2,2.2111559E-1,3.3640018E-1,8.1785995E-1,2.7004033E-1,5.506208E-1,3.952209E-1,7.8147006E-1,6.8744767E-1,1.9803862E-1,8.471462E-1,9.3180615E-1,8.101747E-1,8.4119016E-1,6.8160933E-1,3.167699E-1,3.5773268E-1,3.6778529E0,-1.0387275E0,1.4939502E-1,9.734696E0,6.9522515E-2,-8.7908214E-1,-1.0096958E0,7.7355117E-1,-4.2345372E-1,1.2631391E-1,-1.1294967E0,6.1479197E0,1.1625995E-2,-1.8320619E-1,2.2475806E-1,-4.0298682E-1,7.0719757E0,5.1126295E-1,-8.998572E-2,-1.1309533E0,4.0598283E0,-1.1061233E0,8.871074E-2,-3.122684E0,-1.9080845E0,1.9995137E-1,6.102283E0,7.410097E-1,1.0325555E1,4.09219E0],"split_indices":[4,6,3,5,6,7,5,5,6,5,2,6,3,1,1,4,1,1,5,3,7,2,1,1,7,7,0,4,1,0,1,0,0,0,0,0,0,0,0,0,0,0,0,0,0,0,0,0,0,0,0,0,0,0,0,0,0,0,0,0,0],"split_type":[0,0,0,0,0,0,0,0,0,0,0,0,0,0,0,0,0,0,0,0,0,0,0,0,0,0,0,0,0,0,0,0,0,0,0,0,0,0,0,0,0,0,0,0,0,0,0,0,0,0,0,0,0,0,0,0,0,0,0,0,0],"sum_hessian":[6.5157E4,5.7264E4,7.893E3,4.617E3,5.2647E4,7.824E3,6.9E1,5.8E1,4.559E3,3E3,4.9647E4,7.414E3,4.1E2,6.2E1,7E0,4.3E1,1.5E1,3.948E3,6.11E2,2.981E3,1.9E1,4.6821E4,2.826E3,5.1E1,7.363E3,5.9E1,3.51E2,3.8E1,2.4E1,1E0,6E0,8E0,3.5E1,6E0,9E0,3.75E3,1.98E2,9.6E1,5.15E2,1.594E3,1.387E3,7E0,1.2E1,4.4095E4,2.726E3,2.501E3,3.25E2,6E0,4.5E1,7.261E3,1.02E2,4.8E1,1.1E1,3.36E2,1.5E1,2.5E1,1.3E1,7E0,1.7E1,3E0,3E0],"tree_param":{"num_deleted":"0","num_feature":"8","num_nodes":"61","size_leaf_vector":"1"}},{"base_weights":[2.015805E-3,-1.0767212E0,6.3040615E-3,-1.58977E0,9.573258E0,1.07524E-2,-1.112642E0,-2.1911116E0,3.0062163E0,3.0513048E0,5.42812E0,4.5049632E-1,1.9613765E-3,6.6962223E0,-1.2913691E0,-3.6821668E0,8.4143937E-1,9.933881E0,-3.243379E0,7.423245E0,-2.0129032E0,4.0988296E-1,7.780049E0,-3.7859625E-1,2.1180661E-2,-3.6827118E0,2.4000451E-1,-8.160922E-1,-2.416166E0,-2.5120406E0,1.1365045E0,5.777566E0,1.5991738E-1,-2.9849958E0,2.877789E0,4.6084386E-1,2.9948273E0,-3.2044914E-2,7.3765886E-1,-3.1306735E-1,2.6447722E-1,2.1276654E-1,3.7068024E-3,4.4013367E0,-1.2620956E0,5.9936795E0,-1.2198813E-1],"categories":[],"categories_nodes":[],"categories_segments":[],"categories_sizes":[],"default_left":[0,0,0,0,0,0,0,0,0,0,0,0,0,0,0,0,0,0,0,0,0,0,0,0,0,0,0,0,0,0,0,0,0,0,0,0,0,0,0,0,0,0,0,0,0,0,0],"id":26,"left_children":[1,3,5,7,9,11,13,15,17,19,-1,21,23,-1,25,27,29,31,33,35,-1,37,-1,39,41,43,45,-1,-1,-1,-1,-1,-1,-1,-1,-1,-1,-1,-1,-1,-1,-1,-1,-1,-1,-1,-1],"loss_changes":[3.0142126E2,1.4249205E3,3.230535E2,6.892352E2,6.116321E2,2.4990369E2,1.1051863E3,9.933507E2,1.2877772E3,3.9120294E2,0E0,1.3006516E3,4.635649E2,0E0,9.3836597E2,5.96223E2,2.0140729E3,1.2169683E3,1.4728234E3,7.507364E1,0E0,1.340585E3,0E0,2.5542322E3,3.663166E2,1.02396375E3,2.0120426E3,0E0,0E0,0E0,0E0,0E0,0E0,0E0,0E0,0E0,0E0,0E0,0E0,0E0,0E0,0E0,0E0,0E0,0E0,0E0,0E0],"parents":[2147483647,0,0,1,1,2,2,3,3,4,4,5,5,6,6,7,7,8,8,9,9,11,11,12,12,14,14,15,15,16,16,17,17,18,18,19,19,21,21,23,23,24,24,25,25,26,26],"right_children":[2,4,6,8,10,12,14,16,18,20,-1,22,24,-1,26,28,30,32,34,36,-1,38,-1,40,42,44,46,-1,-1,-1,-1,-1,-1,-1,-1,-1,-1,-1,-1,-1,-1,-1,-1,-1,-1,-1,-1],"split_conditions":[7.0283085E-2,8.1632173E-1,9.3013734E-1,6.932467E-1,3.9540374E-1,1.21965334E-1,6.7054525E-2,5.628765E-1,7.788392E-1,4.5135593E-1,5.42812E0,9.324503E-1,1.854956E-1,6.6962223E0,3.7902763E-1,7.0630026E-1,3.269027E-1,4.5525426E-1,6.598222E-1,2.621258E-1,-2.0129032E0,1.1478544E-1,7.780049E0,5.41837E-1,1.9772594E-1,8.5146375E-2,3.8410425E-1,-8.160922E-1,-2.416166E0,-2.5120406E0,1.1365045E0,5.777566E0,1.5991738E-1,-2.9849958E0,2.877789E0,4.6084386E-1,2.9948273E0,-3.2044914E-2,7.3765886E-1,-3.1306735E-1,2.6447722E-1,2.1276654E-1,3.7068024E-3,4.4013367E0,-1.2620956E0,5.9936795E0,-1.2198813E-1],"split_indices":[7,5,5,4,2,7,2,5,4,4,0,6,7,0,1,0,0,1,1,2,0,7,0,4,7,1,1,0,0,0,0,0,0,0,0,0,0,0,0,0,0,0,0,0,0,0,0],"split_type":[0,0,0,0,0,0,0,0,0,0,0,0,0,0,0,0,0,0,0,0,0,0,0,0,0,0,0,0,0,0,0,0,0,0,0,0,0,0,0,0,0,0,0,0,0,0,0],"sum_hessian":[6.5157E4,2.57E2,6.49E4,2.46E2,1.1E1,6.4644E4,2.56E2,2.18E2,2.8E1,7E0,4E0,1.266E3,6.3378E4,1E0,2.55E2,1.46E2,7.2E1,1.3E1,1.5E1,5E0,2E0,1.265E3,1E0,3.046E3,6.0332E4,9.9E1,1.56E2,1.21E2,2.5E1,1.7E1,5.5E1,6E0,7E0,1E1,5E0,2E0,3E0,1.011E3,2.54E2,1.994E3,1.052E3,7.63E2,5.9569E4,2E0,9.7E1,4E0,1.52E2],"tree_param":{"num_deleted":"0","num_feature":"8","num_nodes":"47","size_leaf_vector":"1"}},{"base_weights":[1.909872E-3,9.3050994E-2,-3.87846E-2,5.465996E-2,3.070692E0,-7.126906E-1,-2.5242178E-3,-8.088257E-1,1.0194055E-1,2.325017E0,2.3276995E1,-1.0705405E0,1.3895353E0,4.233639E-1,-3.1509746E-2,-9.8459476E-1,8.605013E0,2.7856305E-1,-2.0245038E-1,1.9430416E1,1.673877E0,1.111537E1,1.4048467E1,-8.990257E-1,-6.7990127E0,-7.230955E-1,5.8979735E0,9.218041E-1,-1.0026617E0,4.669891E-2,-2.4013971E-1,-2.2619857E-1,-2.4091053E0,1.9736244E-1,6.640409E0,9.594303E-2,-8.147579E-1,2.349888E0,-6.806937E-2,6.967052E-1,1.2070474E1,3.4364024E-1,6.627281E0,9.5540863E-1,4.598494E0,1.6776006E-1,-4.1382045E-1,2.4530396E-1,-2.531095E0,7.649323E-2,-2.0256977E0,-6.734804E-2,3.1035964E0,2.0548418E-1,1.258857E0,-7.0061755E-1,2.0344903E-1,-8.075289E-3,2.786979E-1,3.7919116E-1,-1.0164127E-1],"categories":[],"categories_nodes":[],"categories_segments":[],"categories_sizes":[],"default_left":[0,0,0,0,0,0,0,0,0,0,0,0,0,0,0,0,0,0,0,0,0,0,0,0,0,0,0,0,0,0,0,0,0,0,0,0,0,0,0,0,0,0,0,0,0,0,0,0,0,0,0,0,0,0,0,0,0,0,0,0,0],"id":27,"left_children":[1,3,5,7,9,11,13,15,17,19,21,23,25,27,29,31,33,35,37,39,41,-1,43,45,47,49,51,53,55,57,59,-1,-1,-1,-1,-1,-1,-1,-1,-1,-1,-1,-1,-1,-1,-1,-1,-1,-1,-1,-1,-1,-1,-1,-1,-1,-1,-1,-1,-1,-1],"loss_changes":[2.4167072E2,2.2990442E3,1.1007463E3,8.108074E2,3.8031191E3,1.7317347E3,5.277075E2,1.7144291E3,1.0122927E3,2.7297024E3,6.235303E2,1.9255188E3,3.1950276E3,1.9371119E3,6.530696E2,1.6398153E3,2.0283611E3,1.4725035E3,1.3600037E3,3.109882E3,2.5639521E3,0E0,4.851172E1,1.3387196E3,7.180259E2,1.3521406E3,2.9157974E3,1.562983E3,1.5830846E3,1.8908914E3,1.6199424E3,0E0,0E0,0E0,0E0,0E0,0E0,0E0,0E0,0E0,0E0,0E0,0E0,0E0,0E0,0E0,0E0,0E0,0E0,0E0,0E0,0E0,0E0,0E0,0E0,0E0,0E0,0E0,0E0,0E0,0E0],"parents":[2147483647,0,0,1,1,2,2,3,3,4,4,5,5,6,6,7,7,8,8,9,9,10,10,11,11,12,12,13,13,14,14,15,15,16,16,17,17,18,18,19,19,20,20,22,22,23,23,24,24,25,25,26,26,27,27,28,28,29,29,30,30],"right_children":[2,4,6,8,10,12,14,16,18,20,22,24,26,28,30,32,34,36,38,40,42,-1,44,46,48,50,52,54,56,58,60,-1,-1,-1,-1,-1,-1,-1,-1,-1,-1,-1,-1,-1,-1,-1,-1,-1,-1,-1,-1,-1,-1,-1,-1,-1,-1,-1,-1,-1,-1],"split_conditions":[3.7729695E-1,3.7485176E-1,4.0066248E-1,1.436747E-1,8.6733174E-1,7.512947E-1,1.9522165E-1,