{"learner":{"attributes":{"scikit_learn":"{\"_estimator_type\": \"regressor\"}"},"feature_names":[],"feature_types":[],"gradient_booster":{"model":{"gbtree_model_param":{"num_parallel_tree":"1","num_trees":"1000"},"iteration_indptr":[0,1,2,3,4,5,6,7,8,9,10,11,12,13,14,15,16,17,18,19,20,21,22,23,24,25,26,27,28,29,30,31,32,33,34,35,36,37,38,39,40,41,42,43,44,45,46,47,48,49,50,51,52,53,54,55,56,57,58,59,60,61,62,63,64,65,66,67,68,69,70,71,72,73,74,75,76,77,78,79,80,81,82,83,84,85,86,87,88,89,90,91,92,93,94,95,96,97,98,99,100,101,102,103,104,105,106,107,108,109,110,111,112,113,114,115,116,117,118,119,120,121,122,123,124,125,126,127,128,129,130,131,132,133,134,135,136,137,138,139,140,141,142,143,144,145,146,147,148,149,150,151,152,153,154,155,156,157,158,159,160,161,162,163,164,165,166,167,168,169,170,171,172,173,174,175,176,177,178,179,180,181,182,183,184,185,186,187,188,189,190,191,192,193,194,195,196,197,198,199,200,201,202,203,204,205,206,207,208,209,210,211,212,213,214,215,216,217,218,219,220,221,222,223,224,225,226,227,228,229,230,231,232,233,234,235,236,237,238,239,240,241,242,243,244,245,246,247,248,249,250,251,252,253,254,255,256,257,258,259,260,261,262,263,264,265,266,267,268,269,270,271,272,273,274,275,276,277,278,279,280,281,282,283,284,285,286,287,288,289,290,291,292,293,294,295,296,297,298,299,300,301,302,303,304,305,306,307,308,309,310,311,312,313,314,315,316,317,318,319,320,321,322,323,324,325,326,327,328,329,330,331,332,333,334,335,336,337,338,339,340,341,342,343,344,345,346,347,348,349,350,351,352,353,354,355,356,357,358,359,360,361,362,363,364,365,366,367,368,369,370,371,372,373,374,375,376,377,378,379,380,381,382,383,384,385,386,387,388,389,390,391,392,393,394,395,396,397,398,399,400,401,402,403,404,405,406,407,408,409,410,411,412,413,414,415,416,417,418,419,420,421,422,423,424,425,426,427,428,429,430,431,432,433,434,435,436,437,438,439,440,441,442,443,444,445,446,447,448,449,450,451,452,453,454,455,456,457,458,459,460,461,462,463,464,465,466,467,468,469,470,471,472,473,474,475,476,477,478,479,480,481,482,483,484,485,486,487,488,489,490,491,492,493,494,495,496,497,498,499,500,501,502,503,504,505,506,507,508,509,510,511,512,513,514,515,516,517,518,519,520,521,522,523,524,525,526,527,528,529,530,531,532,533,534,535,536,537,538,539,540,541,542,543,544,545,546,547,548,549,550,551,552,553,554,555,556,557,558,559,560,561,562,563,564,565,566,567,568,569,570,571,572,573,574,575,576,577,578,579,580,581,582,583,584,585,586,587,588,589,590,591,592,593,594,595,596,597,598,599,600,601,602,603,604,605,606,607,608,609,610,611,612,613,614,615,616,617,618,619,620,621,622,623,624,625,626,627,628,629,630,631,632,633,634,635,636,637,638,639,640,641,642,643,644,645,646,647,648,649,650,651,652,653,654,655,656,657,658,659,660,661,662,663,664,665,666,667,668,669,670,671,672,673,674,675,676,677,678,679,680,681,682,683,684,685,686,687,688,689,690,691,692,693,694,695,696,697,698,699,700,701,702,703,704,705,706,707,708,709,710,711,712,713,714,715,716,717,718,719,720,721,722,723,724,725,726,727,728,729,730,731,732,733,734,735,736,737,738,739,740,741,742,743,744,745,746,747,748,749,750,751,752,753,754,755,756,757,758,759,760,761,762,763,764,765,766,767,768,769,770,771,772,773,774,775,776,777,778,779,780,781,782,783,784,785,786,787,788,789,790,791,792,793,794,795,796,797,798,799,800,801,802,803,804,805,806,807,808,809,810,811,812,813,814,815,816,817,818,819,820,821,822,823,824,825,826,827,828,829,830,831,832,833,834,835,836,837,838,839,840,841,842,843,844,845,846,847,848,849,850,851,852,853,854,855,856,857,858,859,860,861,862,863,864,865,866,867,868,869,870,871,872,873,874,875,876,877,878,879,880,881,882,883,884,885,886,887,888,889,890,891,892,893,894,895,896,897,898,899,900,901,902,903,904,905,906,907,908,909,910,911,912,913,914,915,916,917,918,919,920,921,922,923,924,925,926,927,928,929,930,931,932,933,934,935,936,937,938,939,940,941,942,943,944,945,946,947,948,949,950,951,952,953,954,955,956,957,958,959,960,961,962,963,964,965,966,967,968,969,970,971,972,973,974,975,976,977,978,979,980,981,982,983,984,985,986,987,988,989,990,991,992,993,994,995,996,997,998,999,1000],"tree_info":[0,0,0,0,0,0,0,0,0,0,0,0,0,0,0,0,0,0,0,0,0,0,0,0,0,0,0,0,0,0,0,0,0,0,0,0,0,0,0,0,0,0,0,0,0,0,0,0,0,0,0,0,0,0,0,0,0,0,0,0,0,0,0,0,0,0,0,0,0,0,0,0,0,0,0,0,0,0,0,0,0,0,0,0,0,0,0,0,0,0,0,0,0,0,0,0,0,0,0,0,0,0,0,0,0,0,0,0,0,0,0,0,0,0,0,0,0,0,0,0,0,0,0,0,0,0,0,0,0,0,0,0,0,0,0,0,0,0,0,0,0,0,0,0,0,0,0,0,0,0,0,0,0,0,0,0,0,0,0,0,0,0,0,0,0,0,0,0,0,0,0,0,0,0,0,0,0,0,0,0,0,0,0,0,0,0,0,0,0,0,0,0,0,0,0,0,0,0,0,0,0,0,0,0,0,0,0,0,0,0,0,0,0,0,0,0,0,0,0,0,0,0,0,0,0,0,0,0,0,0,0,0,0,0,0,0,0,0,0,0,0,0,0,0,0,0,0,0,0,0,0,0,0,0,0,0,0,0,0,0,0,0,0,0,0,0,0,0,0,0,0,0,0,0,0,0,0,0,0,0,0,0,0,0,0,0,0,0,0,0,0,0,0,0,0,0,0,0,0,0,0,0,0,0,0,0,0,0,0,0,0,0,0,0,0,0,0,0,0,0,0,0,0,0,0,0,0,0,0,0,0,0,0,0,0,0,0,0,0,0,0,0,0,0,0,0,0,0,0,0,0,0,0,0,0,0,0,0,0,0,0,0,0,0,0,0,0,0,0,0,0,0,0,0,0,0,0,0,0,0,0,0,0,0,0,0,0,0,0,0,0,0,0,0,0,0,0,0,0,0,0,0,0,0,0,0,0,0,0,0,0,0,0,0,0,0,0,0,0,0,0,0,0,0,0,0,0,0,0,0,0,0,0,0,0,0,0,0,0,0,0,0,0,0,0,0,0,0,0,0,0,0,0,0,0,0,0,0,0,0,0,0,0,0,0,0,0,0,0,0,0,0,0,0,0,0,0,0,0,0,0,0,0,0,0,0,0,0,0,0,0,0,0,0,0,0,0,0,0,0,0,0,0,0,0,0,0,0,0,0,0,0,0,0,0,0,0,0,0,0,0,0,0,0,0,0,0,0,0,0,0,0,0,0,0,0,0,0,0,0,0,0,0,0,0,0,0,0,0,0,0,0,0,0,0,0,0,0,0,0,0,0,0,0,0,0,0,0,0,0,0,0,0,0,0,0,0,0,0,0,0,0,0,0,0,0,0,0,0,0,0,0,0,0,0,0,0,0,0,0,0,0,0,0,0,0,0,0,0,0,0,0,0,0,0,0,0,0,0,0,0,0,0,0,0,0,0,0,0,0,0,0,0,0,0,0,0,0,0,0,0,0,0,0,0,0,0,0,0,0,0,0,0,0,0,0,0,0,0,0,0,0,0,0,0,0,0,0,0,0,0,0,0,0,0,0,0,0,0,0,0,0,0,0,0,0,0,0,0,0,0,0,0,0,0,0,0,0,0,0,0,0,0,0,0,0,0,0,0,0,0,0,0,0,0,0,0,0,0,0,0,0,0,0,0,0,0,0,0,0,0,0,0,0,0,0,0,0,0,0,0,0,0,0,0,0,0,0,0,0,0,0,0,0,0,0,0,0,0,0,0,0,0,0,0,0,0,0,0,0,0,0,0,0,0,0,0,0,0,0,0,0,0,0,0,0,0,0,0,0,0,0,0,0,0,0,0,0,0,0,0,0,0,0,0,0,0,0,0,0,0,0,0,0,0,0,0,0,0,0,0,0,0,0,0,0,0,0,0,0,0,0,0,0,0,0,0,0,0,0,0,0,0,0,0,0,0,0,0,0,0,0,0,0,0,0,0,0,0,0,0,0,0,0,0,0,0,0,0,0,0,0,0,0,0,0,0,0,0,0,0,0,0,0,0,0,0,0,0,0,0,0,0,0,0,0,0,0,0,0,0,0,0,0,0,0,0,0,0,0,0,0,0,0,0,0,0,0,0,0,0,0,0,0,0,0,0,0,0,0,0,0,0,0,0,0,0,0,0,0,0,0,0,0,0,0,0,0,0,0,0,0,0,0,0,0,0,0,0,0,0,0,0,0,0,0,0,0,0,0,0,0,0,0,0,0,0,0,0,0,0,0,0,0,0,0,0,0,0,0,0,0,0,0,0,0,0,0,0,0],"trees":[{"base_weights":[-8.373594E-7,-5.3042717E-2,1.180858E0,9.238938E-1,-6.9254845E-2,1.9129093E0,5.6972307E-1,-3.5458225E-1,1.6366158E0,-5.2354828E-2,-8.660219E-1,2.782908E-1,2.1549456E0,1.07378535E-1,8.599735E-1,6.0464454E-1,1.445084E0,-1.5009831E-1,1.2770654E-1,-1.2654587E0,-2.6907587E-1,7.5481683E-1,1.7903317E0,1.09092176E-1,-6.215502E-2,2.7041537E-1,5.975003E-1,-1.2753531E-1,-1.2756926E0,8.9118385E-1,9.270704E-2,-5.0485146E-1,-1.0563346E0,1.5510768E-1,-3.1901112E-1,4.8906732E-1,5.8249146E-1,5.498295E-2,-8.844653E-2,-5.3490573E-1,-1.16310254E-1,-4.1112033E-1,-1.2256513E0,6.180801E-2,1.3241937E0,-3.425721E-1,-2.893673E-1,5.9600645E-3,2.7047647E-2,2.981855E-1,-1.6619278E-1,-3.338327E-1,-3.9897168E-1,9.148057E-2,-1.0914781E0,6.6565037E-1,1.2307525E-1,-4.7204706E-1,6.47735E-1,-9.7790056E-1,-1.3443616E-1,4.9069665E-2,8.715199E-1,-2.2676364E-1,-4.276288E-1,3.9047372E-1,-9.2022604E-1,3.9238974E-1,1.0934534E0,-9.752635E-3,-1.6220542E0,1.2684374E0,-1.5701519E-1,-2.814925E-1,6.2239856E-2,8.2573146E-1,2.2781423E-1,-4.1782063E-1,-1.3349256E-1,2.6089594E-1,-2.4018067E-1,4.2965826E-1,2.3078904E-2,-2.922373E-1,2.921149E-1,-3.7543294E-1,-7.141523E-1,4.704374E-2,7.061721E-1,-1.6929843E-1,-2.8024115E-2,1.9135189E-1,1.1280166E-2,2.57967E-1,-2.604422E-2],"categories":[],"categories_nodes":[],"categories_segments":[],"categories_sizes":[],"default_left":[0,0,0,0,0,0,0,0,0,0,0,0,0,0,0,0,0,0,0,0,0,0,0,0,0,0,0,0,0,0,0,0,0,0,0,0,0,0,0,0,0,0,0,0,0,0,0,0,0,0,0,0,0,0,0,0,0,0,0,0,0,0,0,0,0,0,0,0,0,0,0,0,0,0,0,0,0,0,0,0,0,0,0,0,0,0,0,0,0,0,0,0,0,0,0],"id":0,"left_children":[1,3,5,7,9,11,13,-1,15,17,19,-1,21,23,-1,-1,25,27,29,31,33,-1,35,-1,37,-1,-1,39,41,-1,43,-1,45,-1,-1,-1,-1,47,-1,-1,49,-1,51,53,55,-1,-1,-1,-1,57,59,-1,-1,61,63,-1,-1,65,67,69,71,73,75,-1,-1,-1,77,79,81,83,85,87,89,-1,91,-1,93,-1,-1,-1,-1,-1,-1,-1,-1,-1,-1,-1,-1,-1,-1,-1,-1,-1,-1],"loss_changes":[4.0812322E3,9.877039E2,1.2520273E3,1.5298248E3,8.259346E2,3.0181396E2,1.6223342E3,0E0,5.230945E1,1.0572054E3,3.0343488E2,0E0,1.3005762E2,5.532811E1,0E0,0E0,1.494679E2,9.886357E2,2.102663E3,6.482019E1,3.2024057E2,0E0,9.238037E0,0E0,2.092011E1,0E0,0E0,7.0910187E2,1.9459229E0,0E0,7.944006E2,0E0,2.9117432E0,0E0,0E0,0E0,0E0,6.2941587E-1,0E0,0E0,7.8396326E2,0E0,4.5217285E0,6.971464E2,4.1690918E2,0E0,0E0,0E0,0E0,1.0968975E3,8.722173E2,0E0,0E0,6.5693616E2,5.61922E1,0E0,0E0,1.0123131E3,3.184724E2,7.9449646E2,1.0318394E3,2.450009E2,1.239189E3,0E0,0E0,0E0,2.2753363E2,1.01588525E3,3.5111438E2,4.8464764E2,2.1205566E2,6.222544E2,8.303287E2,0E0,2.6361218E2,0E0,1.520105E2,0E0,0E0,0E0,0E0,0E0,0E0,0E0,0E0,0E0,0E0,0E0,0E0,0E0,0E0,0E0,0E0,0E0,0E0],"parents":[2147483647,0,0,1,1,2,2,3,3,4,4,5,5,6,6,8,8,9,9,10,10,12,12,13,13,16,16,17,17,18,18,19,19,20,20,22,22,24,24,27,27,28,28,30,30,32,32,37,37,40,40,42,42,43,43,44,44,49,49,50,50,53,53,54,54,57,57,58,58,59,59,60,60,61,61,62,62,66,66,67,67,68,68,69,69,70,70,71,71,72,72,74,74,76,76],"right_children":[2,4,6,8,10,12,14,-1,16,18,20,-1,22,24,-1,-1,26,28,30,32,34,-1,36,-1,38,-1,-1,40,42,-1,44,-1,46,-1,-1,-1,-1,48,-1,-1,50,-1,52,54,56,-1,-1,-1,-1,58,60,-1,-1,62,64,-1,-1,66,68,70,72,74,76,-1,-1,-1,78,80,82,84,86,88,90,-1,92,-1,94,-1,-1,-1,-1,-1,-1,-1,-1,-1,-1,-1,-1,-1,-1,-1,-1,-1,-1],"split_conditions":[3.2640371E0,6.0513854E-2,3.392983E0,-5.3798497E-2,3.158416E0,3.2865205E0,3.6916604E0,-3.5458225E-1,-5.5779926E-3,1.9464216E0,3.2216983E0,2.782908E-1,3.338171E0,3.4730551E0,8.599735E-1,6.0464454E-1,3.2761835E-2,1.9037753E0,1.9593499E0,3.1793194E0,3.2423496E0,7.5481683E-1,3.3656082E0,1.09092176E-1,3.5907204E0,2.7041537E-1,5.975003E-1,8.451929E-2,1.9171932E0,8.9118385E-1,3.123401E0,-5.0485146E-1,3.2000308E0,1.5510768E-1,-3.1901112E-1,4.8906732E-1,5.8249146E-1,3.5267684E0,-8.844653E-2,-5.3490573E-1,3.2116738E-1,-4.1112033E-1,1.9308083E0,3.088799E0,3.14074E0,-3.425721E-1,-2.893673E-1,5.9600645E-3,2.7047647E-2,1.7497621E-1,3.7936154E-1,-3.338327E-1,-3.9897168E-1,3.0234005E0,3.1059384E0,6.6565037E-1,1.2307525E-1,1.0538266E-1,2.7103084E-1,3.444764E-1,4.0011576E-1,1.9737602E0,3.0402753E0,-2.2676364E-1,-4.276288E-1,3.9047372E-1,1.4289327E-1,2.4539119E-1,3.0869192E-1,3.331606E-1,3.6795694E-1,3.8934004E-1,5.8499664E-1,-2.814925E-1,2.0139117E0,8.2573146E-1,3.0565805E0,-4.1782063E-1,-1.3349256E-1,2.6089594E-1,-2.4018067E-1,4.2965826E-1,2.3078904E-2,-2.922373E-1,2.921149E-1,-3.7543294E-1,-7.141523E-1,4.704374E-2,7.061721E-1,-1.6929843E-1,-2.8024115E-2,1.9135189E-1,1.1280166E-2,2.57967E-1,-2.604422E-2],"split_indices":[0,0,0,0,0,0,0,0,0,0,0,0,0,0,0,0,0,0,0,0,0,0,0,0,0,0,0,0,0,0,0,0,0,0,0,0,0,0,0,0,0,0,0,0,0,0,0,0,0,0,0,0,0,0,0,0,0,0,0,0,0,0,0,0,0,0,0,0,0,0,0,0,0,0,0,0,0,0,0,0,0,0,0,0,0,0,0,0,0,0,0,0,0,0,0],"split_type":[0,0,0,0,0,0,0,0,0,0,0,0,0,0,0,0,0,0,0,0,0,0,0,0,0,0,0,0,0,0,0,0,0,0,0,0,0,0,0,0,0,0,0,0,0,0,0,0,0,0,0,0,0,0,0,0,0,0,0,0,0,0,0,0,0,0,0,0,0,0,0,0,0,0,0,0,0,0,0,0,0,0,0,0,0,0,0,0,0,0,0,0,0,0,0],"sum_hessian":[6.5157E4,6.2357E4,2.8E3,1.017E3,6.134E4,1.273E3,1.527E3,2.57E2,7.6E2,6.0067E4,1.273E3,2.52E2,1.021E3,1.272E3,2.55E2,2.52E2,5.08E2,3.8933E4,2.1134E4,7.62E2,5.11E2,5.1E2,5.11E2,5.06E2,7.66E2,2.56E2,2.52E2,3.8169E4,7.64E2,2.56E2,2.0878E4,2.52E2,5.1E2,2.57E2,2.54E2,2.54E2,2.57E2,5.1E2,2.56E2,2.56E2,3.7913E4,2.55E2,5.09E2,2.0368E4,5.1E2,2.58E2,2.52E2,2.56E2,2.54E2,4.072E3,3.3841E4,2.5E2,2.59E2,1.9858E4,5.1E2,2.57E2,2.53E2,1.271E3,2.801E3,1.273E3,3.2568E4,1.8835E4,1.023E3,2.56E2,2.54E2,2.56E2,1.015E3,1.782E3,1.019E3,5.09E2,7.64E2,5.15E2,3.2053E4,2.47E2,1.8588E4,2.6E2,7.63E2,5.08E2,5.07E2,1.273E3,5.09E2,7.64E2,2.55E2,2.57E2,2.52E2,5.15E2,2.49E2,2.55E2,2.6E2,4.328E3,2.7725E4,7.62E2,1.7826E4,2.53E2,5.1E2],"tree_param":{"num_deleted":"0","num_feature":"1","num_nodes":"95","size_leaf_vector":"1"}},{"base_weights":[4.485469E-5,-3.7130818E-2,8.276781E-1,6.478237E-1,-4.849755E-2,1.3406888E0,3.994036E-1,-2.4861999E-1,1.147566E0,-3.664629E-2,-6.0723597E-1,1.9513333E-1,1.5102496E0,7.520662E-2,6.0298914E-1,4.239681E-1,1.0132638E0,-7.959062E-2,2.0960888E-1,-8.8731086E-1,-1.8867275E-1,1.7627172E0,1.2553254E0,7.642891E-2,-4.3581273E-2,1.8960615E-1,4.1895893E-1,-7.001225E-2,-1.0361936E0,7.532727E-1,2.1382764E-2,-3.5399443E-1,-7.40671E-1,1.0875583E-1,-2.236829E-1,5.5592227E-1,4.998614E-1,3.4292254E-1,4.084215E-1,3.8552307E-2,-6.2016033E-2,-3.7505817E-1,-6.399132E-2,-3.477642E-1,-2.7243158E-1,3.8429093E-1,1.2137614E0,-8.8478756E-1,2.3721422E-1,-2.4019746E-1,-2.0290011E-1,4.1789007E-3,1.8965062E-2,2.1913551E-1,-8.720185E-2,6.233061E-1,-1.7226422E-1,7.8617096E-1,7.3400146E-1,-7.6824427E-1,-4.0786266E-1,1.6422778E-1,9.284786E-1,1.1075663E-1,5.237564E-1,-3.000818E-1,-2.758862E-2,1.2344632E-1,1.1258695E0,-2.1828137E-1,1.4576335E0,-9.52321E-1,-6.917723E-2,2.738129E-1,-7.6531523E-1,4.66729E-1,8.629801E-2,-3.3055934E-1,3.55307E-1,-2.5671035E-1,-6.0274094E-1,5.592027E-1,-6.705607E-2,2.8856122E-1,-2.2058083E-1,2.769558E-1,3.9630526E-1,3.7572995E-1,5.00308E-1,-7.7316886E-1,-3.9658663E-1,6.65266E-1,1.5247314E-1,-1.5899946E-1,-2.99843E-1,2.7378726E-1,-1.9341022E-1,3.2930675E-1,4.2935297E-2,-8.974228E-2,4.0087596E-1,-4.3743002E-4,5.037181E-1,-6.742307E-1,-1.5128304E-2,-2.0751913E-1,-2.547571E-1,8.384887E-2,3.1357825E-1,-2.3821978E-1,9.744721E-2],"categories":[],"categories_nodes":[],"categories_segments":[],"categories_sizes":[],"default_left":[0,0,0,0,0,0,0,0,0,0,0,0,0,0,0,0,0,0,0,0,0,0,0,0,0,0,0,0,0,0,0,0,0,0,0,0,0,0,0,0,0,0,0,0,0,0,0,0,0,0,0,0,0,0,0,0,0,0,0,0,0,0,0,0,0,0,0,0,0,0,0,0,0,0,0,0,0,0,0,0,0,0,0,0,0,0,0,0,0,0,0,0,0,0,0,0,0,0,0,0,0,0,0,0,0,0,0,0,0,0,0],"id":1,"left_children":[1,3,5,7,9,11,13,-1,15,17,19,-1,21,23,-1,-1,25,27,29,31,33,35,37,-1,39,-1,-1,41,43,45,47,-1,49,-1,-1,-1,-1,-1,-1,51,-1,-1,53,-1,-1,55,57,59,61,-1,-1,-1,-1,63,65,67,-1,-1,69,71,-1,73,75,77,-1,79,81,83,85,-1,87,89,-1,91,93,-1,-1,95,97,99,-1,101,103,-1,-1,-1,-1,-1,-1,105,-1,107,109,-1,-1,-1,-1,-1,-1,-1,-1,-1,-1,-1,-1,-1,-1,-1,-1,-1,-1],"loss_changes":[2.0048004E3,4.8553156E2,6.148705E2,7.521311E2,4.061626E2,1.4812451E2,7.976767E2,0E0,2.5719604E1,6.352516E2,1.4918237E2,0E0,6.3563232E1,2.7163082E1,0E0,0E0,7.349121E1,4.6859015E2,9.1278296E2,3.1871887E1,1.5744366E2,1.3686523E0,4.5404663E0,0E0,1.0285137E1,0E0,0E0,3.5977866E2,6.9364014E0,3.8931152E2,1.2963188E3,0E0,1.4306641E0,0E0,0E0,0E0,0E0,0E0,0E0,3.0945313E-1,0E0,0E0,3.3113843E2,0E0,0E0,2.9245685E2,6.865054E2,6.950061E1,2.69922E2,0E0,0E0,0E0,0E0,6.315486E2,5.9098645E2,2.5634766E2,0E0,0E0,8.070012E2,1.0132306E2,0E0,4.935372E2,2.0496204E2,3.849744E2,0E0,7.546608E2,8.4263696E2,3.7005096E2,1.8913086E1,0E0,1.9894653E1,4.9570618E1,0E0,2.0571097E2,2.7627502E1,0E0,0E0,4.973493E2,3.613642E2,6.72045E2,0E0,1.4396858E3,1.2358967E3,0E0,0E0,0E0,0E0,0E0,0E0,2.6133728E0,0E0,1.4996317E2,5.400777E2,0E0,0E0,0E0,0E0,0E0,0E0,0E0,0E0,0E0,0E0,0E0,0E0,0E0,0E0,0E0,0E0,0E0,0E0],"parents":[2147483647,0,0,1,1,2,2,3,3,4,4,5,5,6,6,8,8,9,9,10,10,12,12,13,13,16,16,17,17,18,18,19,19,20,20,21,21,22,22,24,24,27,27,28,28,29,29,30,30,32,32,39,39,42,42,45,45,46,46,47,47,48,48,53,53,54,54,55,55,58,58,59,59,61,61,62,62,63,63,65,65,66,66,67,67,68,68,70,70,71,71,73,73,74,74,77,77,78,78,79,79,81,81,82,82,89,89,91,91,92,92],"right_children":[2,4,6,8,10,12,14,-1,16,18,20,-1,22,24,-1,-1,26,28,30,32,34,36,38,-1,40,-1,-1,42,44,46,48,-1,50,-1,-1,-1,-1,-1,-1,52,-1,-1,54,-1,-1,56,58,60,62,-1,-1,-1,-1,64,66,68,-1,-1,70,72,-1,74,76,78,-1,80,82,84,86,-1,88,90,-1,92,94,-1,-1,96,98,100,-1,102,104,-1,-1,-1,-1,-1,-1,106,-1,108,110,-1,-1,-1,-1,-1,-1,-1,-1,-1,-1,-1,-1,-1,-1,-1,-1,-1,-1],"split_conditions":[3.2640371E0,6.0513854E-2,3.392983E0,-5.3798497E-2,3.158416E0,3.2865205E0,3.6916604E0,-2.4861999E-1,-5.5779926E-3,2.6232033E0,3.2216983E0,1.9513333E-1,3.338171E0,3.4730551E0,6.0298914E-1,4.239681E-1,3.2761835E-2,2.5936933E0,2.7513194E0,3.1793194E0,3.2423496E0,3.3115323E0,3.3656082E0,7.642891E-2,3.5907204E0,1.8960615E-1,4.1895893E-1,8.451929E-2,2.6094217E0,2.693546E0,2.824891E0,-3.5399443E-1,3.2000308E0,1.0875583E-1,-2.236829E-1,5.5592227E-1,4.998614E-1,3.4292254E-1,4.084215E-1,3.5267684E0,-6.2016033E-2,-3.7505817E-1,3.0869192E-1,-3.477642E-1,-2.7243158E-1,2.6788535E0,2.708162E0,2.8120131E0,3.123401E0,-2.4019746E-1,-2.0290011E-1,4.1789007E-3,1.8965062E-2,2.9688787E-1,7.531808E-1,2.6515133E0,-1.7226422E-1,7.8617096E-1,2.7219272E0,2.7963948E0,-4.0786266E-1,3.088799E0,3.14074E0,1.7497621E-1,5.237564E-1,7.415176E-1,8.6227095E-1,2.6383162E0,2.6650593E0,-2.1828137E-1,2.73701E0,2.781978E0,-6.917723E-2,2.8817687E0,3.1059384E0,4.66729E-1,8.629801E-2,1.0538266E-1,2.0413819E-1,7.288121E-1,-6.0274094E-1,8.237788E-1,8.733661E-1,2.8856122E-1,-2.2058083E-1,2.769558E-1,3.9630526E-1,3.7572995E-1,5.00308E-1,2.7668812E0,-3.9658663E-1,2.8510578E0,2.9109035E0,-1.5899946E-1,-2.99843E-1,2.7378726E-1,-1.9341022E-1,3.2930675E-1,4.2935297E-2,-8.974228E-2,4.0087596E-1,-4.3743002E-4,5.037181E-1,-6.742307E-1,-1.5128304E-2,-2.0751913E-1,-2.547571E-1,8.384887E-2,3.1357825E-1,-2.3821978E-1,9.744721E-2],"split_indices":[0,0,0,0,0,0,0,0,0,0,0,0,0,0,0,0,0,0,0,0,0,0,0,0,0,0,0,0,0,0,0,0,0,0,0,0,0,0,0,0,0,0,0,0,0,0,0,0,0,0,0,0,0,0,0,0,0,0,0,0,0,0,0,0,0,0,0,0,0,0,0,0,0,0,0,0,0,0,0,0,0,0,0,0,0,0,0,0,0,0,0,0,0,0,0,0,0,0,0,0,0,0,0,0,0,0,0,0,0,0,0],"split_type":[0,0,0,0,0,0,0,0,0,0,0,0,0,0,0,0,0,0,0,0,0,0,0,0,0,0,0,0,0,0,0,0,0,0,0,0,0,0,0,0,0,0,0,0,0,0,0,0,0,0,0,0,0,0,0,0,0,0,0,0,0,0,0,0,0,0,0,0,0,0,0,0,0,0,0,0,0,0,0,0,0,0,0,0,0,0,0,0,0,0,0,0,0,0,0,0,0,0,0,0,0,0,0,0,0,0,0,0,0,0,0],"sum_hessian":[6.5157E4,6.2357E4,2.8E3,1.017E3,6.134E4,1.273E3,1.527E3,2.57E2,7.6E2,6.0067E4,1.273E3,2.52E2,1.021E3,1.272E3,2.55E2,2.52E2,5.08E2,5.1148E4,8.919E3,7.62E2,5.11E2,5.1E2,5.11E2,5.06E2,7.66E2,2.56E2,2.52E2,5.0642E4,5.06E2,2.293E3,6.626E3,2.52E2,5.1E2,2.57E2,2.54E2,2.54E2,2.56E2,2.54E2,2.57E2,5.1E2,2.56E2,2.56E2,5.0386E4,2.54E2,2.52E2,1.274E3,1.019E3,1.274E3,5.352E3,2.58E2,2.52E2,2.56E2,2.54E2,3.817E3,4.6569E4,1.02E3,2.54E2,2.58E2,7.61E2,1.025E3,2.49E2,4.842E3,5.1E2,3.565E3,2.52E2,1.0187E4,3.6382E4,5.12E2,5.08E2,2.52E2,5.09E2,7.63E2,2.62E2,4.332E3,5.1E2,2.57E2,2.53E2,1.271E3,2.294E3,9.936E3,2.51E2,2.292E3,3.409E4,2.59E2,2.53E2,2.52E2,2.56E2,2.61E2,2.48E2,5.16E2,2.47E2,1.024E3,3.308E3,2.56E2,2.54E2,2.56E2,1.015E3,5.09E2,1.785E3,9.679E3,2.57E2,1.528E3,7.64E2,2.57E2,3.3833E4,2.54E2,2.62E2,5.09E2,5.15E2,5.09E2,2.799E3],"tree_param":{"num_deleted":"0","num_feature":"1","num_nodes":"111","size_leaf_vector":"1"}},{"base_weights":[7.8681674E-5,-2.5984554E-2,5.803183E-1,-8.1863545E-2,4.2661488E-2,9.4005436E-1,2.8000152E-1,9.927965E-3,-3.1631634E-1,9.88314E-1,7.978276E-3,1.3682473E-1,1.0589436E0,5.267389E-2,4.22799E-1,-1.0357223E-1,5.4313576E-1,-7.4659246E-1,-2.5912237E-1,4.1831565E-1,8.4628063E-1,-4.588735E-1,2.2524452E-2,1.2359687E0,8.80196E-1,5.354535E-2,-3.055772E-2,-5.5545174E-2,-1.3309761E0,1.4670107E0,2.5850987E-1,-1.3994564E-1,-4.759016E-1,6.185047E-1,3.820509E-1,5.6192595E-1,-4.524877E-3,3.8979983E-1,3.5048664E-1,2.4044937E-1,2.8637025E-1,2.7031923E-2,-4.348376E-2,1.2029806E-1,-1.677734E-1,-4.8164225E-1,-2.3107679E-1,1.5737935E0,3.420215E-1,4.9100024E-1,-1.221506E-2,-3.5482422E-1,3.9186978E-1,-1.0277056E0,-3.6899453E-1,2.3687807E-1,1.3931432E-1,3.0934936E-1,7.459767E-1,-1.4233816E0,3.9534543E-2,2.9300607E-3,1.3297915E-2,2.2194503E-2,1.0016621E0,-8.213928E-1,-7.173446E-2,1.5032295E0,5.141122E-1,6.1328724E-2,9.027902E-1,-4.0745908E-1,3.820156E-1,-1.4859515E-1,-8.49884E-1,4.9722415E-1,-7.016801E-2,-2.6081875E-1,-3.6153156E-1,-9.778211E-2,-5.950592E-1,1.7823993E-1,-3.380484E-3,2.3661852E-1,7.2163403E-1,-5.520276E-1,-1.2134703E0,6.48375E-2,-4.2578092E-1,1.541706E-1,-7.3539597E-1,5.2195156E-1,6.181658E-1,-1.4052165E-1,-1.5065359E0,3.2194972E-1,-1.0063392E-1,4.7950563E-1,4.2103222E-1,2.5228465E-1,-1.3222732E-1,-2.22369E-1,-2.364864E-1,1.5265407E-1,2.4809161E-1,-3.9297917E-1,1.8256551E-1,-1.064447E0,-3.0473262E-2,3.7183884E-1,3.6165932E-1,-2.948846E-1,1.7453173E-1,-5.87189E-1,-3.2321346E-1,2.0247838E-1,2.3133841E-1,-2.214161E-1,-5.3583515E-1,4.8366746E-1,4.0809076E-2,-6.221621E-1,-1.3229539E-1,4.8619773E-2,4.5277378E-1,-1.047237E0,5.9803676E-2,-3.2713788E-4,3.647221E-1,-2.3396168E-2,-1.7224903E-1,-1.2606258E0,-5.9268737E-1,-2.1391056E-1,5.2615173E-2,-3.701132E-2,2.4431767E-1,-2.8172597E-1,5.018778E-2,-8.767849E-3,-1.3068946E-1,1.7670134E-1,-8.173471E-2,4.1352436E-3,-9.460314E-1,1.3262245E-1,1.1024361E-1,-1.1810066E0,-2.1715498E-1,1.1560976E-1,5.258817E-1,1.3595925E-1,-5.1452327E-1,-1.399354E-1,-5.9965897E-1,9.00331E-2,7.4220943E-1,-7.442874E-1,7.880827E-2,-2.4821585E-1,-5.193366E-1,7.625572E-2,-1.5684135E-1,4.0724438E-2,-1.8112269E-1,2.4054912E-1,3.0937606E-2,-2.3615065E-1,-4.739487E-1,-5.428294E-2,-4.8998665E-2,-4.6460032E-1,-2.8782713E-1,-4.8036646E-2,-4.226361E-1,1.17498346E-1,-9.883241E-2,-7.689026E-2,5.4986186E-2,-1.1876784E-1,-5.0871752E-2,-2.0544417E-1,2.1075973E-1,-4.2736328E-1,-2.0998009E-1,5.049968E-2,-1.2143893E-2,-2.7631328E-1,-5.290716E-1,7.656014E-2,-1.3518527E-2,2.2876915E-1,1.2348444E-1,-1.0196837E-1,-2.7885032E-1,-1.7623167E-1,2.5489109E-2,-1.6462995E-1,-1.944001E-1,6.1324134E-2,-7.4110315E-3,1.9690514E-1,2.733085E-1,-1.0272614E-1,-2.6381144E-1,6.2939E-1,1.618519E-2,-1.6841626E-1,-1.4227067E-1],"categories":[],"categories_nodes":[],"categories_segments":[],"categories_sizes":[],"default_left":[0,0,0,0,0,0,0,0,0,0,0,0,0,0,0,0,0,0,0,0,0,0,0,0,0,0,0,0,0,0,0,0,0,0,0,0,0,0,0,0,0,0,0,0,0,0,0,0,0,0,0,0,0,0,0,0,0,0,0,0,0,0,0,0,0,0,0,0,0,0,0,0,0,0,0,0,0,0,0,0,0,0,0,0,0,0,0,0,0,0,0,0,0,0,0,0,0,0,0,0,0,0,0,0,0,0,0,0,0,0,0,0,0,0,0,0,0,0,0,0,0,0,0,0,0,0,0,0,0,0,0,0,0,0,0,0,0,0,0,0,0,0,0,0,0,0,0,0,0,0,0,0,0,0,0,0,0,0,0,0,0,0,0,0,0,0,0,0,0,0,0,0,0,0,0,0,0,0,0,0,0,0,0,0,0,0,0,0,0,0,0,0,0,0,0,0,0,0,0,0,0,0,0,0,0,0,0,0,0],"id":2,"left_children":[1,3,5,7,9,11,13,15,17,19,21,-1,23,25,-1,27,29,-1,31,-1,33,-1,35,37,39,-1,41,43,45,47,49,51,53,55,-1,57,59,-1,-1,-1,-1,61,-1,63,65,-1,-1,67,-1,69,71,73,75,77,79,-1,-1,81,83,85,87,-1,-1,89,91,93,95,97,-1,99,-1,101,103,105,107,109,-1,-1,-1,111,113,-1,-1,-1,115,-1,117,119,121,123,125,-1,127,129,131,-1,133,-1,-1,135,137,-1,139,141,-1,143,145,147,-1,149,-1,151,-1,-1,153,-1,-1,-1,-1,155,157,159,161,163,165,167,-1,-1,-1,-1,169,171,-1,173,175,177,-1,179,-1,-1,-1,-1,-1,181,183,-1,185,187,-1,189,191,-1,193,195,197,199,201,203,205,-1,207,-1,-1,-1,-1,-1,-1,-1,-1,-1,-1,-1,-1,-1,-1,-1,-1,-1,-1,-1,-1,-1,-1,-1,-1,-1,-1,-1,-1,-1,-1,-1,-1,-1,-1,-1,-1,-1,-1,-1,-1,-1,-1,-1,-1,-1,-1,-1,-1],"loss_changes":[9.853944E2,2.3920074E2,3.0234216E2,7.3980133E2,9.1778595E2,7.28219E1,3.9220544E2,1.4951827E3,1.2010419E3,5.5918823E1,6.037706E2,0E0,3.1250977E1,1.3335571E1,0E0,1.2007089E3,1.1398099E3,0E0,2.4342865E2,0E0,7.083325E1,0E0,3.901803E2,6.734009E-1,2.231598E0,0E0,5.0565853E0,3.868968E2,1.16817505E2,3.385034E1,2.087181E2,6.952784E2,1.968302E2,1.2343109E1,0E0,5.9133026E1,1.5920378E3,0E0,0E0,0E0,0E0,1.5214646E-1,0E0,6.6039716E2,7.5114453E2,0E0,0E0,4.99646E0,0E0,1.930178E3,2.3902357E2,4.422544E2,1.1555423E2,1.4173889E1,1.7173679E2,0E0,0E0,4.93123E1,1.9885254E-1,6.48584E1,2.9084186E2,0E0,0E0,6.874022E2,2.1548682E2,7.149238E2,3.453708E2,2.673706E0,0E0,5.6398388E1,0E0,4.3537018E1,7.825267E1,2.4771869E2,2.0444403E2,1.3267987E2,0E0,0E0,0E0,1.7094745E2,5.652141E2,0E0,0E0,0E0,5.937805E-1,0E0,1.3834387E2,2.3574545E2,7.334471E1,1.8451477E2,2.9752942E2,0E0,1.8687747E2,1.514288E0,8.563965E1,0E0,1.7671402E2,0E0,0E0,1.2491881E2,3.3988716E1,0E0,2.0954897E1,9.439137E1,0E0,3.8676355E2,2.4349937E1,3.8447998E1,0E0,5.0263794E1,0E0,1.6273355E2,0E0,0E0,6.451575E1,0E0,0E0,0E0,0E0,1.2928412E2,6.610691E2,1.5671356E1,7.740618E1,2.460253E2,1.8652731E2,1.0471661E2,0E0,0E0,0E0,0E0,9.9983215E-3,4.22406E1,0E0,3.759498E2,5.606258E2,2.4588041E1,0E0,6.4117928E0,0E0,0E0,0E0,0E0,0E0,4.9415134E2,8.567493E1,0E0,8.91972E0,1.0983923E2,0E0,1.0777058E1,2.1213882E1,0E0,5.5121338E1,7.7343834E1,8.941803E-1,6.6324887E0,1.0519409E1,5.5233276E1,1.0606842E3,0E0,7.028961E-1,0E0,0E0,0E0,0E0,0E0,0E0,0E0,0E0,0E0,0E0,0E0,0E0,0E0,0E0,0E0,0E0,0E0,0E0,0E0,0E0,0E0,0E0,0E0,0E0,0E0,0E0,0E0,0E0,0E0,0E0,0E0,0E0,0E0,0E0,0E0,0E0,0E0,0E0,0E0,0E0,0E0,0E0,0E0,0E0,0E0,0E0,0E0,0E0],"parents":[2147483647,0,0,1,1,2,2,3,3,4,4,5,5,6,6,7,7,8,8,9,9,10,10,12,12,13,13,15,15,16,16,18,18,20,20,22,22,23,23,24,24,26,26,27,27,28,28,29,29,30,30,31,31,32,32,33,33,35,35,36,36,41,41,43,43,44,44,47,47,49,49,50,50,51,51,52,52,53,53,54,54,57,57,58,58,59,59,60,60,63,63,64,64,65,65,66,66,67,67,69,69,71,71,72,72,73,73,74,74,75,75,79,79,80,80,84,84,86,86,87,87,88,88,89,89,90,90,92,92,93,93,94,94,96,96,99,99,100,100,102,102,103,103,105,105,106,106,107,107,109,109,111,111,114,114,119,119,120,120,121,121,122,122,123,123,124,124,125,125,130,130,131,131,133,133,134,134,135,135,137,137,143,143,144,144,146,146,147,147,149,149,150,150,152,152,153,153,154,154,155,155,156,156,157,157,158,158,160,160],"right_children":[2,4,6,8,10,12,14,16,18,20,22,-1,24,26,-1,28,30,-1,32,-1,34,-1,36,38,40,-1,42,44,46,48,50,52,54,56,-1,58,60,-1,-1,-1,-1,62,-1,64,66,-1,-1,68,-1,70,72,74,76,78,80,-1,-1,82,84,86,88,-1,-1,90,92,94,96,98,-1,100,-1,102,104,106,108,110,-1,-1,-1,112,114,-1,-1,-1,116,-1,118,120,122,124,126,-1,128,130,132,-1,134,-1,-1,136,138,-1,140,142,-1,144,146,148,-1,150,-1,152,-1,-1,154,-1,-1,-1,-1,156,158,160,162,164,166,168,-1,-1,-1,-1,170,172,-1,174,176,178,-1,180,-1,-1,-1,-1,-1,182,184,-1,186,188,-1,190,192,-1,194,196,198,200,202,204,206,-1,208,-1,-1,-1,-1,-1,-1,-1,-1,-1,-1,-1,-1,-1,-1,-1,-1,-1,-1,-1,-1,-1,-1,-1,-1,-1,-1,-1,-1,-1,-1,-1,-1,-1,-1,-1,-1,-1,-1,-1,-1,-1,-1,-1,-1,-1,-1,-1,-1],"split_conditions":[3.2640371E0,1.6530857E0,3.392983E0,1.1991476E0,1.7047725E0,3.2865205E0,3.6916604E0,9.9453974E-1,1.2103606E0,1.6671224E0,1.7165725E0,1.3682473E-1,3.338171E0,3.4730551E0,4.22799E-1,9.575075E-1,1.044683E0,-7.4659246E-1,1.492948E0,4.1831565E-1,1.6917951E0,-4.588735E-1,1.7852107E0,3.3115323E0,3.3656082E0,5.354535E-2,3.5907204E0,4.2239243E-1,9.822003E-1,1.0319544E0,1.1260456E0,1.4100347E0,1.5198566E0,1.6786821E0,3.820509E-1,1.7453601E0,1.8270289E0,3.8979983E-1,3.5048664E-1,2.4044937E-1,2.8637025E-1,3.5267684E0,-4.348376E-2,3.8934004E-1,4.8678172E-1,-4.8164225E-1,-2.3107679E-1,1.0195019E0,3.420215E-1,1.1134748E0,1.1627754E0,1.3511394E0,1.4805195E0,1.5061469E0,1.5809549E0,2.3687807E-1,1.3931432E-1,1.7310376E0,1.7595909E0,1.7985048E0,3.158416E0,2.9300607E-3,1.3297915E-2,3.444764E-1,4.0011576E-1,4.558638E-1,4.9777788E-1,1.0072634E0,5.141122E-1,1.0798352E0,9.027902E-1,1.1381865E0,1.1863949E0,1.2917117E0,1.3969948E0,1.4701486E0,-7.016801E-2,-2.6081875E-1,-3.6153156E-1,1.5678438E0,1.59293E0,1.7823993E-1,-3.380484E-3,2.3661852E-1,1.7740226E0,-5.520276E-1,1.8143924E0,1.889178E0,3.2216983E0,2.7103084E-1,3.7936154E-1,5.2195156E-1,4.1008115E-1,4.338413E-1,4.763975E-1,3.2194972E-1,7.531808E-1,4.7950563E-1,4.2103222E-1,1.0676212E0,1.1025482E0,-2.22369E-1,1.1510508E0,1.1746886E0,2.4809161E-1,1.257215E0,1.3042128E0,1.3850123E0,-3.0473262E-2,1.4319811E0,3.6165932E-1,1.5302445E0,1.7453173E-1,-5.87189E-1,1.6282802E0,2.0247838E-1,2.3133841E-1,-2.214161E-1,-5.3583515E-1,1.8524575E0,1.9464216E0,3.1793194E0,3.2423496E0,2.4539119E-1,3.0869192E-1,3.6795694E-1,5.9803676E-2,-3.2713788E-4,3.647221E-1,-2.3396168E-2,4.4471672E-1,4.6638176E-1,-5.9268737E-1,7.415176E-1,8.6227095E-1,1.0559204E0,2.4431767E-1,1.0917164E0,5.018778E-2,-8.767849E-3,-1.3068946E-1,1.7670134E-1,-8.173471E-2,1.2341549E0,1.2684107E0,1.3262245E-1,1.3376012E0,1.3742884E0,-2.1715498E-1,1.4212945E0,1.4449964E0,1.3595925E-1,1.5561649E0,1.6038969E0,1.6401714E0,1.8393123E0,1.8772635E0,1.9037753E0,1.9593499E0,-2.4821585E-1,3.2000308E0,7.625572E-2,-1.5684135E-1,4.0724438E-2,-1.8112269E-1,2.4054912E-1,3.0937606E-2,-2.3615065E-1,-4.739487E-1,-5.428294E-2,-4.8998665E-2,-4.6460032E-1,-2.8782713E-1,-4.8036646E-2,-4.226361E-1,1.17498346E-1,-9.883241E-2,-7.689026E-2,5.4986186E-2,-1.1876784E-1,-5.0871752E-2,-2.0544417E-1,2.1075973E-1,-4.2736328E-1,-2.0998009E-1,5.049968E-2,-1.2143893E-2,-2.7631328E-1,-5.290716E-1,7.656014E-2,-1.3518527E-2,2.2876915E-1,1.2348444E-1,-1.0196837E-1,-2.7885032E-1,-1.7623167E-1,2.5489109E-2,-1.6462995E-1,-1.944001E-1,6.1324134E-2,-7.4110315E-3,1.9690514E-1,2.733085E-1,-1.0272614E-1,-2.6381144E-1,6.2939E-1,1.618519E-2,-1.6841626E-1,-1.4227067E-1],"split_indices":[0,0,0,0,0,0,0,0,0,0,0,0,0,0,0,0,0,0,0,0,0,0,0,0,0,0,0,0,0,0,0,0,0,0,0,0,0,0,0,0,0,0,0,0,0,0,0,0,0,0,0,0,0,0,0,0,0,0,0,0,0,0,0,0,0,0,0,0,0,0,0,0,0,0,0,0,0,0,0,0,0,0,0,0,0,0,0,0,0,0,0,0,0,0,0,0,0,0,0,0,0,0,0,0,0,0,0,0,0,0,0,0,0,0,0,0,0,0,0,0,0,0,0,0,0,0,0,0,0,0,0,0,0,0,0,0,0,0,0,0,0,0,0,0,0,0,0,0,0,0,0,0,0,0,0,0,0,0,0,0,0,0,0,0,0,0,0,0,0,0,0,0,0,0,0,0,0,0,0,0,0,0,0,0,0,0,0,0,0,0,0,0,0,0,0,0,0,0,0,0,0,0,0,0,0,0,0,0,0],"split_type":[0,0,0,0,0,0,0,0,0,0,0,0,0,0,0,0,0,0,0,0,0,0,0,0,0,0,0,0,0,0,0,0,0,0,0,0,0,0,0,0,0,0,0,0,0,0,0,0,0,0,0,0,0,0,0,0,0,0,0,0,0,0,0,0,0,0,0,0,0,0,0,0,0,0,0,0,0,0,0,0,0,0,0,0,0,0,0,0,0,0,0,0,0,0,0,0,0,0,0,0,0,0,0,0,0,0,0,0,0,0,0,0,0,0,0,0,0,0,0,0,0,0,0,0,0,0,0,0,0,0,0,0,0,0,0,0,0,0,0,0,0,0,0,0,0,0,0,0,0,0,0,0,0,0,0,0,0,0,0,0,0,0,0,0,0,0,0,0,0,0,0,0,0,0,0,0,0,0,0,0,0,0,0,0,0,0,0,0,0,0,0,0,0,0,0,0,0,0,0,0,0,0,0,0,0,0,0,0,0],"sum_hessian":[6.5157E4,6.2357E4,2.8E3,3.4375E4,2.7982E4,1.273E3,1.527E3,2.4704E4,9.671E3,9.89E2,2.6993E4,2.52E2,1.021E3,1.272E3,2.55E2,2.0369E4,4.335E3,2.47E2,9.424E3,2.54E2,7.35E2,2.52E2,2.6741E4,5.1E2,5.11E2,5.06E2,7.66E2,1.9603E4,7.66E2,1.02E3,3.315E3,6.082E3,3.342E3,4.81E2,2.54E2,1.276E3,2.5465E4,2.54E2,2.56E2,2.54E2,2.57E2,5.1E2,2.56E2,7.637E3,1.1966E4,5.13E2,2.53E2,7.66E2,2.54E2,1.783E3,1.532E3,4.332E3,1.75E3,5.41E2,2.801E3,2.26E2,2.55E2,5.39E2,7.37E2,7.66E2,2.4699E4,2.56E2,2.54E2,6.873E3,7.64E2,1.532E3,1.0434E4,5.17E2,2.49E2,1.524E3,2.59E2,7.65E2,7.67E2,3.059E3,1.273E3,1.498E3,2.52E2,2.89E2,2.52E2,1.274E3,1.527E3,2.85E2,2.54E2,2.56E2,4.81E2,2.54E2,5.12E2,2.3426E4,1.273E3,5.854E3,1.019E3,2.6E2,5.04E2,7.69E2,7.63E2,2.56E2,1.0178E4,2.57E2,2.6E2,7.67E2,7.57E2,2.58E2,5.07E2,5.07E2,2.6E2,1.76E3,1.299E3,9.89E2,2.84E2,1.274E3,2.24E2,9.88E2,2.86E2,2.53E2,1.274E3,2.55E2,2.26E2,2.81E2,2.31E2,1.27E3,2.2156E4,7.62E2,5.11E2,4.326E3,1.528E3,7.64E2,2.55E2,2.48E2,2.56E2,2.6E2,5.09E2,5.03E2,2.6E2,5.852E3,4.326E3,5.07E2,2.6E2,5.05E2,2.52E2,2.49E2,2.58E2,2.5E2,2.57E2,1.025E3,7.35E2,2.82E2,1.017E3,7.35E2,2.54E2,4.79E2,7.95E2,2.24E2,7.64E2,7.67E2,5.07E2,5.04E2,7.66E2,1.022E3,2.1134E4,2.52E2,5.1E2,2.57E2,2.54E2,3.817E3,5.09E2,7.64E2,7.64E2,5.15E2,2.49E2,2.48E2,2.61E2,2.55E2,2.48E2,5.601E3,2.51E2,2.292E3,2.034E3,2.54E2,2.53E2,2.49E2,2.56E2,5.16E2,5.09E2,2.48E2,4.87E2,7.34E2,2.83E2,5.1E2,2.25E2,2.56E2,2.23E2,2.57E2,5.38E2,5.39E2,2.25E2,2.56E2,5.11E2,2.53E2,2.54E2,2.52E2,2.52E2,5.11E2,2.55E2,2.58E2,7.64E2,2.56E2,2.0878E4,2.58E2,2.52E2],"tree_param":{"num_deleted":"0","num_feature":"1","num_nodes":"209","size_leaf_vector":"1"}},{"base_weights":[5.0711198E-5,-1.8223472E-2,4.0688452E-1,4.1356286E-1,-2.5388993E-2,6.5914005E-1,1.9629523E-1,-1.8649316E-1,7.639831E-1,-4.904656E-1,-1.7516633E-2,9.59393E-2,7.425006E-1,3.6892533E-2,2.96455E-1,2.8511176E-1,6.698367E-1,-1.592217E-1,-8.23349E-1,2.0710468E-1,-3.0553212E-2,8.666271E-1,6.171663E-1,1.2504505E-1,-2.1425867E-2,1.2077618E-1,2.815992E-1,-2.7514842E-1,1.7980129E-1,-2.5812092E-1,-2.3510043E-1,9.907617E-2,4.4943625E-1,-1.387242E-1,8.154532E-3,2.733187E-1,2.457497E-1,1.6859727E-1,2.0079243E-1,3.925536E-2,3.5638217E-2,1.895423E-2,-3.04894E-2,2.4851318E-1,-1.2689269E-1,5.615957E-1,3.375503E-2,-9.601073E-2,-9.326127E-1,1.028628E0,-1.7277174E-2,2.0545742E-3,9.324149E-3,-1.5935801E-1,4.1095436E-1,3.518993E-1,2.9537117E-1,-1.4915824E-1,1.2164546E-1,-3.3743083E-1,-1.6202657E-1,1.1035E0,2.398173E-1,3.442638E-1,-3.3736415E-2,-5.8266886E-2,-3.695069E-2,7.2838324E-1,1.987979E-1,1.6905391E-1,4.216861E-2,-1.03083216E-1,-7.94134E-1,1.0586565E0,-2.3065679E-1,1.0539993E0,3.6049542E-1,4.2997457E-2,6.329948E-1,-1.9261485E-1,2.9877488E-2,2.512044E-1,1.8431586E-1,-5.1278625E-2,3.8618112E-1,-1.5387124E-1,5.5563813E-1,-5.205498E-1,-3.1649753E-1,5.1307267E-1,7.2758347E-1,-4.4321048E-1,-4.962068E-2,3.362115E-1,2.952066E-1,1.7688869E-1,-9.271688E-2,-1.3261382E-1,-3.3366644E-1,6.93008E-1,5.5561895E-3,1.5567099E-1,7.478794E-2,-3.9644815E-2,-2.9634842E-1,2.4047257E-1,1.7020553E-2,3.0788602E-2,-2.218028E-1,2.4514757E-1,1.9097146E-1,6.4094104E-2,-7.445726E-2,-7.7853235E-3,1.7130306E-1,-5.9263054E-2,3.519085E-2,-7.4785575E-2,8.241375E-2,-2.161626E-1,-7.761383E-2,2.9331303E-1,1.7802794E-1,-3.2175553E-1,4.7266204E-3],"categories":[],"categories_nodes":[],"categories_segments":[],"categories_sizes":[],"default_left":[0,0,0,0,0,0,0,0,0,0,0,0,0,0,0,0,0,0,0,0,0,0,0,0,0,0,0,0,0,0,0,0,0,0,0,0,0,0,0,0,0,0,0,0,0,0,0,0,0,0,0,0,0,0,0,0,0,0,0,0,0,0,0,0,0,0,0,0,0,0,0,0,0,0,0,0,0,0,0,0,0,0,0,0,0,0,0,0,0,0,0,0,0,0,0,0,0,0,0,0,0,0,0,0,0,0,0,0,0,0,0,0,0,0,0,0,0,0,0,0,0,0,0,0,0],"id":3,"left_children":[1,3,5,7,9,11,13,-1,15,17,19,-1,21,23,-1,-1,25,27,29,31,33,35,37,39,41,-1,-1,-1,-1,-1,-1,43,45,47,49,-1,-1,-1,-1,-1,-1,51,-1,53,-1,55,-1,57,59,61,63,-1,-1,65,67,69,-1,71,73,-1,-1,75,-1,77,79,-1,-1,81,83,-1,-1,85,87,89,91,93,-1,95,-1,97,99,-1,-1,-1,101,103,105,-1,107,-1,109,-1,111,-1,-1,113,115,117,119,121,123,-1,-1,-1,-1,-1,-1,-1,-1,-1,-1,-1,-1,-1,-1,-1,-1,-1,-1,-1,-1,-1,-1,-1,-1],"loss_changes":[4.844282E2,1.9294456E2,1.4866617E2,3.697619E2,2.2457617E2,3.5801147E1,1.928416E2,0E0,1.2717346E1,1.1245006E2,1.7664392E2,0E0,1.5364746E1,6.5470614E0,0E0,0E0,3.6190674E1,2.9549506E2,7.4157715E-2,8.658084E1,2.3871767E2,3.3139038E-1,1.0968475E0,2.8567314E-3,2.4860125E0,0E0,0E0,0E0,0E0,0E0,0E0,1.7875685E2,3.8481277E1,5.0940414E2,1.0897322E3,0E0,0E0,0E0,0E0,0E0,0E0,7.4800074E-2,0E0,1.18065765E2,0E0,6.7506195E1,0E0,1.6496461E2,5.7244324E1,1.6641846E1,2.4380542E2,0E0,0E0,6.170368E-1,8.565221E1,2.286311E1,0E0,3.4050787E2,9.2422516E2,0E0,0E0,2.459961E0,0E0,9.489109E2,3.9605383E2,0E0,0E0,5.820587E0,5.3065643E1,0E0,0E0,3.5798877E2,3.4284677E2,1.6378333E2,4.592257E2,1.3151245E0,0E0,2.7727114E1,0E0,9.4777954E1,4.5131143E2,0E0,0E0,0E0,9.100029E0,1.7980663E2,9.394174E1,0E0,9.010641E1,0E0,3.6293945E0,0E0,9.300172E1,0E0,0E0,6.1411438E1,1.671104E1,3.7369702E2,9.675305E1,2.7487305E1,2.968297E2,0E0,0E0,0E0,0E0,0E0,0E0,0E0,0E0,0E0,0E0,0E0,0E0,0E0,0E0,0E0,0E0,0E0,0E0,0E0,0E0,0E0,0E0,0E0,0E0],"parents":[2147483647,0,0,1,1,2,2,3,3,4,4,5,5,6,6,8,8,9,9,10,10,12,12,13,13,16,16,17,17,18,18,19,19,20,20,21,21,22,22,23,23,24,24,31,31,32,32,33,33,34,34,41,41,43,43,45,45,47,47,48,48,49,49,50,50,53,53,54,54,55,55,57,57,58,58,61,61,63,63,64,64,67,67,68,68,71,71,72,72,73,73,74,74,75,75,77,77,79,79,80,80,84,84,85,85,86,86,88,88,90,90,92,92,95,95,96,96,97,97,98,98,99,99,100,100],"right_children":[2,4,6,8,10,12,14,-1,16,18,20,-1,22,24,-1,-1,26,28,30,32,34,36,38,40,42,-1,-1,-1,-1,-1,-1,44,46,48,50,-1,-1,-1,-1,-1,-1,52,-1,54,-1,56,-1,58,60,62,64,-1,-1,66,68,70,-1,72,74,-1,-1,76,-1,78,80,-1,-1,82,84,-1,-1,86,88,90,92,94,-1,96,-1,98,100,-1,-1,-1,102,104,106,-1,108,-1,110,-1,112,-1,-1,114,116,118,120,122,124,-1,-1,-1,-1,-1,-1,-1,-1,-1,-1,-1,-1,-1,-1,-1,-1,-1,-1,-1,-1,-1,-1,-1,-1],"split_conditions":[3.2640371E0,6.0513854E-2,3.392983E0,-5.3798497E-2,1.4289327E-1,3.2865205E0,3.6916604E0,-1.8649316E-1,-5.5779926E-3,1.0538266E-1,3.2116738E-1,9.59393E-2,3.338171E0,3.4730551E0,2.96455E-1,2.8511176E-1,3.2761835E-2,8.451929E-2,1.2378317E-1,2.7103084E-1,9.9453974E-1,3.3115323E0,3.3656082E0,3.430336E0,3.5907204E0,1.2077618E-1,2.815992E-1,-2.7514842E-1,1.7980129E-1,-2.5812092E-1,-2.3510043E-1,2.4539119E-1,3.0869192E-1,9.575075E-1,1.044683E0,2.733187E-1,2.457497E-1,1.6859727E-1,2.0079243E-1,3.925536E-2,3.5638217E-2,3.5267684E0,-3.04894E-2,1.7497621E-1,-1.2689269E-1,2.9688787E-1,3.375503E-2,8.237788E-1,9.822003E-1,1.0319544E0,1.1260456E0,2.0545742E-3,9.324149E-3,1.5901788E-1,2.0413819E-1,2.8349933E-1,2.9537117E-1,7.8875315E-1,8.6227095E-1,-3.3743083E-1,-1.6202657E-1,1.0195019E0,2.398173E-1,1.1134748E0,1.6530857E0,-5.8266886E-2,-3.695069E-2,1.9023411E-1,2.1835692E-1,1.6905391E-1,4.216861E-2,7.531808E-1,8.0028814E-1,8.379269E-1,8.733661E-1,1.0072634E0,3.6049542E-1,1.0798352E0,6.329948E-1,1.492948E0,1.7047725E0,2.512044E-1,1.8431586E-1,-5.1278625E-2,2.3212638E-1,7.415176E-1,7.7700824E-1,-5.205498E-1,8.122022E-1,5.1307267E-1,8.488296E-1,-4.4321048E-1,9.093247E-1,3.362115E-1,2.952066E-1,1.0676212E0,1.1025482E0,1.4100347E0,1.5198566E0,1.6671224E0,1.7165725E0,1.5567099E-1,7.478794E-2,-3.9644815E-2,-2.9634842E-1,2.4047257E-1,1.7020553E-2,3.0788602E-2,-2.218028E-1,2.4514757E-1,1.9097146E-1,6.4094104E-2,-7.445726E-2,-7.7853235E-3,1.7130306E-1,-5.9263054E-2,3.519085E-2,-7.4785575E-2,8.241375E-2,-2.161626E-1,-7.761383E-2,2.9331303E-1,1.7802794E-1,-3.2175553E-1,4.7266204E-3],"split_indices":[0,0,0,0,0,0,0,0,0,0,0,0,0,0,0,0,0,0,0,0,0,0,0,0,0,0,0,0,0,0,0,0,0,0,0,0,0,0,0,0,0,0,0,0,0,0,0,0,0,0,0,0,0,0,0,0,0,0,0,0,0,0,0,0,0,0,0,0,0,0,0,0,0,0,0,0,0,0,0,0,0,0,0,0,0,0,0,0,0,0,0,0,0,0,0,0,0,0,0,0,0,0,0,0,0,0,0,0,0,0,0,0,0,0,0,0,0,0,0,0,0,0,0,0,0],"split_type":[0,0,0,0,0,0,0,0,0,0,0,0,0,0,0,0,0,0,0,0,0,0,0,0,0,0,0,0,0,0,0,0,0,0,0,0,0,0,0,0,0,0,0,0,0,0,0,0,0,0,0,0,0,0,0,0,0,0,0,0,0,0,0,0,0,0,0,0,0,0,0,0,0,0,0,0,0,0,0,0,0,0,0,0,0,0,0,0,0,0,0,0,0,0,0,0,0,0,0,0,0,0,0,0,0,0,0,0,0,0,0,0,0,0,0,0,0,0,0,0,0,0,0,0,0],"sum_hessian":[6.5157E4,6.2357E4,2.8E3,1.017E3,6.134E4,1.273E3,1.527E3,2.57E2,7.6E2,1.02E3,6.032E4,2.52E2,1.021E3,1.272E3,2.55E2,2.52E2,5.08E2,5.12E2,5.08E2,3.308E3,5.7012E4,5.1E2,5.11E2,5.06E2,7.66E2,2.56E2,2.52E2,2.56E2,2.56E2,2.52E2,2.56E2,2.289E3,1.019E3,1.5024E4,4.1988E4,2.54E2,2.56E2,2.54E2,2.57E2,2.52E2,2.54E2,5.1E2,2.56E2,1.78E3,5.09E2,7.64E2,2.55E2,1.4258E4,7.66E2,1.02E3,4.0968E4,2.56E2,2.54E2,5.07E2,1.273E3,5.12E2,2.52E2,1.146E4,2.798E3,5.13E2,2.53E2,7.66E2,2.54E2,1.783E3,3.9185E4,2.56E2,2.51E2,5.09E2,7.64E2,2.55E2,2.57E2,1.0697E4,7.63E2,7.64E2,2.034E3,5.17E2,2.49E2,1.524E3,2.59E2,1.1203E4,2.7982E4,2.57E2,2.52E2,2.57E2,5.07E2,9.932E3,7.65E2,2.56E2,5.07E2,2.56E2,5.08E2,2.57E2,1.777E3,2.57E2,2.6E2,7.67E2,7.57E2,7.861E3,3.342E3,9.89E2,2.6993E4,2.56E2,2.51E2,9.681E3,2.51E2,5.12E2,2.53E2,2.55E2,2.52E2,2.52E2,2.56E2,7.64E2,1.013E3,5.07E2,2.6E2,5.05E2,2.52E2,6.111E3,1.75E3,5.41E2,2.801E3,2.54E2,7.35E2,2.52E2,2.6741E4],"tree_param":{"num_deleted":"0","num_feature":"1","num_nodes":"125","size_leaf_vector":"1"}},{"base_weights":[8.5500964E-5,-1.27256E-2,2.85296E-1,-3.805871E-2,6.198943E-2,4.621702E-1,1.3763691E-1,-1.8318096E-2,-1.2215673E0,1.0195178E0,-4.0520933E-2,6.727119E-2,5.206192E-1,2.5868354E-2,2.0786579E-1,-3.9614134E-2,2.546622E-1,-1.3414497E0,-2.9267308E-1,4.615975E-1,1.1441675E0,-4.9942374E-1,4.742189E-2,6.076541E-1,4.3273744E-1,8.767911E-2,-1.5023328E-2,-2.2446418E-2,-5.936823E-1,8.001006E-1,-2.1103886E-1,-4.2288965E-1,-3.8073754E-1,6.917667E-1,-1.3826685E-1,-5.1080555E-2,-8.583397E-1,2.4420643E-1,-5.4015335E-2,1.9164447E-1,1.7231144E-1,1.1821615E-1,1.407882E-1,2.7525378E-2,2.4988519E-2,1.329005E-2,-2.1378338E-2,-2.9190028E-2,3.261512E-1,-1.0224711E0,4.898554E-2,5.6560713E-1,5.952845E-1,-3.2236946E-1,-6.217288E-2,9.378913E-2,8.1839794E-1,-4.3316615E-1,4.1689637E-1,-1.5251644E0,-4.1266793E-1,-5.917377E-2,6.341053E-1,-6.412948E-1,5.8999356E-2,1.4407254E-3,6.5376405E-3,2.8998575E-1,-3.7322283E-2,-4.5531622E-1,-2.2860259E-1,1.6865987E-1,-1.435865E-1,1.2832935E0,8.92165E-2,3.8581166E-2,-1.6947272E-1,7.233136E-1,3.0094868E-1,6.712467E-1,-2.5659988E-2,-5.232735E-1,-3.9081207E-1,-1.4842196E-1,-2.7941E-1,4.6482024E-1,-3.2113203E-1,4.8654258E-1,1.0011901E0,-5.5956703E-1,-2.9224214E-1,2.1752843E-1,-1.5716173E-1,-1.3076214E-1,5.356911E-1,-4.54373E-2,2.7307788E-1,7.1848646E-2,7.116724E-1,-3.2935613E-1,7.060352E-1,-2.0408602E-1,2.0052055E-1,2.5901517E-1,1.7361706E-1,-7.6352214E-3,4.1206568E-1,-1.1470555E-1,2.666053E-2,2.9427042E-2,4.0013513E-1,-5.1612246E-1,6.567378E-2,7.3821336E-1,-1.5930487E-1,2.5719127E-1,3.4457022E-1,-6.886334E-1,-5.475266E-2,7.114396E-2,1.1597757E0,-3.6857894E-1,-3.6077574E-2,1.9991615E-1,4.696758E-1,-3.3908237E-2,-6.206253E-1,4.3989512E-1,-1.2972468E-1,3.658606E-1,5.5086058E-2,-1.34309735E-2,-1.0822449E-1,2.1787259E-1,-6.42834E-2,5.3184144E-2,-3.5389133E-2,-8.554934E-2,-7.474291E-1,1.960764E-1,-1.6091599E-1,3.711871E-1,5.449808E-1,-5.62984E-1,-2.8433856E-1,2.4783838E-1,-3.297592E-1,5.435897E-1,1.4551382E-1,-2.507183E-1,-2.1649197E-1,3.2100388E-1,-2.2293761E-1,8.4684014E-2,1.9745338E-1,-1.3133715E-2,9.715294E-2,-2.0632344E-1,-1.7571513E-1,-1.9911323E-1,3.8301013E-2,-6.769614E-2,2.7705237E-2,-2.5009292E-1,-1.972738E-1,2.3056795E-1,-1.270367E-1,-1.5175644E-1,-1.8487044E-1,3.1671714E-2,1.5983708E-1,-6.418493E-2,-2.014127E-1,-2.0269766E-2,-1.0286408E-1,5.4261547E-2,-9.098128E-2],"categories":[],"categories_nodes":[],"categories_segments":[],"categories_sizes":[],"default_left":[0,0,0,0,0,0,0,0,0,0,0,0,0,0,0,0,0,0,0,0,0,0,0,0,0,0,0,0,0,0,0,0,0,0,0,0,0,0,0,0,0,0,0,0,0,0,0,0,0,0,0,0,0,0,0,0,0,0,0,0,0,0,0,0,0,0,0,0,0,0,0,0,0,0,0,0,0,0,0,0,0,0,0,0,0,0,0,0,0,0,0,0,0,0,0,0,0,0,0,0,0,0,0,0,0,0,0,0,0,0,0,0,0,0,0,0,0,0,0,0,0,0,0,0,0,0,0,0,0,0,0,0,0,0,0,0,0,0,0,0,0,0,0,0,0,0,0,0,0,0,0,0,0,0,0,0,0,0,0,0,0,0,0,0,0,0,0,0,0,0,0,0,0,0,0,0,0],"id":4,"left_children":[1,3,5,7,9,11,13,15,17,19,21,-1,23,25,-1,27,29,31,-1,33,-1,35,37,39,41,43,45,47,49,51,53,-1,-1,55,-1,57,59,61,63,-1,-1,-1,-1,-1,-1,65,-1,67,-1,69,71,73,-1,-1,75,-1,77,-1,79,81,83,85,87,89,91,-1,-1,93,95,-1,-1,-1,-1,97,99,101,-1,103,-1,105,-1,-1,-1,107,-1,109,111,113,115,117,-1,119,121,-1,123,125,127,-1,-1,-1,129,131,133,-1,-1,-1,-1,-1,-1,135,-1,137,139,141,-1,-1,-1,143,-1,145,147,149,151,-1,153,155,157,-1,159,-1,-1,-1,-1,-1,161,-1,-1,-1,163,-1,-1,165,-1,167,-1,169,171,-1,-1,173,-1,-1,175,-1,-1,-1,-1,-1,-1,-1,-1,-1,-1,-1,-1,-1,-1,-1,-1,-1,-1,-1,-1,-1,-1,-1,-1],"loss_changes":[2.3808188E2,1.1803133E2,7.309033E1,1.0879778E3,1.5499338E3,1.7600708E1,9.480881E1,2.662986E2,2.122168E1,2.3788906E3,5.7567896E2,0E0,7.5541077E0,3.218883E0,0E0,4.0417422E2,8.42216E2,7.30896E-1,0E0,2.708248E2,0E0,3.6910095E2,2.3896964E2,1.6305542E-1,5.391159E-1,1.408577E-3,1.2222273E0,3.0844385E2,3.5195135E2,4.228993E2,2.299085E2,0E0,0E0,4.8714874E1,0E0,6.660911E2,3.779842E2,4.8170462E2,5.243703E2,0E0,0E0,0E0,0E0,0E0,0E0,3.677042E-2,0E0,1.06348145E2,0E0,9.765283E1,1.3890608E2,4.361487E2,0E0,0E0,7.736848E1,0E0,1.2696533E1,0E0,9.781917E1,2.2583252E1,1.0471576E2,3.146224E2,9.6040344E1,3.4138428E1,2.2709274E2,0E0,0E0,1.8179132E2,1.00645065E2,0E0,0E0,0E0,0E0,5.779824E2,5.6311017E2,5.006648E1,0E0,9.788727E0,0E0,2.4859654E2,0E0,0E0,0E0,2.8232708E1,0E0,2.8901312E2,1.1528088E2,3.2639432E2,9.83017E0,4.9805145E1,0E0,5.272253E2,7.176707E1,0E0,6.2528687E0,2.5816504E2,4.8948145E2,0E0,0E0,0E0,1.3551572E2,1.2712845E1,1.0640549E2,0E0,0E0,0E0,0E0,0E0,0E0,1.11349535E1,0E0,5.406369E1,1.8193198E2,4.0343463E2,0E0,0E0,0E0,2.434494E1,0E0,2.3455334E2,2.2530774E2,4.2304916E1,3.68963E2,0E0,1.7794373E1,1.3480377E2,1.3896179E0,0E0,1.04817986E2,0E0,0E0,0E0,0E0,0E0,1.2886385E1,0E0,0E0,0E0,3.3792114E0,0E0,0E0,2.4125745E2,0E0,1.2610779E0,0E0,9.310228E1,3.9933083E1,0E0,0E0,1.292355E1,0E0,0E0,4.9589745E1,0E0,0E0,0E0,0E0,0E0,0E0,0E0,0E0,0E0,0E0,0E0,0E0,0E0,0E0,0E0,0E0,0E0,0E0,0E0,0E0,0E0,0E0,0E0,0E0],"parents":[2147483647,0,0,1,1,2,2,3,3,4,4,5,5,6,6,7,7,8,8,9,9,10,10,12,12,13,13,15,15,16,16,17,17,19,19,21,21,22,22,23,23,24,24,25,25,26,26,27,27,28,28,29,29,30,30,33,33,35,35,36,36,37,37,38,38,45,45,47,47,49,49,50,50,51,51,54,54,56,56,58,58,59,59,60,60,61,61,62,62,63,63,64,64,67,67,68,68,73,73,74,74,75,75,77,77,79,79,83,83,85,85,86,86,87,87,88,88,89,89,91,91,92,92,94,94,95,95,96,96,100,100,101,101,102,102,109,109,111,111,112,112,113,113,117,117,119,119,120,120,121,121,122,122,124,124,125,125,126,126,128,128,134,134,138,138,141,141,143,143,145,145,146,146,149,149,152,152],"right_children":[2,4,6,8,10,12,14,16,18,20,22,-1,24,26,-1,28,30,32,-1,34,-1,36,38,40,42,44,46,48,50,52,54,-1,-1,56,-1,58,60,62,64,-1,-1,-1,-1,-1,-1,66,-1,68,-1,70,72,74,-1,-1,76,-1,78,-1,80,82,84,86,88,90,92,-1,-1,94,96,-1,-1,-1,-1,98,100,102,-1,104,-1,106,-1,-1,-1,108,-1,110,112,114,116,118,-1,120,122,-1,124,126,128,-1,-1,-1,130,132,134,-1,-1,-1,-1,-1,-1,136,-1,138,140,142,-1,-1,-1,144,-1,146,148,150,152,-1,154,156,158,-1,160,-1,-1,-1,-1,-1,162,-1,-1,-1,164,-1,-1,166,-1,168,-1,170,172,-1,-1,174,-1,-1,176,-1,-1,-1,-1,-1,-1,-1,-1,-1,-1,-1,-1,-1,-1,-1,-1,-1,-1,-1,-1,-1,-1,-1,-1],"split_conditions":[3.2640371E0,2.3153126E0,3.392983E0,2.272262E0,2.3960888E0,3.2865205E0,3.6916604E0,2.0875301E0,2.3001966E0,2.3817294E0,2.5201986E0,6.727119E-2,3.338171E0,3.4730551E0,2.0786579E-1,2.0139117E0,2.17065E0,2.2857304E0,-2.9267308E-1,2.3687985E0,1.1441675E0,2.4520903E0,2.7513194E0,3.3115323E0,3.3656082E0,3.430336E0,3.5907204E0,2.0021691E0,2.0585198E0,2.15696E0,2.1846337E0,-4.2288965E-1,-3.8073754E-1,2.3284798E0,-1.3826685E-1,2.4106052E0,2.4815757E0,2.6515133E0,2.824891E0,1.9164447E-1,1.7231144E-1,1.1821615E-1,1.407882E-1,2.7525378E-2,2.4988519E-2,3.5267684E0,-2.1378338E-2,6.0513854E-2,3.261512E-1,2.029496E0,2.072865E0,2.1144936E0,5.952845E-1,-3.2236946E-1,2.2564566E0,9.378913E-2,2.3551786E0,-4.3316615E-1,2.4386094E0,2.466247E0,2.506873E0,2.5642803E0,2.7219272E0,2.8120131E0,3.0565805E0,1.4407254E-3,6.5376405E-3,-5.3798497E-2,1.9464216E0,-4.5531622E-1,-2.2860259E-1,1.6865987E-1,-1.435865E-1,2.1005504E0,2.1292188E0,2.2124143E0,-1.6947272E-1,2.3419487E0,3.0094868E-1,2.4254167E0,-2.5659988E-2,-5.232735E-1,-3.9081207E-1,2.4950871E0,-2.7941E-1,2.5490437E0,2.6232033E0,2.708162E0,2.73701E0,2.7963948E0,-2.9224214E-1,3.0234005E0,3.123401E0,-1.3076214E-1,-5.5779926E-3,1.9037753E0,1.9593499E0,7.1848646E-2,7.116724E-1,-3.2935613E-1,2.1431596E0,2.1989565E0,2.2278526E0,2.5901517E-1,1.7361706E-1,-7.6352214E-3,4.1206568E-1,-1.1470555E-1,2.666053E-2,2.5336595E0,4.0013513E-1,2.5936933E0,2.6383162E0,2.693546E0,-1.5930487E-1,2.5719127E-1,3.4457022E-1,2.781978E0,-5.475266E-2,2.958016E0,3.0402753E0,3.1059384E0,3.14074E0,1.9991615E-1,3.2761835E-2,1.8524575E0,1.9171932E0,4.3989512E-1,1.9737602E0,3.658606E-1,5.5086058E-2,-1.34309735E-2,-1.0822449E-1,2.1787259E-1,2.2418594E0,5.3184144E-2,-3.5389133E-2,-8.554934E-2,2.6094217E0,1.960764E-1,-1.6091599E-1,2.6788535E0,5.449808E-1,2.7668812E0,-2.8433856E-1,2.9109035E0,3.0057712E0,5.435897E-1,1.4551382E-1,3.0718846E0,-2.1649197E-1,3.2100388E-1,3.158416E0,8.4684014E-2,1.9745338E-1,-1.3133715E-2,9.715294E-2,-2.0632344E-1,-1.7571513E-1,-1.9911323E-1,3.8301013E-2,-6.769614E-2,2.7705237E-2,-2.5009292E-1,-1.972738E-1,2.3056795E-1,-1.270367E-1,-1.5175644E-1,-1.8487044E-1,3.1671714E-2,1.5983708E-1,-6.418493E-2,-2.014127E-1,-2.0269766E-2,-1.0286408E-1,5.4261547E-2,-9.098128E-2],"split_indices":[0,0,0,0,0,0,0,0,0,0,0,0,0,0,0,0,0,0,0,0,0,0,0,0,0,0,0,0,0,0,0,0,0,0,0,0,0,0,0,0,0,0,0,0,0,0,0,0,0,0,0,0,0,0,0,0,0,0,0,0,0,0,0,0,0,0,0,0,0,0,0,0,0,0,0,0,0,0,0,0,0,0,0,0,0,0,0,0,0,0,0,0,0,0,0,0,0,0,0,0,0,0,0,0,0,0,0,0,0,0,0,0,0,0,0,0,0,0,0,0,0,0,0,0,0,0,0,0,0,0,0,0,0,0,0,0,0,0,0,0,0,0,0,0,0,0,0,0,0,0,0,0,0,0,0,0,0,0,0,0,0,0,0,0,0,0,0,0,0,0,0,0,0,0,0,0,0],"split_type":[0,0,0,0,0,0,0,0,0,0,0,0,0,0,0,0,0,0,0,0,0,0,0,0,0,0,0,0,0,0,0,0,0,0,0,0,0,0,0,0,0,0,0,0,0,0,0,0,0,0,0,0,0,0,0,0,0,0,0,0,0,0,0,0,0,0,0,0,0,0,0,0,0,0,0,0,0,0,0,0,0,0,0,0,0,0,0,0,0,0,0,0,0,0,0,0,0,0,0,0,0,0,0,0,0,0,0,0,0,0,0,0,0,0,0,0,0,0,0,0,0,0,0,0,0,0,0,0,0,0,0,0,0,0,0,0,0,0,0,0,0,0,0,0,0,0,0,0,0,0,0,0,0,0,0,0,0,0,0,0,0,0,0,0,0,0,0,0,0,0,0,0,0,0,0,0,0],"sum_hessian":[6.5157E4,6.2357E4,2.8E3,4.6568E4,1.5789E4,1.273E3,1.527E3,4.5805E4,7.63E2,1.526E3,1.4263E4,2.52E2,1.021E3,1.272E3,2.55E2,4.2491E4,3.314E3,5.1E2,2.53E2,1.273E3,2.53E2,2.293E3,1.197E4,5.1E2,5.11E2,5.06E2,7.66E2,4.1215E4,1.276E3,1.526E3,1.788E3,2.53E2,2.57E2,1.019E3,2.54E2,1.02E3,1.273E3,4.071E3,7.899E3,2.54E2,2.56E2,2.54E2,2.57E2,2.52E2,2.54E2,5.1E2,2.56E2,4.0967E4,2.48E2,7.65E2,5.11E2,1.275E3,2.51E2,2.62E2,1.526E3,2.56E2,7.63E2,2.56E2,7.64E2,5.09E2,7.64E2,2.29E3,1.781E3,1.274E3,6.625E3,2.56E2,2.54E2,1.017E3,3.995E4,2.62E2,5.03E2,2.59E2,2.52E2,5.08E2,7.67E2,1.272E3,2.54E2,5.07E2,2.56E2,5.07E2,2.57E2,2.53E2,2.56E2,5.07E2,2.57E2,7.63E2,1.527E3,1.272E3,5.09E2,1.025E3,2.49E2,3.822E3,2.803E3,2.57E2,7.6E2,3.8933E4,1.017E3,2.6E2,2.48E2,2.62E2,5.05E2,5.09E2,7.63E2,2.55E2,2.52E2,2.55E2,2.52E2,2.55E2,2.52E2,5.09E2,2.54E2,1.015E3,5.12E2,1.02E3,2.52E2,2.61E2,2.48E2,7.63E2,2.62E2,3.309E3,5.13E2,1.02E3,1.783E3,2.52E2,5.08E2,3.8169E4,7.64E2,2.56E2,7.61E2,2.54E2,2.51E2,2.53E2,2.56E2,2.55E2,5.08E2,2.54E2,2.55E2,5.09E2,5.06E2,2.59E2,2.53E2,7.62E2,2.58E2,5.16E2,2.47E2,2.297E3,1.012E3,2.6E2,2.53E2,7.66E2,2.54E2,2.57E2,1.526E3,2.56E2,2.52E2,3.7145E4,1.024E3,2.55E2,5.09E2,2.47E2,5.14E2,2.5E2,2.58E2,2.54E2,2.52E2,5.08E2,2.54E2,2.54E2,2.62E2,1.533E3,7.64E2,7.57E2,2.55E2,2.57E2,5.09E2,2.53E2,1.273E3],"tree_param":{"num_deleted":"0","num_feature":"1","num_nodes":"177","size_leaf_vector":"1"}},{"base_weights":[9.0250054E-5,-8.891181E-3,2.000417E-1,-2.6642228E-2,4.3462045E-2,3.2406098E-1,9.6507266E-2,-1.2799883E-2,-8.5653204E-1,7.1486294E-1,-2.8416293E-2,4.716983E-2,3.6504284E-1,1.813855E-2,1.457493E-1,-2.7729677E-2,1.7857558E-1,-9.405875E-1,-2.0521684E-1,3.236589E-1,8.022688E-1,-3.5017914E-1,3.3245422E-2,4.2606995E-1,3.0342194E-1,6.147935E-2,-1.0534101E-2,-1.56963E-2,-4.16093E-1,5.610333E-1,-1.4797084E-1,-2.965222E-1,-2.6695907E-1,4.850474E-1,-9.6949264E-2,-3.580971E-2,-6.01844E-1,1.7119275E-1,-3.7862778E-2,1.3437656E-1,1.2081909E-1,8.2890525E-2,9.871523E-2,1.9300517E-2,1.7521484E-2,9.318585E-3,-1.4990023E-2,-2.0424692E-2,2.2869888E-1,-7.1662205E-1,3.433939E-2,3.9661095E-1,4.1740754E-1,-2.2602661E-1,-4.3595187E-2,6.576158E-2,5.738385E-1,-3.0372182E-1,2.923224E-1,-1.0694077E0,-2.8934816E-1,-4.1456748E-2,4.4448614E-1,-4.4966584E-1,4.1383643E-2,1.0103742E-3,4.5838156E-3,1.8470773E-2,-7.9505615E-2,-3.1924063E-1,-5.3385895E-1,1.1825668E-1,-1.0068066E-1,8.9984536E-1,6.257066E-2,2.7050804E-2,-1.1883003E-1,5.07171E-1,2.1101525E-1,4.7066876E-1,-1.7991966E-2,-3.6690953E-1,-2.7402472E-1,-1.0406879E-1,-1.959121E-1,3.2592094E-1,-2.2511846E-1,3.409643E-1,7.0201325E-1,-3.9235586E-1,-2.049202E-1,4.1354162E-1,-2.6717624E-2,-4.2667743E-2,3.0568781E-1,-4.972487E-1,-5.5067763E-2,-1.6867398E-1,-1.511803E-1,5.0376844E-2,4.9902827E-1,-2.3092526E-1,4.950568E-1,-1.4309837E-1,1.4059666E-1,1.8161386E-1,1.2173798E-1,-5.3536557E-3,2.8893462E-1,-8.0428205E-2,1.869381E-2,2.0633493E-2,2.8056532E-1,-3.618107E-1,4.604031E-2,5.173845E-1,-1.1170205E-1,1.8032856E-1,2.4161427E-1,-4.8285657E-1,-3.8389407E-2,-1.8278467E-2,5.74879E-1,-2.7688542E-1,1.4968766E-2,-1.5362025E-2,-5.6065816E-1,7.343673E-1,1.7360476E-1,1.5354949E-1,-6.434473E-2,2.5653306E-1,3.8625784E-2,-9.417408E-3,-7.588338E-2,1.5276614E-1,-4.5077767E-2,3.729136E-2,-2.4813952E-2,-5.993514E-2,-5.240828E-1,1.3747999E-1,-1.1283147E-1,2.5996676E-1,3.8211775E-1,-3.9474028E-1,-1.9938107E-1,1.0680125E-1,2.0394267E-1,1.5236244E-1,-1.1003346E-1,2.1694316E-2,-2.175878E-2,-9.533037E-2,-1.9210887E-1,2.3605806E-1,1.7207916E-1,3.9412133E-2,2.0022427E-1,-3.8622206E-1,-1.3147807E-2,-4.7468364E-2,1.9425424E-2,-1.7535912E-1,-1.3832575E-1,1.6153345E-1,-8.907504E-2,-1.064081E-1,-1.2962037E-1,-4.312999E-3,2.43955E-1,-7.7501535E-2,-7.5286306E-3],"categories":[],"categories_nodes":[],"categories_segments":[],"categories_sizes":[],"default_left":[0,0,0,0,0,0,0,0,0,0,0,0,0,0,0,0,0,0,0,0,0,0,0,0,0,0,0,0,0,0,0,0,0,0,0,0,0,0,0,0,0,0,0,0,0,0,0,0,0,0,0,0,0,0,0,0,0,0,0,0,0,0,0,0,0,0,0,0,0,0,0,0,0,0,0,0,0,0,0,0,0,0,0,0,0,0,0,0,0,0,0,0,0,0,0,0,0,0,0,0,0,0,0,0,0,0,0,0,0,0,0,0,0,0,0,0,0,0,0,0,0,0,0,0,0,0,0,0,0,0,0,0,0,0,0,0,0,0,0,0,0,0,0,0,0,0,0,0,0,0,0,0,0,0,0,0,0,0,0,0,0,0,0,0,0,0,0,0,0,0,0,0,0],"id":5,"left_children":[1,3,5,7,9,11,13,15,17,19,21,-1,23,25,-1,27,29,31,-1,33,-1,35,37,39,41,43,45,47,49,51,53,-1,-1,55,-1,57,59,61,63,-1,-1,-1,-1,-1,-1,65,-1,67,-1,69,71,73,-1,-1,75,-1,77,-1,79,81,83,85,87,89,91,-1,-1,93,95,-1,97,-1,-1,99,101,103,-1,105,-1,107,-1,-1,-1,109,-1,111,113,115,117,119,-1,121,123,125,127,-1,129,-1,-1,-1,-1,-1,131,133,135,-1,-1,-1,-1,-1,-1,137,-1,139,141,143,-1,-1,-1,145,-1,-1,147,-1,149,151,153,155,157,-1,159,-1,-1,-1,-1,-1,161,-1,-1,-1,163,-1,-1,165,-1,167,-1,-1,-1,169,171,-1,-1,-1,-1,-1,-1,-1,-1,-1,-1,-1,-1,-1,-1,-1,-1,-1,-1,-1,-1,-1,-1],"loss_changes":[1.17015785E2,5.795198E1,3.5934303E1,5.3495605E2,7.620327E2,8.652847E0,4.6611687E1,1.3088168E2,1.0432678E1,1.1695981E3,2.830158E2,0E0,3.7140045E0,1.5825992E0,0E0,1.9857227E2,4.1409406E2,3.5995483E-1,0E0,1.3314937E2,0E0,1.8146997E2,1.1743225E2,8.023071E-2,2.649498E-1,6.939173E-4,6.0090685E-1,1.5164145E2,1.7288962E2,2.0792035E2,1.13021866E2,0E0,0E0,2.3950699E1,0E0,3.2747806E2,1.8583685E2,2.3666556E2,2.5782657E2,0E0,0E0,0E0,0E0,0E0,0E0,1.8074099E-2,0E0,9.414512E1,0E0,4.808255E1,6.829141E1,2.1443999E2,0E0,0E0,3.803768E1,0E0,6.2415466E0,0E0,4.8093674E1,1.1104614E1,5.1481285E1,1.5465453E2,4.726822E1,1.6786682E1,1.6794322E2,0E0,0E0,4.3383344E2,6.2709216E2,0E0,1.4480591E-1,0E0,0E0,2.8419208E2,2.7683612E2,2.4614138E1,0E0,4.8120575E0,0E0,1.2222533E2,0E0,0E0,0E0,1.388041E1,0E0,1.4209286E2,5.665245E1,1.6038866E2,4.8360443E0,2.44879E1,0E0,7.849849E1,2.0930873E2,2.8810672E2,2.4538248E2,0E0,8.426804E1,0E0,0E0,0E0,0E0,0E0,6.6625755E1,6.250064E0,5.2314175E1,0E0,0E0,0E0,0E0,0E0,0E0,5.47445E0,0E0,2.6608414E1,8.944429E1,1.9845319E2,0E0,0E0,0E0,1.1973022E1,0E0,0E0,1.7327362E1,0E0,9.1969124E1,9.699668E1,1.9543152E1,8.165222E0,6.906437E1,0E0,3.9545105E2,0E0,0E0,0E0,0E0,0E0,6.335682E0,0E0,0E0,0E0,1.6611328E0,0E0,0E0,1.18485794E2,0E0,6.195755E-1,0E0,0E0,0E0,2.810928E2,3.531476E1,0E0,0E0,0E0,0E0,0E0,0E0,0E0,0E0,0E0,0E0,0E0,0E0,0E0,0E0,0E0,0E0,0E0,0E0,0E0,0E0,0E0,0E0],"parents":[2147483647,0,0,1,1,2,2,3,3,4,4,5,5,6,6,7,7,8,8,9,9,10,10,12,12,13,13,15,15,16,16,17,17,19,19,21,21,22,22,23,23,24,24,25,25,26,26,27,27,28,28,29,29,30,30,33,33,35,35,36,36,37,37,38,38,45,45,47,47,49,49,50,50,51,51,54,54,56,56,58,58,59,59,60,60,61,61,62,62,63,63,64,64,67,67,68,68,70,70,73,73,74,74,75,75,77,77,79,79,83,83,85,85,86,86,87,87,88,88,89,89,91,91,92,92,93,93,94,94,96,96,102,102,103,103,104,104,111,111,113,113,114,114,115,115,119,119,122,122,124,124,125,125,126,126,127,127,128,128,130,130,136,136,140,140,143,143,145,145,149,149,150,150],"right_children":[2,4,6,8,10,12,14,16,18,20,22,-1,24,26,-1,28,30,32,-1,34,-1,36,38,40,42,44,46,48,50,52,54,-1,-1,56,-1,58,60,62,64,-1,-1,-1,-1,-1,-1,66,-1,68,-1,70,72,74,-1,-1,76,-1,78,-1,80,82,84,86,88,90,92,-1,-1,94,96,-1,98,-1,-1,100,102,104,-1,106,-1,108,-1,-1,-1,110,-1,112,114,116,118,120,-1,122,124,126,128,-1,130,-1,-1,-1,-1,-1,132,134,136,-1,-1,-1,-1,-1,-1,138,-1,140,142,144,-1,-1,-1,146,-1,-1,148,-1,150,152,154,156,158,-1,160,-1,-1,-1,-1,-1,162,-1,-1,-1,164,-1,-1,166,-1,168,-1,-1,-1,170,172,-1,-1,-1,-1,-1,-1,-1,-1,-1,-1,-1,-1,-1,-1,-1,-1,-1,-1,-1,-1,-1,-1],"split_conditions":[3.2640371E0,2.3153126E0,3.392983E0,2.272262E0,2.3960888E0,3.2865205E0,3.6916604E0,2.0875301E0,2.3001966E0,2.3817294E0,2.5201986E0,4.716983E-2,3.338171E0,3.4730551E0,1.457493E-1,2.0139117E0,2.17065E0,2.2857304E0,-2.0521684E-1,2.3687985E0,8.022688E-1,2.4520903E0,2.7513194E0,3.3115323E0,3.3656082E0,3.430336E0,3.5907204E0,2.0021691E0,2.0585198E0,2.15696E0,2.1846337E0,-2.965222E-1,-2.6695907E-1,2.3284798E0,-9.6949264E-2,2.4106052E0,2.4815757E0,2.6515133E0,2.824891E0,1.3437656E-1,1.2081909E-1,8.2890525E-2,9.871523E-2,1.9300517E-2,1.7521484E-2,3.5267684E0,-1.4990023E-2,1.1991476E0,2.2869888E-1,2.029496E0,2.072865E0,2.1144936E0,4.1740754E-1,-2.2602661E-1,2.2564566E0,6.576158E-2,2.3551786E0,-3.0372182E-1,2.4386094E0,2.466247E0,2.506873E0,2.5642803E0,2.7219272E0,2.8120131E0,2.8817687E0,1.0103742E-3,4.5838156E-3,9.9453974E-1,1.2103606E0,-3.1924063E-1,2.0425746E0,1.1825668E-1,-1.0068066E-1,2.1005504E0,2.1292188E0,2.2124143E0,-1.1883003E-1,2.3419487E0,2.1101525E-1,2.4254167E0,-1.7991966E-2,-3.6690953E-1,-2.7402472E-1,2.4950871E0,-1.959121E-1,2.5490437E0,2.6232033E0,2.708162E0,2.73701E0,2.7963948E0,-2.049202E-1,2.838178E0,2.8972712E0,9.447441E-1,1.044683E0,-4.972487E-1,1.2219892E0,-1.6867398E-1,-1.511803E-1,5.0376844E-2,4.9902827E-1,-2.3092526E-1,2.1431596E0,2.1989565E0,2.2278526E0,1.8161386E-1,1.2173798E-1,-5.3536557E-3,2.8893462E-1,-8.0428205E-2,1.869381E-2,2.5336595E0,2.8056532E-1,2.5936933E0,2.6383162E0,2.693546E0,-1.1170205E-1,1.8032856E-1,2.4161427E-1,2.781978E0,-3.8389407E-2,-1.8278467E-2,2.8510578E0,-2.7688542E-1,3.0565805E0,4.2239243E-1,9.575075E-1,1.0319544E0,1.1863949E0,1.5354949E-1,1.2341549E0,2.5653306E-1,3.8625784E-2,-9.417408E-3,-7.588338E-2,1.5276614E-1,2.2418594E0,3.729136E-2,-2.4813952E-2,-5.993514E-2,2.6094217E0,1.3747999E-1,-1.1283147E-1,2.6788535E0,3.8211775E-1,2.7668812E0,-1.9938107E-1,1.0680125E-1,2.0394267E-1,3.0234005E0,3.123401E0,2.1694316E-2,-2.175878E-2,-9.533037E-2,-1.9210887E-1,2.3605806E-1,1.7207916E-1,3.9412133E-2,2.0022427E-1,-3.8622206E-1,-1.3147807E-2,-4.7468364E-2,1.9425424E-2,-1.7535912E-1,-1.3832575E-1,1.6153345E-1,-8.907504E-2,-1.064081E-1,-1.2962037E-1,-4.312999E-3,2.43955E-1,-7.7501535E-2,-7.5286306E-3],"split_indices":[0,0,0,0,0,0,0,0,0,0,0,0,0,0,0,0,0,0,0,0,0,0,0,0,0,0,0,0,0,0,0,0,0,0,0,0,0,0,0,0,0,0,0,0,0,0,0,0,0,0,0,0,0,0,0,0,0,0,0,0,0,0,0,0,0,0,0,0,0,0,0,0,0,0,0,0,0,0,0,0,0,0,0,0,0,0,0,0,0,0,0,0,0,0,0,0,0,0,0,0,0,0,0,0,0,0,0,0,0,0,0,0,0,0,0,0,0,0,0,0,0,0,0,0,0,0,0,0,0,0,0,0,0,0,0,0,0,0,0,0,0,0,0,0,0,0,0,0,0,0,0,0,0,0,0,0,0,0,0,0,0,0,0,0,0,0,0,0,0,0,0,0,0],"split_type":[0,0,0,0,0,0,0,0,0,0,0,0,0,0,0,0,0,0,0,0,0,0,0,0,0,0,0,0,0,0,0,0,0,0,0,0,0,0,0,0,0,0,0,0,0,0,0,0,0,0,0,0,0,0,0,0,0,0,0,0,0,0,0,0,0,0,0,0,0,0,0,0,0,0,0,0,0,0,0,0,0,0,0,0,0,0,0,0,0,0,0,0,0,0,0,0,0,0,0,0,0,0,0,0,0,0,0,0,0,0,0,0,0,0,0,0,0,0,0,0,0,0,0,0,0,0,0,0,0,0,0,0,0,0,0,0,0,0,0,0,0,0,0,0,0,0,0,0,0,0,0,0,0,0,0,0,0,0,0,0,0,0,0,0,0,0,0,0,0,0,0,0,0],"sum_hessian":[6.5157E4,6.2357E4,2.8E3,4.6568E4,1.5789E4,1.273E3,1.527E3,4.5805E4,7.63E2,1.526E3,1.4263E4,2.52E2,1.021E3,1.272E3,2.55E2,4.2491E4,3.314E3,5.1E2,2.53E2,1.273E3,2.53E2,2.293E3,1.197E4,5.1E2,5.11E2,5.06E2,7.66E2,4.1215E4,1.276E3,1.526E3,1.788E3,2.53E2,2.57E2,1.019E3,2.54E2,1.02E3,1.273E3,4.071E3,7.899E3,2.54E2,2.56E2,2.54E2,2.57E2,2.52E2,2.54E2,5.1E2,2.56E2,4.0967E4,2.48E2,7.65E2,5.11E2,1.275E3,2.51E2,2.62E2,1.526E3,2.56E2,7.63E2,2.56E2,7.64E2,5.09E2,7.64E2,2.29E3,1.781E3,1.274E3,6.625E3,2.56E2,2.54E2,2.4704E4,1.6263E4,2.62E2,5.03E2,2.59E2,2.52E2,5.08E2,7.67E2,1.272E3,2.54E2,5.07E2,2.56E2,5.07E2,2.57E2,2.53E2,2.56E2,5.07E2,2.57E2,7.63E2,1.527E3,1.272E3,5.09E2,1.025E3,2.49E2,1.024E3,5.601E3,2.0369E4,4.335E3,2.47E2,1.6016E4,2.49E2,2.54E2,2.6E2,2.48E2,2.62E2,5.05E2,5.09E2,7.63E2,2.55E2,2.52E2,2.55E2,2.52E2,2.55E2,2.52E2,5.09E2,2.54E2,1.015E3,5.12E2,1.02E3,2.52E2,2.61E2,2.48E2,7.63E2,2.62E2,2.6E2,7.64E2,2.48E2,5.353E3,1.935E4,1.019E3,1.02E3,3.315E3,2.57E2,1.5759E4,2.54E2,2.51E2,2.53E2,2.56E2,2.55E2,5.08E2,2.54E2,2.55E2,5.09E2,5.06E2,2.59E2,2.53E2,7.62E2,2.58E2,5.16E2,2.47E2,2.49E2,5.15E2,2.55E3,2.803E3,7.637E3,1.1713E4,2.53E2,7.66E2,7.66E2,2.54E2,3.055E3,2.6E2,2.59E2,1.55E4,2.5E2,2.58E2,2.54E2,2.52E2,5.08E2,2.54E2,2.54E2,2.62E2,2.037E3,5.13E2,1.02E3,1.783E3],"tree_param":{"num_deleted":"0","num_feature":"1","num_nodes":"173","size_leaf_vector":"1"}},{"base_weights":[6.9071335E-5,-6.2281988E-3,1.4026368E-1,-2.0858245E-3,-2.0483942E-1,2.2722232E-1,6.76684E-2,-5.894028E-3,4.493506E-1,-3.4258583E-1,8.350946E-4,3.307461E-2,2.5595728E-1,1.2718632E-2,1.0219512E-1,-3.2132058E-3,-3.2099712E-1,2.2732596E-1,4.0296648E-2,-1.4602166E-1,-2.7054414E-1,8.149336E-2,-8.1949085E-2,2.9874837E-1,2.1274981E-1,4.3108452E-2,-7.3861354E-3,-7.878214E-3,2.6576594E-1,-6.383534E-2,-1.2863992E-1,-9.006016E-2,-7.173454E-2,9.422169E-2,8.471439E-2,5.812064E-2,6.9215536E-2,1.3533278E-2,1.22857895E-2,6.5339566E-3,-1.0510527E-2,-5.881116E-3,-1.3993637E-1,3.08231E-1,5.2138036E-3,7.0833473E-4,3.214171E-3,-1.8667143E-2,4.2849418E-2,6.332895E-2,-3.3517025E-2,-8.96101E-3,-6.005788E-1,5.0124556E-1,-2.2615252E-2,2.9133065E-2,8.94779E-3,-1.9429011E-2,1.2522158E-1,-6.595144E-1,-1.4389406E-1,2.2694017E-1,5.6253564E-1,-2.4553367E-1,3.82654E-2,-9.2099115E-5,-4.362062E-2,1.1801947E-1,-3.1125141E-2,-2.079158E-1,-1.8718201E-1,1.020305E-1,-6.797874E-2,-7.531216E-3,-1.2659883E-1,3.6002763E-2,-1.1590305E-2],"categories":[],"categories_nodes":[],"categories_segments":[],"categories_sizes":[],"default_left":[0,0,0,0,0,0,0,0,0,0,0,0,0,0,0,0,0,0,0,0,0,0,0,0,0,0,0,0,0,0,0,0,0,0,0,0,0,0,0,0,0,0,0,0,0,0,0,0,0,0,0,0,0,0,0,0,0,0,0,0,0,0,0,0,0,0,0,0,0,0,0,0,0,0,0,0,0],"id":6,"left_children":[1,3,5,7,9,11,13,15,17,19,21,-1,23,25,-1,27,29,-1,-1,-1,31,-1,-1,33,35,37,39,41,43,-1,-1,-1,-1,-1,-1,-1,-1,-1,-1,45,-1,47,-1,-1,49,-1,-1,51,53,55,-1,57,59,61,63,-1,-1,65,67,69,-1,71,-1,73,75,-1,-1,-1,-1,-1,-1,-1,-1,-1,-1,-1,-1],"loss_changes":[5.7525177E1,5.130287E1,1.766674E1,1.0501764E2,3.6093887E1,4.25399E0,2.2916119E1,5.1168808E1,4.954473E1,7.7920837E0,3.806534E1,0E0,1.8260117E0,7.7809626E-1,0E0,7.537104E1,5.8698845E0,0E0,0E0,0E0,4.0450668E-1,0E0,0E0,3.9470673E-2,1.3023186E-1,3.413558E-4,2.9542878E-1,5.4069218E1,2.032125E2,0E0,0E0,0E0,0E0,0E0,0E0,0E0,0E0,0E0,0E0,8.887691E-3,0E0,3.662921E1,0E0,0E0,5.199085E0,0E0,0E0,2.6302155E2,3.6668826E2,5.754397E-1,0E0,6.434262E1,5.128845E0,5.7504083E2,1.4512857E2,0E0,0E0,1.0235716E2,2.0359825E2,1.772461E-1,0E0,6.5462326E1,0E0,8.922037E1,5.2807682E1,0E0,0E0,0E0,0E0,0E0,0E0,0E0,0E0,0E0,0E0,0E0,0E0],"parents":[2147483647,0,0,1,1,2,2,3,3,4,4,5,5,6,6,7,7,8,8,9,9,10,10,12,12,13,13,15,15,16,16,20,20,23,23,24,24,25,25,26,26,27,27,28,28,39,39,41,41,44,44,47,47,48,48,49,49,51,51,52,52,53,53,54,54,57,57,58,58,59,59,61,61,63,63,64,64],"right_children":[2,4,6,8,10,12,14,16,18,20,22,-1,24,26,-1,28,30,-1,-1,-1,32,-1,-1,34,36,38,40,42,44,-1,-1,-1,-1,-1,-1,-1,-1,-1,-1,46,-1,48,-1,-1,50,-1,-1,52,54,56,-1,58,60,62,64,-1,-1,66,68,70,-1,72,-1,74,76,-1,-1,-1,-1,-1,-1,-1,-1,-1,-1,-1,-1],"split_conditions":[3.2640371E0,3.158416E0,3.392983E0,3.123401E0,3.2216983E0,3.2865205E0,3.6916604E0,3.088799E0,3.14074E0,3.1793194E0,3.2423496E0,3.307461E-2,3.338171E0,3.4730551E0,1.0219512E-1,3.0234005E0,3.1059384E0,2.2732596E-1,4.0296648E-2,-1.4602166E-1,3.2000308E0,8.149336E-2,-8.1949085E-2,3.3115323E0,3.3656082E0,3.430336E0,3.5907204E0,3.0057712E0,3.0402753E0,-6.383534E-2,-1.2863992E-1,-9.006016E-2,-7.173454E-2,9.422169E-2,8.471439E-2,5.812064E-2,6.9215536E-2,1.3533278E-2,1.22857895E-2,3.5267684E0,-1.0510527E-2,2.3153126E0,-1.3993637E-1,3.08231E-1,3.0718846E0,7.0833473E-4,3.214171E-3,2.272262E0,2.3960888E0,3.0565805E0,-3.3517025E-2,2.0875301E0,2.3001966E0,2.3817294E0,2.5201986E0,2.9133065E-2,8.94779E-3,1.7852107E0,2.17065E0,2.2857304E0,-1.4389406E-1,2.3687985E0,5.6253564E-1,2.4520903E0,2.7513194E0,-9.2099115E-5,-4.362062E-2,1.1801947E-1,-3.1125141E-2,-2.079158E-1,-1.8718201E-1,1.020305E-1,-6.797874E-2,-7.531216E-3,-1.2659883E-1,3.6002763E-2,-1.1590305E-2],"split_indices":[0,0,0,0,0,0,0,0,0,0,0,0,0,0,0,0,0,0,0,0,0,0,0,0,0,0,0,0,0,0,0,0,0,0,0,0,0,0,0,0,0,0,0,0,0,0,0,0,0,0,0,0,0,0,0,0,0,0,0,0,0,0,0,0,0,0,0,0,0,0,0,0,0,0,0,0,0],"split_type":[0,0,0,0,0,0,0,0,0,0,0,0,0,0,0,0,0,0,0,0,0,0,0,0,0,0,0,0,0,0,0,0,0,0,0,0,0,0,0,0,0,0,0,0,0,0,0,0,0,0,0,0,0,0,0,0,0,0,0,0,0,0,0,0,0,0,0,0,0,0,0,0,0,0,0,0,0],"sum_hessian":[6.5157E4,6.2357E4,2.8E3,6.1084E4,1.273E3,1.273E3,1.527E3,6.0574E4,5.1E2,7.62E2,5.11E2,2.52E2,1.021E3,1.272E3,2.55E2,6.0064E4,5.1E2,2.57E2,2.53E2,2.52E2,5.1E2,2.57E2,2.54E2,5.1E2,5.11E2,5.06E2,7.66E2,5.9041E4,1.023E3,2.56E2,2.54E2,2.58E2,2.52E2,2.54E2,2.56E2,2.54E2,2.57E2,2.52E2,2.54E2,5.1E2,2.56E2,5.8786E4,2.55E2,2.6E2,7.63E2,2.56E2,2.54E2,4.6568E4,1.2218E4,5.1E2,2.53E2,4.5805E4,7.63E2,1.526E3,1.0692E4,2.53E2,2.57E2,4.2491E4,3.314E3,5.1E2,2.53E2,1.273E3,2.53E2,2.293E3,8.399E3,3.6892E4,5.599E3,1.526E3,1.788E3,2.53E2,2.57E2,1.019E3,2.54E2,1.02E3,1.273E3,4.071E3,4.328E3],"tree_param":{"num_deleted":"0","num_feature":"1","num_nodes":"77","size_leaf_vector":"1"}},{"base_weights":[5.416417E-5,-2.5073035E-2,2.8114215E-2,-3.6815833E-3,-2.0822924E-1,3.3914304E-1,4.0606057E-4,-1.8137507E-2,4.1813737E-1,-3.9664713E-1,-1.5476313E-1,5.119282E-1,2.2704594E-1,-9.3298316E-1,2.6439121E-2,2.7958348E-3,-3.5261878E-1,3.12589E-1,2.3690571E-1,-2.9939303E-1,-1.8102781E-1,3.5402644E-2,-3.1334075E-1,4.315586E-1,2.225668E-1,-2.1772952E-1,4.1563964E-1,-3.675928E-1,-7.858561E-1,3.3763742E-1,1.1358698E-2,-2.9789789E-2,8.9653514E-2,-6.450894E-1,2.6829502E-2,1.4365706E-1,2.3242259E-1,-6.5947E-2,-1.1033351E-1,-1.02785006E-1,1.534419E-1,-3.8065276E-1,-1.22744076E-1,2.1354534E-1,2.8239337E-1,2.3847452E-1,5.4470944E-1,-1.3574323E-1,-3.5630894E-1,1.2817682E-1,4.7510806E-1,-3.5501298E-1,2.6226474E-2,-1.0661651E-2,-3.9265135E-1,3.243061E-1,-4.6336465E-2,-7.2677773E-1,-1.22035384E-1,7.407408E-2,-2.6218312E-2,7.529801E-2,6.457261E-2,1.2641007E-1,-2.5681296E-1,5.699647E-3,-3.166851E-1,1.2083178E-1,5.236434E-2,1.3142619E-1,4.0979837E-3,1.72378E-1,5.276454E-1,6.247483E-2,1.42792845E-2,4.148073E-1,1.7815612E-1,-3.298049E-1,-1.2831616E-1,3.2540423E-1,1.5323581E-2,-3.678569E-2,1.617858E-1,-4.6449053E-1,-5.225213E-2,2.0883569E-1,4.360009E-1,-1.4743869E-1,2.2900829E-1,-5.443109E-1,-3.4083918E-1,8.877742E-3,3.6934115E-2,-1.3432048E-1,-1.6450734E-1,-1.8882516E-1,9.916899E-2,-8.43619E-2,-1.0523485E-1,1.4844072E-1,1.6870795E-1,1.7555758E-1,7.183067E-2,-3.55635E-1,-8.267877E-2,-1.226581E-1,1.9581111E-2,-1.368194E-2,-5.21886E-1,7.77239E-1,-1.0251472E-1,-6.681622E-2,-5.830607E-1,5.14549E-1,4.021171E-3,-3.8592238E-2,-5.6206757E-1,1.2321672E-1,1.7826754E-1,-1.8518065E-1,-1.4542672E-1,-1.0414115E-1,3.2540448E-2,-9.249337E-2,-1.5451889E-2,-8.550831E-2,-1.2770416E-1,1.9999959E-1,1.2671373E-2,-3.2818038E-2,5.7039076E-1,-3.5453793E-1,-1.87008E-1,3.702042E-1,5.450811E-1,-3.0030796E-1,4.9563013E-2,-1.8545865E-1,-1.6365615E-1,5.512022E-1,1.20685264E-1,9.788352E-2,-9.108478E-2,-1.7890042E-1,5.9314543E-1,-2.6944384E-1,-3.8943306E-1,1.4489413E-2,2.2209652E-1,-2.4160755E-1,2.6581677E-2,1.4908457E-2,-3.5440624E-2,3.1801572E-1,2.2388365E-2,3.2042537E-2,-1.4507079E-1,1.8234783E-1,1.4435752E-1,-1.6255306E-2,1.7141536E-1,1.5498507E-1,1.8619746E-1,-5.941185E-2,7.335094E-2,-7.33963E-2,-4.643622E-3,3.819308E-3,-1.68955E-1,3.47067E-1,1.6532693E-2,-6.767937E-2,-1.7258196E-1,1.3427839E-1,3.3071544E-2,2.693634E-2,-1.3767166E-1,6.701234E-2,2.2828574E-3],"categories":[],"categories_nodes":[],"categories_segments":[],"categories_sizes":[],"default_left":[0,0,0,0,0,0,0,0,0,0,0,0,0,0,0,0,0,0,0,0,0,0,0,0,0,0,0,0,0,0,0,0,0,0,0,0,0,0,0,0,0,0,0,0,0,0,0,0,0,0,0,0,0,0,0,0,0,0,0,0,0,0,0,0,0,0,0,0,0,0,0,0,0,0,0,0,0,0,0,0,0,0,0,0,0,0,0,0,0,0,0,0,0,0,0,0,0,0,0,0,0,0,0,0,0,0,0,0,0,0,0,0,0,0,0,0,0,0,0,0,0,0,0,0,0,0,0,0,0,0,0,0,0,0,0,0,0,0,0,0,0,0,0,0,0,0,0,0,0,0,0,0,0,0,0,0,0,0,0,0,0,0,0,0,0,0,0,0,0,0,0,0,0,0,0,0,0,0,0],"id":7,"left_children":[1,3,5,7,9,11,13,15,17,19,21,23,25,27,29,31,33,35,-1,37,-1,39,41,43,-1,-1,45,-1,47,49,51,53,55,57,59,-1,61,-1,-1,63,-1,-1,65,-1,67,69,71,-1,-1,73,75,77,79,81,83,85,87,89,-1,91,-1,-1,-1,-1,93,95,97,-1,-1,-1,-1,-1,99,-1,-1,101,-1,103,-1,-1,105,107,109,111,-1,113,-1,115,117,119,-1,-1,-1,121,-1,123,-1,-1,-1,-1,-1,-1,-1,125,-1,-1,127,129,131,133,135,-1,137,139,141,143,145,-1,147,-1,-1,-1,-1,-1,-1,-1,-1,-1,149,151,153,-1,155,-1,157,-1,159,-1,-1,161,-1,163,165,167,169,-1,171,-1,173,175,177,-1,-1,-1,-1,-1,-1,-1,-1,-1,-1,-1,-1,-1,-1,-1,-1,-1,-1,-1,-1,-1,-1,-1,-1,-1,-1,-1,-1],"loss_changes":[4.594169E1,1.3468361E2,2.6528882E2,1.8770952E2,3.6154526E1,4.8654205E1,6.868596E2,2.0839587E2,3.97538E1,1.5786751E1,8.450832E1,1.7976868E1,2.7505402E2,3.2025085E1,1.2905373E2,7.9282524E1,1.9456084E2,1.0498665E1,0E0,2.868393E0,0E0,8.393106E1,2.7811667E2,3.0567398E1,0E0,0E0,2.9070831E1,0E0,6.8186615E1,3.6537125E1,1.4288757E2,1.4138126E2,2.438743E2,1.897641E1,4.1293683E0,0E0,1.1795044E-1,0E0,0E0,7.995418E1,0E0,0E0,3.1762703E1,0E0,6.187195E0,2.4226976E1,7.3150635E-2,0E0,0E0,3.2484417E0,5.245743E0,1.733902E0,2.9088907E2,8.718265E1,1.5928268E1,3.6525272E2,1.3474168E2,5.4355896E1,0E0,1.1764734E0,0E0,0E0,0E0,0E0,2.724606E1,4.8595444E1,5.159073E-1,0E0,0E0,0E0,0E0,0E0,2.71286E-1,0E0,0E0,1.5158775E1,0E0,9.717636E-1,0E0,0E0,4.5070717E1,1.8834837E2,4.1422375E2,2.1857483E1,0E0,1.593519E2,0E0,1.5974162E2,1.19131775E1,1.9210663E0,0E0,0E0,0E0,2.793917E1,0E0,7.8762226E0,0E0,0E0,0E0,0E0,0E0,0E0,0E0,2.4207687E0,0E0,0E0,1.104521E2,1.7932932E2,1.686141E2,8.045099E1,2.4354855E2,0E0,3.4069824E-1,3.9795227E0,1.362239E1,2.4873561E2,4.2352005E1,0E0,5.7882423E0,0E0,0E0,0E0,0E0,0E0,0E0,0E0,0E0,0E0,8.647076E1,1.093689E2,1.23483734E2,0E0,4.4316017E1,0E0,1.7479553E0,0E0,8.2590805E1,0E0,0E0,1.5218201E0,0E0,3.3370495E1,8.797189E0,1.690862E2,1.5462692E2,0E0,1.4728432E1,0E0,1.9145947E1,9.135184E1,8.653528E1,0E0,0E0,0E0,0E0,0E0,0E0,0E0,0E0,0E0,0E0,0E0,0E0,0E0,0E0,0E0,0E0,0E0,0E0,0E0,0E0,0E0,0E0,0E0,0E0,0E0,0E0,0E0,0E0],"parents":[2147483647,0,0,1,1,2,2,3,3,4,4,5,5,6,6,7,7,8,8,9,9,10,10,11,11,12,12,13,13,14,14,15,15,16,16,17,17,19,19,21,21,22,22,23,23,26,26,28,28,29,29,30,30,31,31,32,32,33,33,34,34,36,36,39,39,42,42,44,44,45,45,46,46,49,49,50,50,51,51,52,52,53,53,54,54,55,55,56,56,57,57,59,59,64,64,65,65,66,66,72,72,75,75,77,77,80,80,81,81,82,82,83,83,85,85,87,87,88,88,89,89,93,93,95,95,103,103,106,106,107,107,108,108,109,109,110,110,112,112,113,113,114,114,115,115,116,116,118,118,128,128,129,129,130,130,132,132,134,134,136,136,139,139,141,141,142,142,143,143,144,144,146,146,148,148,149,149,150,150],"right_children":[2,4,6,8,10,12,14,16,18,20,22,24,26,28,30,32,34,36,-1,38,-1,40,42,44,-1,-1,46,-1,48,50,52,54,56,58,60,-1,62,-1,-1,64,-1,-1,66,-1,68,70,72,-1,-1,74,76,78,80,82,84,86,88,90,-1,92,-1,-1,-1,-1,94,96,98,-1,-1,-1,-1,-1,100,-1,-1,102,-1,104,-1,-1,106,108,110,112,-1,114,-1,116,118,120,-1,-1,-1,122,-1,124,-1,-1,-1,-1,-1,-1,-1,126,-1,-1,128,130,132,134,136,-1,138,140,142,144,146,-1,148,-1,-1,-1,-1,-1,-1,-1,-1,-1,150,152,154,-1,156,-1,158,-1,160,-1,-1,162,-1,164,166,168,170,-1,172,-1,174,176,178,-1,-1,-1,-1,-1,-1,-1,-1,-1,-1,-1,-1,-1,-1,-1,-1,-1,-1,-1,-1,-1,-1,-1,-1,-1,-1,-1,-1],"split_conditions":[1.6530857E0,1.4805195E0,1.7852107E0,1.4319811E0,1.5198566E0,1.7047725E0,1.8270289E0,1.3511394E0,1.4701486E0,1.5061469E0,1.5809549E0,1.6917951E0,1.7165725E0,1.7985048E0,1.889178E0,9.9453974E-1,1.3969948E0,1.4449964E0,2.3690571E-1,1.492948E0,-1.8102781E-1,1.5678438E0,1.59293E0,1.6671224E0,2.225668E-1,-2.1772952E-1,1.7453601E0,-3.675928E-1,1.8143924E0,1.8524575E0,1.9464216E0,9.447441E-1,1.1260456E0,1.3850123E0,1.4212945E0,1.4365706E-1,1.4562408E0,-6.5947E-2,-1.1033351E-1,1.5302445E0,1.534419E-1,-3.8065276E-1,1.6282802E0,2.1354534E-1,1.6786821E0,1.7310376E0,1.7595909E0,-1.3574323E-1,-3.5630894E-1,1.8393123E0,1.8772635E0,1.9308083E0,1.9593499E0,8.237788E-1,9.822003E-1,1.1134748E0,1.2917117E0,1.3742884E0,-1.22035384E-1,1.4100347E0,-2.6218312E-2,7.529801E-2,6.457261E-2,1.2641007E-1,1.5561649E0,1.6147295E0,1.6401714E0,1.2083178E-1,5.236434E-2,1.3142619E-1,4.0979837E-3,1.72378E-1,1.7740226E0,6.247483E-2,1.42792845E-2,1.8650966E0,1.7815612E-1,1.9171932E0,-1.2831616E-1,3.2540423E-1,1.9737602E0,7.8875315E-1,8.6227095E-1,9.575075E-1,-5.225213E-2,1.044683E0,4.360009E-1,1.257215E0,1.3042128E0,1.3613042E0,-3.4083918E-1,8.877742E-3,3.6934115E-2,1.5432028E0,-1.6450734E-1,1.6038969E0,9.916899E-2,-8.43619E-2,-1.0523485E-1,1.4844072E-1,1.6870795E-1,1.7555758E-1,7.183067E-2,1.9037753E0,-8.267877E-2,-1.226581E-1,1.9871777E0,7.644224E-1,8.0028814E-1,8.379269E-1,8.733661E-1,-6.681622E-2,9.69863E-1,1.0319544E0,1.0798352E0,1.2341549E0,1.2684107E0,1.2321672E-1,1.3156787E0,-1.8518065E-1,-1.4542672E-1,-1.0414115E-1,3.2540448E-2,-9.249337E-2,-1.5451889E-2,-8.550831E-2,-1.2770416E-1,1.9999959E-1,2.0585198E0,4.338413E-1,7.7700824E-1,-3.5453793E-1,8.122022E-1,3.702042E-1,8.488296E-1,-3.0030796E-1,9.319337E-1,-1.8545865E-1,-1.6365615E-1,1.0195019E0,1.20685264E-1,1.0559204E0,1.0917164E0,1.1991476E0,1.2456741E0,-2.6944384E-1,1.2804868E0,1.4489413E-2,1.3270702E0,2.0139117E0,2.17065E0,1.4908457E-2,-3.5440624E-2,3.1801572E-1,2.2388365E-2,3.2042537E-2,-1.4507079E-1,1.8234783E-1,1.4435752E-1,-1.6255306E-2,1.7141536E-1,1.5498507E-1,1.8619746E-1,-5.941185E-2,7.335094E-2,-7.33963E-2,-4.643622E-3,3.819308E-3,-1.68955E-1,3.47067E-1,1.6532693E-2,-6.767937E-2,-1.7258196E-1,1.3427839E-1,3.3071544E-2,2.693634E-2,-1.3767166E-1,6.701234E-2,2.2828574E-3],"split_indices":[0,0,0,0,0,0,0,0,0,0,0,0,0,0,0,0,0,0,0,0,0,0,0,0,0,0,0,0,0,0,0,0,0,0,0,0,0,0,0,0,0,0,0,0,0,0,0,0,0,0,0,0,0,0,0,0,0,0,0,0,0,0,0,0,0,0,0,0,0,0,0,0,0,0,0,0,0,0,0,0,0,0,0,0,0,0,0,0,0,0,0,0,0,0,0,0,0,0,0,0,0,0,0,0,0,0,0,0,0,0,0,0,0,0,0,0,0,0,0,0,0,0,0,0,0,0,0,0,0,0,0,0,0,0,0,0,0,0,0,0,0,0,0,0,0,0,0,0,0,0,0,0,0,0,0,0,0,0,0,0,0,0,0,0,0,0,0,0,0,0,0,0,0,0,0,0,0,0,0],"split_type":[0,0,0,0,0,0,0,0,0,0,0,0,0,0,0,0,0,0,0,0,0,0,0,0,0,0,0,0,0,0,0,0,0,0,0,0,0,0,0,0,0,0,0,0,0,0,0,0,0,0,0,0,0,0,0,0,0,0,0,0,0,0,0,0,0,0,0,0,0,0,0,0,0,0,0,0,0,0,0,0,0,0,0,0,0,0,0,0,0,0,0,0,0,0,0,0,0,0,0,0,0,0,0,0,0,0,0,0,0,0,0,0,0,0,0,0,0,0,0,0,0,0,0,0,0,0,0,0,0,0,0,0,0,0,0,0,0,0,0,0,0,0,0,0,0,0,0,0,0,0,0,0,0,0,0,0,0,0,0,0,0,0,0,0,0,0,0,0,0,0,0,0,0,0,0,0,0,0,0],"sum_hessian":[6.5157E4,3.4375E4,3.0782E4,3.0781E4,3.594E3,2.517E3,2.8265E4,2.9762E4,1.019E3,7.93E2,2.801E3,9.89E2,1.528E3,7.66E2,2.7499E4,2.801E4,1.752E3,7.95E2,2.24E2,5.41E2,2.52E2,1.274E3,1.527E3,7.35E2,2.54E2,2.52E2,1.276E3,2.54E2,5.12E2,1.27E3,2.6229E4,2.0369E4,7.641E3,9.89E2,7.63E2,2.57E2,5.38E2,2.52E2,2.89E2,9.88E2,2.86E2,2.53E2,1.274E3,2.54E2,4.81E2,5.39E2,7.37E2,2.81E2,2.31E2,5.04E2,7.66E2,1.022E3,2.5207E4,1.935E4,1.019E3,2.803E3,4.838E3,7.35E2,2.54E2,5.4E2,2.23E2,2.52E2,2.86E2,2.24E2,7.64E2,7.67E2,5.07E2,2.26E2,2.55E2,2.85E2,2.54E2,2.56E2,4.81E2,2.52E2,2.52E2,5.11E2,2.55E2,7.63E2,2.59E2,2.56E2,2.4951E4,1.6805E4,2.545E3,7.66E2,2.53E2,2.544E3,2.59E2,3.539E3,1.299E3,5.1E2,2.25E2,2.84E2,2.56E2,5.39E2,2.25E2,4.8E2,2.87E2,2.53E2,2.54E2,2.55E2,2.26E2,2.58E2,2.53E2,5.13E2,2.5E2,2.47E2,2.4704E4,1.6042E4,7.63E2,7.64E2,1.781E3,2.53E2,5.13E2,1.02E3,1.524E3,2.804E3,7.35E2,2.82E2,1.017E3,2.25E2,2.85E2,2.87E2,2.52E2,2.56E2,2.24E2,2.58E2,2.55E2,2.6E2,2.4444E4,1.5534E4,5.08E2,2.56E2,5.07E2,2.56E2,5.08E2,2.57E2,1.524E3,2.57E2,2.56E2,7.66E2,2.54E2,7.67E2,7.57E2,2.295E3,5.09E2,2.48E2,4.87E2,2.57E2,7.6E2,1.267E3,2.3177E4,7.897E3,7.637E3,2.55E2,2.53E2,2.55E2,2.52E2,2.52E2,2.56E2,1.272E3,2.52E2,5.17E2,2.49E2,2.54E2,5.13E2,2.49E2,5.08E2,1.532E3,7.63E2,2.48E2,2.61E2,2.6E2,2.27E2,2.51E2,5.09E2,5.02E2,7.65E2,2.037E3,2.114E4],"tree_param":{"num_deleted":"0","num_feature":"1","num_nodes":"179","size_leaf_vector":"1"}},{"base_weights":[4.1148065E-5,-1.11698145E-2,4.7358755E-2,-1.1161305E-3,-1.4971513E-1,2.7330488E-1,9.724793E-3,-1.1844936E-2,2.181669E-1,-6.257706E-1,-7.0193686E-2,2.006882E-1,4.5402595E-1,-3.059984E-1,5.2429795E-2,-3.9618164E-3,-2.9369736E-1,4.0920347E-1,-1.9860169E-2,-2.2012241E-1,-1.549876E-1,5.5730972E-2,-1.9607241E-1,3.243657E-1,-8.9764394E-2,1.14994474E-1,1.579816E-1,-2.6581267E-1,-1.4090899E-1,2.9906276E-1,2.2335626E-2,-4.894694E-2,1.1163097E-2,-3.801249E-1,1.4937768E-2,1.8341525E-1,3.9375696E-1,-2.1139112E-1,2.1021502E-1,-5.6778148E-2,1.8528506E-1,-2.9188368E-1,-5.935347E-3,1.4383583E-1,2.5648338E-1,-3.2927448E-1,-2.4134714E-2,-1.0034356E-2,4.1211662E-1,-4.6265426E-1,5.3670038E-2,1.5051554E-2,-7.041306E-1,2.7860048E-1,-3.5872776E-3,-7.470195E-2,-4.233907E-1,2.9818347E-1,-4.834758E-2,3.35265E-1,-1.1046682E-2,5.1101312E-2,-1.2815492E-1,-5.3453393E-2,-4.0568647E-1,8.4953E-2,-9.055602E-2,3.3901796E-1,-7.389813E-2,-2.674857E-1,-1.3702694E-1,7.7670015E-2,1.4566523E-1,-1.9137208E-1,-8.829944E-2,2.9396042E-1,2.2369256E-2,-2.5333825E-2,8.0329067E-1,-4.2668977E-1,-4.6288186E-1,1.1597109E-2,9.463485E-1,-3.0206454E-1,1.1228589E-2,-4.64712E-1,-1.01577945E-1,2.51509E-1,1.1678474E-1,-2.1852404E-3,2.0416526E-1,-1.9244794E-2,5.025497E-2,-1.0021646E-1,-2.3742497E-2,-1.3439827E-1,-1.0843225E-1,5.9342477E-2,1.4301322E-1,-7.182973E-2,-8.81006E-2,-1.4802702E-1,4.0111225E-2,3.201995E-2,-3.4066924E-1,1.8408176E-1,2.9739195E-1,-6.6887695E-1,-1.5929498E-2,4.3623337E-1,-2.7150887E-1,5.1598763E-1,4.703002E-2,-1.6017497E-1,-3.049463E-1,3.2832748E-1,2.0732512E-3,-1.4646874E-1,-1.3192749E-1,9.6170895E-2,5.4190625E-2,1.47072375E-2,-2.883964E-2,1.981154E-1,1.7918797E-2,-4.7760896E-2,3.2717782E-1,-9.464109E-1,2.6393554E-1,-1.1733027E-1,-2.8452027E-1,5.6066334E-2,2.0663476E-1,-1.2285925E-1,-1.7102405E-1,-3.6262676E-1,1.9318604E-1,-1.8675297E-1,7.272025E-3,-1.4999409E-1,3.6579225E-2,1.1935816E-2,-2.1532421E-1,1.734225E-1,-1.6813282E-3,-2.3222424E-1,-3.826681E-1,2.5863317E-1,-1.1404576E-2,-5.806639E-2,-1.5588269E-2,-1.7925518E-2,-3.7847742E-1,1.3684924E-1,-1.3961931E-4,-1.2747621E-3,2.8820083E-2],"categories":[],"categories_nodes":[],"categories_segments":[],"categories_sizes":[],"default_left":[0,0,0,0,0,0,0,0,0,0,0,0,0,0,0,0,0,0,0,0,0,0,0,0,0,0,0,0,0,0,0,0,0,0,0,0,0,0,0,0,0,0,0,0,0,0,0,0,0,0,0,0,0,0,0,0,0,0,0,0,0,0,0,0,0,0,0,0,0,0,0,0,0,0,0,0,0,0,0,0,0,0,0,0,0,0,0,0,0,0,0,0,0,0,0,0,0,0,0,0,0,0,0,0,0,0,0,0,0,0,0,0,0,0,0,0,0,0,0,0,0,0,0,0,0,0,0,0,0,0,0,0,0,0,0,0,0,0,0,0,0,0,0,0,0,0,0,0,0,0,0,0,0,0,0,0,0],"id":8,"left_children":[1,3,5,7,9,11,13,15,17,19,21,23,25,27,29,31,33,35,37,-1,-1,39,41,43,-1,-1,-1,45,-1,47,49,51,53,55,-1,57,-1,-1,59,61,-1,63,65,67,-1,69,-1,-1,71,73,75,77,79,81,83,-1,85,87,-1,89,-1,91,93,-1,95,-1,-1,97,-1,99,-1,-1,-1,-1,-1,-1,101,103,105,-1,107,109,111,113,115,117,-1,119,-1,-1,-1,-1,-1,-1,121,-1,-1,-1,-1,-1,-1,-1,123,125,127,-1,-1,129,-1,131,133,-1,-1,135,-1,-1,137,-1,-1,-1,-1,-1,-1,-1,139,141,143,145,147,-1,-1,-1,-1,149,-1,151,-1,-1,153,-1,155,-1,-1,-1,-1,-1,-1,-1,-1,-1,-1,-1,-1,-1,-1,-1,-1],"loss_changes":[3.4565277E1,7.3374535E1,1.0612637E2,1.15552734E2,1.3487708E2,2.3294739E1,1.4428372E2,1.040382E2,1.0418418E2,5.631012E0,4.8436455E1,7.880248E1,2.4155579E0,8.262512E0,6.995511E1,3.099395E1,3.7840134E1,2.5899103E2,1.6100684E2,0E0,0E0,9.663107E1,2.7834259E1,9.767384E1,0E0,0E0,0E0,1.204287E1,0E0,3.8545174E1,1.2770894E2,4.8062103E2,1.3448325E2,5.669632E0,0E0,4.0306007E1,0E0,0E0,2.3644733E1,9.81646E0,0E0,1.3074791E1,4.39744E1,5.8188118E1,0E0,5.8958206E0,0E0,0E0,8.481567E0,1.48567505E1,2.2880183E2,3.324559E2,1.7606403E2,3.1770355E2,1.4288466E2,0E0,2.5196686E0,3.1506195E0,0E0,6.0089863E1,0E0,6.8265467E0,1.6481426E1,0E0,7.871475E-1,0E0,0E0,9.802467E0,0E0,3.0943298E-1,0E0,0E0,0E0,0E0,0E0,0E0,6.989818E1,1.7969212E2,1.7544556E1,0E0,6.454071E1,1.53275E2,3.106421E2,1.5472928E2,3.052736E2,8.517456E-2,0E0,2.4285355E0,0E0,0E0,0E0,0E0,0E0,0E0,2.6911623E0,0E0,0E0,0E0,0E0,0E0,0E0,0E0,1.01617905E2,1.9798318E2,5.6022205E2,0E0,0E0,3.915039E1,0E0,3.1986992E1,3.3882584E1,0E0,0E0,2.0796278E2,0E0,0E0,9.912448E1,0E0,0E0,0E0,0E0,0E0,0E0,0E0,6.8914505E1,3.8826776E2,1.4937425E2,4.234851E1,1.3838724E2,0E0,0E0,0E0,0E0,2.5561814E0,0E0,2.7764404E2,0E0,0E0,1.05153404E2,0E0,1.671534E1,0E0,0E0,0E0,0E0,0E0,0E0,0E0,0E0,0E0,0E0,0E0,0E0,0E0,0E0,0E0,0E0],"parents":[2147483647,0,0,1,1,2,2,3,3,4,4,5,5,6,6,7,7,8,8,9,9,10,10,11,11,12,12,13,13,14,14,15,15,16,16,17,17,18,18,21,21,22,22,23,23,27,27,29,29,30,30,31,31,32,32,33,33,35,35,38,38,39,39,41,41,42,42,43,43,45,45,48,48,49,49,50,50,51,51,52,52,53,53,54,54,56,56,57,57,59,59,61,61,62,62,64,64,67,67,69,69,76,76,77,77,78,78,80,80,81,81,82,82,83,83,84,84,85,85,87,87,94,94,102,102,103,103,104,104,107,107,109,109,110,110,113,113,116,116,124,124,125,125,126,126,127,127,128,128,133,133,135,135,138,138,140,140],"right_children":[2,4,6,8,10,12,14,16,18,20,22,24,26,28,30,32,34,36,38,-1,-1,40,42,44,-1,-1,-1,46,-1,48,50,52,54,56,-1,58,-1,-1,60,62,-1,64,66,68,-1,70,-1,-1,72,74,76,78,80,82,84,-1,86,88,-1,90,-1,92,94,-1,96,-1,-1,98,-1,100,-1,-1,-1,-1,-1,-1,102,104,106,-1,108,110,112,114,116,118,-1,120,-1,-1,-1,-1,-1,-1,122,-1,-1,-1,-1,-1,-1,-1,124,126,128,-1,-1,130,-1,132,134,-1,-1,136,-1,-1,138,-1,-1,-1,-1,-1,-1,-1,140,142,144,146,148,-1,-1,-1,-1,150,-1,152,-1,-1,154,-1,156,-1,-1,-1,-1,-1,-1,-1,-1,-1,-1,-1,-1,-1,-1,-1,-1],"split_conditions":[2.6515133E0,2.4520903E0,2.7513194E0,2.3284798E0,2.4815757E0,2.7219272E0,2.824891E0,2.2564566E0,2.3960888E0,2.466247E0,2.5642803E0,2.708162E0,2.73701E0,2.8120131E0,2.8817687E0,5.8499664E-1,2.3153126E0,2.3817294E0,2.4106052E0,-2.2012241E-1,-1.549876E-1,2.5490437E0,2.6232033E0,2.693546E0,-8.9764394E-2,1.14994474E-1,1.579816E-1,2.7963948E0,-1.4090899E-1,2.838178E0,2.9109035E0,5.429023E-1,6.6104114E-1,2.272262E0,1.4937768E-2,2.3687985E0,3.9375696E-1,-2.1139112E-1,2.4386094E0,2.506873E0,1.8528506E-1,2.5936933E0,2.6383162E0,2.6788535E0,2.5648338E-1,2.781978E0,-2.4134714E-2,-1.0034356E-2,2.8510578E0,2.8972712E0,2.9262602E0,5.2158004E-1,5.532757E-1,6.400987E-1,7.288121E-1,-7.470195E-2,2.3001966E0,2.3551786E0,-4.834758E-2,2.4254167E0,-1.1046682E-2,2.4950871E0,2.5201986E0,-5.3453393E-2,2.6094217E0,8.4953E-2,-9.055602E-2,2.6650593E0,-7.389813E-2,2.7668812E0,-1.3702694E-1,7.7670015E-2,1.4566523E-1,-1.9137208E-1,-8.829944E-2,2.9396042E-1,2.9426036E0,4.558638E-1,5.3229177E-1,-4.2668977E-1,5.739596E-1,6.0787535E-1,6.504318E-1,7.167888E-1,7.415176E-1,2.2857304E0,-1.01577945E-1,2.3419487E0,1.1678474E-1,-2.1852404E-3,2.0416526E-1,-1.9244794E-2,5.025497E-2,-1.0021646E-1,2.5336595E0,-1.3439827E-1,-1.0843225E-1,5.9342477E-2,1.4301322E-1,-7.182973E-2,-8.81006E-2,-1.4802702E-1,2.958016E0,3.7936154E-1,4.8678172E-1,1.8408176E-1,2.9739195E-1,5.635891E-1,-1.5929498E-2,5.9700584E-1,6.297263E-1,5.1598763E-1,4.703002E-2,7.0597357E-1,-3.049463E-1,3.2832748E-1,7.531808E-1,-1.4646874E-1,-1.3192749E-1,9.6170895E-2,5.4190625E-2,1.47072375E-2,-2.883964E-2,1.981154E-1,2.9729133E0,3.444764E-1,4.2239243E-1,4.763975E-1,4.9777788E-1,-1.1733027E-1,-2.8452027E-1,5.6066334E-2,2.0663476E-1,6.1899E-1,-1.7102405E-1,6.9509155E-1,1.9318604E-1,-1.8675297E-1,7.7700824E-1,-1.4999409E-1,3.2640371E0,1.1935816E-2,-2.1532421E-1,1.734225E-1,-1.6813282E-3,-2.3222424E-1,-3.826681E-1,2.5863317E-1,-1.1404576E-2,-5.806639E-2,-1.5588269E-2,-1.7925518E-2,-3.7847742E-1,1.3684924E-1,-1.3961931E-4,-1.2747621E-3,2.8820083E-2],"split_indices":[0,0,0,0,0,0,0,0,0,0,0,0,0,0,0,0,0,0,0,0,0,0,0,0,0,0,0,0,0,0,0,0,0,0,0,0,0,0,0,0,0,0,0,0,0,0,0,0,0,0,0,0,0,0,0,0,0,0,0,0,0,0,0,0,0,0,0,0,0,0,0,0,0,0,0,0,0,0,0,0,0,0,0,0,0,0,0,0,0,0,0,0,0,0,0,0,0,0,0,0,0,0,0,0,0,0,0,0,0,0,0,0,0,0,0,0,0,0,0,0,0,0,0,0,0,0,0,0,0,0,0,0,0,0,0,0,0,0,0,0,0,0,0,0,0,0,0,0,0,0,0,0,0,0,0,0,0],"split_type":[0,0,0,0,0,0,0,0,0,0,0,0,0,0,0,0,0,0,0,0,0,0,0,0,0,0,0,0,0,0,0,0,0,0,0,0,0,0,0,0,0,0,0,0,0,0,0,0,0,0,0,0,0,0,0,0,0,0,0,0,0,0,0,0,0,0,0,0,0,0,0,0,0,0,0,0,0,0,0,0,0,0,0,0,0,0,0,0,0,0,0,0,0,0,0,0,0,0,0,0,0,0,0,0,0,0,0,0,0,0,0,0,0,0,0,0,0,0,0,0,0,0,0,0,0,0,0,0,0,0,0,0,0,0,0,0,0,0,0,0,0,0,0,0,0,0,0,0,0,0,0,0,0,0,0,0,0],"sum_hessian":[6.5157E4,5.2677E4,1.248E4,4.9114E4,3.563E3,1.781E3,1.0699E4,4.6824E4,2.29E3,5.09E2,3.054E3,1.272E3,5.09E2,1.274E3,9.425E3,4.5551E4,1.273E3,1.27E3,1.02E3,2.53E2,2.56E2,1.527E3,1.527E3,1.02E3,2.52E2,2.61E2,2.48E2,1.025E3,2.49E2,1.024E3,8.401E3,1.1461E4,3.409E4,1.017E3,2.56E2,1.017E3,2.53E2,2.56E2,7.64E2,1.273E3,2.54E2,1.015E3,5.12E2,7.62E2,2.58E2,7.63E2,2.62E2,2.6E2,7.64E2,5.09E2,7.892E3,1.0442E4,1.019E3,1.781E3,3.2309E4,2.54E2,7.63E2,7.63E2,2.54E2,5.07E2,2.57E2,5.07E2,7.66E2,5.09E2,5.06E2,2.59E2,2.53E2,5.08E2,2.54E2,5.16E2,2.47E2,2.49E2,5.15E2,2.48E2,2.61E2,2.57E2,7.635E3,9.934E3,5.08E2,2.55E2,7.64E2,1.273E3,5.08E2,1.527E3,3.0782E4,5.1E2,2.53E2,5.07E2,2.56E2,2.55E2,2.52E2,2.55E2,2.52E2,2.57E2,5.09E2,2.54E2,2.52E2,2.52E2,2.56E2,2.54E2,2.62E2,2.53E2,7.382E3,8.406E3,1.528E3,2.55E2,2.53E2,5.08E2,2.56E2,5.09E2,7.64E2,2.56E2,2.52E2,1.275E3,2.52E2,2.57E2,3.0525E4,2.53E2,2.57E2,2.55E2,2.52E2,2.54E2,2.55E2,2.54E2,7.128E3,6.618E3,1.788E3,7.63E2,7.65E2,2.56E2,2.52E2,2.57E2,2.52E2,5.11E2,2.53E2,1.019E3,2.56E2,2.51E2,3.0274E4,2.47E2,6.881E3,5.854E3,7.64E2,1.019E3,7.69E2,5.03E2,2.6E2,2.56E2,5.09E2,2.55E2,2.56E2,7.63E2,2.56E2,5.12E2,2.9762E4,4.081E3,2.8E3],"tree_param":{"num_deleted":"0","num_feature":"1","num_nodes":"157","size_leaf_vector":"1"}},{"base_weights":[1.9792291E-5,-1.1948321E-1,4.8770946E-3,1.5493599E-1,-3.0223143E-1,4.7547898E-1,1.0124807E-3,-1.06163196E-1,3.2723415E-1,-2.0347767E-1,-2.2601974E-1,1.6558272E-1,1.1868754E-1,8.0179594E-2,-2.7280303E-3,1.2570159E-1,2.8097612E-1,1.1551801E-1,-3.8037157E-1,1.4123608E-2,2.2369331E-1,-5.027044E-1,3.8057012E-3,4.49001E-2,1.2397521E-1,-1.8376699E-1,-1.4698067E-1,8.548094E-2,-1.8603793E-1,-3.2033238E-1,-2.631328E-1,4.0482318E-1,-3.3054694E-3,-5.1407207E-2,-3.6461126E-2,-7.02093E-2,2.798573E-1,-1.2367745E-1,-6.847058E-2,-5.029208E-3,5.4537416E-1,-3.3253595E-1,5.709045E-3,1.0412684E-1,-9.947275E-2,3.585128E-1,1.3115837E-2,3.1900045E-1,2.7659574E-1,-3.9242953E-3,-6.632931E-1,3.3631328E-1,-1.9888037E-3,-4.65073E-2,2.35538E-1,2.1149804E-1,1.9655786E-1,-4.718594E-2,2.087687E-1,1.9460229E-3,-9.244603E-3,-5.42318E-1,-2.6830766E-1,1.8507732E-1,5.632493E-1,-6.4663E-1,7.139657E-3,9.859902E-2,4.1889064E-2,1.0798346E-1,1.9014664E-2,-4.6725404E-3,-9.578694E-4,-2.2347815E-1,-9.955051E-2,1.8134522E-1,-2.6633685E-2,1.2907287E-1,2.0852564E-1,-2.9918304E-1,-4.690029E-1,1.6611375E-1,8.9887704E-4,-1.028009E-1,8.214683E-2,-8.226811E-2,-1.9950134E-1,1.5542444E-4,1.9906513E-1,-1.9752736E-1,1.2536655E-3],"categories":[],"categories_nodes":[],"categories_segments":[],"categories_sizes":[],"default_left":[0,0,0,0,0,0,0,0,0,0,0,0,0,0,0,0,0,0,0,0,0,0,0,0,0,0,0,0,0,0,0,0,0,0,0,0,0,0,0,0,0,0,0,0,0,0,0,0,0,0,0,0,0,0,0,0,0,0,0,0,0,0,0,0,0,0,0,0,0,0,0,0,0,0,0,0,0,0,0,0,0,0,0,0,0,0,0,0,0,0,0],"id":9,"left_children":[1,3,5,7,9,11,13,-1,15,-1,17,-1,-1,19,21,-1,23,-1,25,27,-1,29,31,-1,-1,-1,33,35,-1,37,-1,39,41,-1,-1,43,45,-1,-1,-1,47,49,51,53,-1,55,-1,-1,57,59,61,63,65,-1,67,69,-1,-1,-1,-1,71,73,-1,75,77,79,81,-1,-1,-1,-1,-1,-1,-1,-1,-1,83,-1,-1,-1,85,87,89,-1,-1,-1,-1,-1,-1,-1,-1],"loss_changes":[3.782234E1,1.2767761E2,1.1387526E2,8.936141E1,4.3635635E1,2.8956451E0,1.8391088E1,0E0,3.1128235E0,0E0,1.20123146E2,0E0,0E0,1.23159584E2,1.9373096E2,0E0,8.7789E0,0E0,5.4966873E1,1.1546191E2,0E0,5.195398E1,1.6694008E2,0E0,0E0,0E0,2.942505E-1,6.941157E1,0E0,4.274418E0,0E0,6.044873E1,1.7071577E2,0E0,0E0,5.808514E1,1.8929329E1,0E0,0E0,0E0,1.0620662E2,1.666202E2,1.424894E2,2.6088863E1,0E0,3.3227943E1,0E0,0E0,9.198247E1,4.271021E-2,2.0871185E1,4.3620544E1,3.2198538E2,0E0,4.4912853E0,1.1256681E1,0E0,0E0,0E0,0E0,1.9488622E-2,2.1246292E1,0E0,6.803156E1,8.626297E0,4.7117523E1,5.3527824E1,0E0,0E0,0E0,0E0,0E0,0E0,0E0,0E0,0E0,4.8520897E1,0E0,0E0,0E0,1.9249413E1,1.6787656E2,1.1227556E2,0E0,0E0,0E0,0E0,0E0,0E0,0E0,0E0],"parents":[2147483647,0,0,1,1,2,2,3,3,4,4,5,5,6,6,8,8,10,10,13,13,14,14,16,16,18,18,19,19,21,21,22,22,26,26,27,27,29,29,31,31,32,32,35,35,36,36,40,40,41,41,42,42,43,43,45,45,48,48,49,49,50,50,51,51,52,52,54,54,55,55,60,60,61,61,63,63,64,64,65,65,66,66,76,76,80,80,81,81,82,82],"right_children":[2,4,6,8,10,12,14,-1,16,-1,18,-1,-1,20,22,-1,24,-1,26,28,-1,30,32,-1,-1,-1,34,36,-1,38,-1,40,42,-1,-1,44,46,-1,-1,-1,48,50,52,54,-1,56,-1,-1,58,60,62,64,66,-1,68,70,-1,-1,-1,-1,72,74,-1,76,78,80,82,-1,-1,-1,-1,-1,-1,-1,-1,-1,84,-1,-1,-1,86,88,90,-1,-1,-1,-1,-1,-1,-1,-1],"split_conditions":[1.7497621E-1,6.0513854E-2,2.0413819E-1,-5.3798497E-2,8.451929E-2,1.9023411E-1,3.444764E-1,-1.06163196E-1,-5.5779926E-3,-2.0347767E-1,1.0538266E-1,1.6558272E-1,1.1868754E-1,3.331606E-1,3.7936154E-1,1.2570159E-1,3.2761835E-2,1.1551801E-1,1.4289327E-1,3.2116738E-1,2.2369331E-1,3.6795694E-1,4.2239243E-1,4.49001E-2,1.2397521E-1,-1.8376699E-1,1.5901788E-1,2.7103084E-1,-1.8603793E-1,3.5619232E-1,-2.631328E-1,3.8934004E-1,4.8678172E-1,-5.1407207E-2,-3.6461126E-2,2.4539119E-1,3.0869192E-1,-1.2367745E-1,-6.847058E-2,-5.029208E-3,4.0011576E-1,4.558638E-1,5.429023E-1,2.1835692E-1,-9.947275E-2,2.9688787E-1,1.3115837E-2,3.1900045E-1,4.1008115E-1,4.338413E-1,4.763975E-1,5.2158004E-1,5.739596E-1,-4.65073E-2,2.3212638E-1,2.8349933E-1,1.9655786E-1,-4.718594E-2,2.087687E-1,1.9460229E-3,4.4471672E-1,4.6638176E-1,-2.6830766E-1,4.9777788E-1,5.3229177E-1,5.532757E-1,6.6104114E-1,9.859902E-2,4.1889064E-2,1.0798346E-1,1.9014664E-2,-4.6725404E-3,-9.578694E-4,-2.2347815E-1,-9.955051E-2,1.8134522E-1,5.10096E-1,1.2907287E-1,2.0852564E-1,-2.9918304E-1,5.635891E-1,6.400987E-1,6.7323434E-1,-1.028009E-1,8.214683E-2,-8.226811E-2,-1.9950134E-1,1.5542444E-4,1.9906513E-1,-1.9752736E-1,1.2536655E-3],"split_indices":[0,0,0,0,0,0,0,0,0,0,0,0,0,0,0,0,0,0,0,0,0,0,0,0,0,0,0,0,0,0,0,0,0,0,0,0,0,0,0,0,0,0,0,0,0,0,0,0,0,0,0,0,0,0,0,0,0,0,0,0,0,0,0,0,0,0,0,0,0,0,0,0,0,0,0,0,0,0,0,0,0,0,0,0,0,0,0,0,0,0,0],"split_type":[0,0,0,0,0,0,0,0,0,0,0,0,0,0,0,0,0,0,0,0,0,0,0,0,0,0,0,0,0,0,0,0,0,0,0,0,0,0,0,0,0,0,0,0,0,0,0,0,0,0,0,0,0,0,0,0,0,0,0,0,0,0,0,0,0,0,0,0,0,0,0,0,0,0,0,0,0,0,0,0,0,0,0,0,0,0,0,0,0,0,0],"sum_hessian":[6.5157E4,2.544E3,6.2613E4,1.017E3,1.527E3,5.09E2,6.2104E4,2.57E2,7.6E2,2.56E2,1.271E3,2.57E2,2.52E2,2.801E3,5.9303E4,2.52E2,5.08E2,2.56E2,1.015E3,2.549E3,2.52E2,7.64E2,5.8539E4,2.56E2,2.52E2,5.08E2,5.07E2,2.292E3,2.57E2,5.15E2,2.49E2,1.019E3,5.752E4,2.56E2,2.51E2,1.273E3,1.019E3,2.56E2,2.59E2,2.55E2,7.64E2,1.532E3,5.5988E4,7.64E2,5.09E2,7.64E2,2.55E2,2.6E2,5.04E2,7.69E2,7.63E2,1.273E3,5.4715E4,2.57E2,5.07E2,5.12E2,2.52E2,2.48E2,2.56E2,2.6E2,5.09E2,5.03E2,2.6E2,7.65E2,5.08E2,7.63E2,5.3952E4,2.56E2,2.51E2,2.55E2,2.57E2,2.48E2,2.61E2,2.55E2,2.48E2,2.56E2,5.09E2,2.55E2,2.53E2,2.55E2,5.08E2,2.037E3,5.1915E4,2.48E2,2.61E2,2.56E2,2.52E2,1.529E3,5.08E2,2.56E2,5.1659E4],"tree_param":{"num_deleted":"0","num_feature":"1","num_nodes":"91","size_leaf_vector":"1"}},{"base_weights":[1.1643087E-5,-8.370574E-2,3.4144078E-3,1.08639814E-1,-2.117974E-1,3.3339316E-1,7.046007E-4,-7.443772E-2,2.2945042E-1,-1.4267184E-1,-1.5833665E-1,1.161005E-1,8.322224E-2,-1.5021303E-2,1.6706347E-2,8.814007E-2,1.9701436E-1,8.0997296E-2,-2.6652747E-1,1.7097354E-2,-8.692144E-2,2.3669013E-1,-2.8909037E-3,3.1482253E-2,8.6929455E-2,-4.291504E-1,-1.0305974E-1,-1.5939714E-2,1.4903596E-1,-2.9849875E-1,-6.3018054E-2,3.5785237E-1,1.5808497E-1,-6.553212E-1,1.5306074E-2,-1.3663019E-1,-1.2048184E-1,-3.6045156E-2,-2.556627E-2,6.907608E-3,-2.1536991E-1,3.5952365E-1,8.418163E-2,1.5784779E-1,-7.959144E-2,3.01504E-1,1.5572578E-1,-1.5300168E-1,2.9032367E-1,-2.580806E-1,-5.5216926E-1,2.3562837E-1,4.6295617E-3,-6.4260224E-3,2.3898426E-1,-1.8384306E-1,-1.4942244E-1,3.8517374E-1,8.428872E-2,5.178928E-2,1.3894051E-1,-2.2061484E-1,-6.0443908E-2,1.4940022E-1,1.9692273E-1,1.6607101E-1,3.808469E-1,-9.549739E-2,-2.5020942E-1,8.876433E-2,3.320178E-1,-2.5003642E-1,1.4964323E-2,9.363848E-3,-3.0605364E-1,1.0538068E-1,-2.764277E-1,3.6081886E-1,1.302289E-1,1.4976802E-1,-8.556018E-2,2.4303222E-1,-8.54649E-2,8.4409006E-2,3.6383536E-2,9.1803275E-2,2.5402678E-3,1.2053279E-1,3.6889747E-1,4.347352E-2,9.679827E-3,2.897362E-1,1.2458522E-1,-2.3236322E-1,-9.0302035E-2,2.2782962E-1,7.295873E-3,-2.0368071E-2,5.4386544E-1,-2.1089755E-1,-1.0385659E-1,-5.538228E-2,1.1986116E-1,-3.267979E-1,-3.6971156E-2,1.22500114E-1,9.374033E-2,1.6599811E-3,3.053708E-1,-1.4286663E-1,1.4210249E-2,-2.8191882E-1,-5.9900645E-2,1.0374942E-1,1.1798557E-1,1.2276059E-1,5.0033428E-2,-2.5047067E-1,-5.830707E-2,-8.634196E-2,1.025795E-2,6.932992E-6,-1.10113464E-1,2.5924203E-1,1.1432598E-1,-5.186009E-2,-1.0735417E-2,-4.718311E-2,-1.2297994E-1,2.0227276E-2,-1.9492224E-2,-3.667017E-2,4.5187928E-2,1.1258863E-2,-1.1857574E-1,4.7828138E-2,-3.140404E-2,-6.0287707E-2,-8.987525E-2,1.3989696E-1,1.6164324E-3],"categories":[],"categories_nodes":[],"categories_segments":[],"categories_sizes":[],"default_left":[0,0,0,0,0,0,0,0,0,0,0,0,0,0,0,0,0,0,0,0,0,0,0,0,0,0,0,0,0,0,0,0,0,0,0,0,0,0,0,0,0,0,0,0,0,0,0,0,0,0,0,0,0,0,0,0,0,0,0,0,0,0,0,0,0,0,0,0,0,0,0,0,0,0,0,0,0,0,0,0,0,0,0,0,0,0,0,0,0,0,0,0,0,0,0,0,0,0,0,0,0,0,0,0,0,0,0,0,0,0,0,0,0,0,0,0,0,0,0,0,0,0,0,0,0,0,0,0,0,0,0,0,0,0,0,0,0,0,0,0,0],"id":10,"left_children":[1,3,5,7,9,11,13,-1,15,-1,17,-1,-1,19,21,-1,23,-1,25,27,29,31,33,-1,-1,35,37,39,41,-1,43,45,47,49,51,-1,-1,-1,-1,53,55,57,59,-1,61,63,-1,-1,65,-1,67,69,71,73,-1,-1,75,77,-1,79,-1,-1,81,-1,83,85,87,-1,-1,89,91,93,95,97,99,101,103,105,-1,107,109,-1,111,-1,-1,-1,-1,-1,113,-1,-1,115,-1,117,-1,-1,119,121,123,-1,125,-1,-1,127,-1,-1,-1,129,-1,-1,131,133,135,-1,-1,-1,-1,137,-1,-1,139,-1,-1,-1,-1,-1,-1,-1,-1,-1,-1,-1,-1,-1,-1,-1,-1,-1,-1,-1,-1],"loss_changes":[1.856188E1,6.2726364E1,5.5987877E1,4.393381E1,2.1471992E1,1.4233131E0,1.5628471E1,0E0,1.5305176E0,0E0,5.901786E1,0E0,0E0,7.233681E1,1.3270857E2,0E0,4.3163853E0,0E0,2.6964699E1,9.4380516E1,2.0987817E2,2.3924805E1,3.355913E2,0E0,0E0,1.8559265E-1,1.4463949E-1,7.8905464E1,5.9160667E1,0E0,9.207379E1,8.837875E0,1.3523128E2,1.5739929E1,6.468644E1,0E0,0E0,0E0,0E0,1.6361491E2,4.6562553E1,1.9491882E0,4.0680542E1,0E0,1.1507615E2,1.5026642E1,0E0,0E0,1.4300125E1,0E0,3.3547333E1,1.796299E1,6.90388E1,7.2298515E1,0E0,0E0,4.9477253E1,7.572479E-1,0E0,4.113841E1,0E0,0E0,1.9412558E2,0E0,3.0446243E0,1.1907114E1,3.6354065E-2,0E0,0E0,1.5973003E0,2.5799942E0,8.515854E-1,1.4390472E2,2.3071175E2,6.132566E1,4.3492447E1,7.830284E0,1.0624619E0,0E0,2.2938097E2,4.962386E1,0E0,4.3480377E1,0E0,0E0,0E0,0E0,0E0,1.351242E-1,0E0,0E0,7.452671E0,0E0,4.771042E-1,0E0,0E0,2.181389E1,9.722202E1,3.9553146E1,0E0,2.3802285E0,0E0,0E0,1.074498E1,0E0,0E0,0E0,6.6871448E0,0E0,0E0,1.8910797E1,3.611046E1,7.529761E1,0E0,0E0,0E0,0E0,1.1896858E0,0E0,0E0,5.4866432E1,0E0,0E0,0E0,0E0,0E0,0E0,0E0,0E0,0E0,0E0,0E0,0E0,0E0,0E0,0E0,0E0,0E0,0E0,0E0,0E0],"parents":[2147483647,0,0,1,1,2,2,3,3,4,4,5,5,6,6,8,8,10,10,13,13,14,14,16,16,18,18,19,19,20,20,21,21,22,22,25,25,26,26,27,27,28,28,30,30,31,31,32,32,33,33,34,34,39,39,40,40,41,41,42,42,44,44,45,45,48,48,50,50,51,51,52,52,53,53,56,56,57,57,59,59,62,62,64,64,65,65,66,66,69,69,70,70,71,71,72,72,73,73,74,74,75,75,76,76,77,77,79,79,80,80,82,82,88,88,91,91,93,93,96,96,97,97,98,98,100,100,103,103,107,107,110,110,111,111,112,112,117,117,120,120],"right_children":[2,4,6,8,10,12,14,-1,16,-1,18,-1,-1,20,22,-1,24,-1,26,28,30,32,34,-1,-1,36,38,40,42,-1,44,46,48,50,52,-1,-1,-1,-1,54,56,58,60,-1,62,64,-1,-1,66,-1,68,70,72,74,-1,-1,76,78,-1,80,-1,-1,82,-1,84,86,88,-1,-1,90,92,94,96,98,100,102,104,106,-1,108,110,-1,112,-1,-1,-1,-1,-1,114,-1,-1,116,-1,118,-1,-1,120,122,124,-1,126,-1,-1,128,-1,-1,-1,130,-1,-1,132,134,136,-1,-1,-1,-1,138,-1,-1,140,-1,-1,-1,-1,-1,-1,-1,-1,-1,-1,-1,-1,-1,-1,-1,-1,-1,-1,-1,-1],"split_conditions":[1.7497621E-1,6.0513854E-2,2.0413819E-1,-5.3798497E-2,8.451929E-2,1.9023411E-1,1.6530857E0,-7.443772E-2,-5.5779926E-3,-1.4267184E-1,1.0538266E-1,1.161005E-1,8.322224E-2,1.1991476E0,1.7852107E0,8.814007E-2,3.2761835E-2,8.0997296E-2,1.4289327E-1,9.9453974E-1,1.2103606E0,1.7047725E0,1.8270289E0,3.1482253E-2,8.6929455E-2,1.2378317E-1,1.5901788E-1,9.093247E-1,1.044683E0,-2.9849875E-1,1.2219892E0,1.6917951E0,1.7165725E0,1.7985048E0,1.889178E0,-1.3663019E-1,-1.2048184E-1,-3.6045156E-2,-2.556627E-2,8.977836E-1,9.201102E-1,1.0319544E0,1.1863949E0,1.5784779E-1,1.2341549E0,1.6671224E0,1.5572578E-1,-1.5300168E-1,1.7453601E0,-2.580806E-1,1.8143924E0,1.8524575E0,1.9464216E0,8.6227095E-1,2.3898426E-1,-1.8384306E-1,9.447441E-1,1.0195019E0,8.428872E-2,1.1260456E0,1.3894051E-1,-2.2061484E-1,1.2456741E0,1.4940022E-1,1.6786821E0,1.7310376E0,1.7595909E0,-9.549739E-2,-2.5020942E-1,1.8393123E0,1.8772635E0,1.9308083E0,1.9593499E0,8.237788E-1,8.733661E-1,9.319337E-1,9.822003E-1,1.0072634E0,1.302289E-1,1.1134748E0,1.1381865E0,2.4303222E-1,1.2917117E0,8.4409006E-2,3.6383536E-2,9.1803275E-2,2.5402678E-3,1.2053279E-1,1.7740226E0,4.347352E-2,9.679827E-3,1.8650966E0,1.2458522E-1,1.9171932E0,-9.0302035E-2,2.2782962E-1,1.9737602E0,7.8875315E-1,8.379269E-1,-2.1089755E-1,8.86179E-1,-5.538228E-2,1.1986116E-1,9.575075E-1,-3.6971156E-2,1.22500114E-1,9.374033E-2,1.0798352E0,3.053708E-1,-1.4286663E-1,1.1627754E0,1.257215E0,1.3511394E0,1.0374942E-1,1.1798557E-1,1.2276059E-1,5.0033428E-2,1.9037753E0,-5.830707E-2,-8.634196E-2,1.9871777E0,6.932992E-6,-1.10113464E-1,2.5924203E-1,1.1432598E-1,-5.186009E-2,-1.0735417E-2,-4.718311E-2,-1.2297994E-1,2.0227276E-2,-1.9492224E-2,-3.667017E-2,4.5187928E-2,1.1258863E-2,-1.1857574E-1,4.7828138E-2,-3.140404E-2,-6.0287707E-2,-8.987525E-2,1.3989696E-1,1.6164324E-3],"split_indices":[0,0,0,0,0,0,0,0,0,0,0,0,0,0,0,0,0,0,0,0,0,0,0,0,0,0,0,0,0,0,0,0,0,0,0,0,0,0,0,0,0,0,0,0,0,0,0,0,0,0,0,0,0,0,0,0,0,0,0,0,0,0,0,0,0,0,0,0,0,0,0,0,0,0,0,0,0,0,0,0,0,0,0,0,0,0,0,0,0,0,0,0,0,0,0,0,0,0,0,0,0,0,0,0,0,0,0,0,0,0,0,0,0,0,0,0,0,0,0,0,0,0,0,0,0,0,0,0,0,0,0,0,0,0,0,0,0,0,0,0,0],"split_type":[0,0,0,0,0,0,0,0,0,0,0,0,0,0,0,0,0,0,0,0,0,0,0,0,0,0,0,0,0,0,0,0,0,0,0,0,0,0,0,0,0,0,0,0,0,0,0,0,0,0,0,0,0,0,0,0,0,0,0,0,0,0,0,0,0,0,0,0,0,0,0,0,0,0,0,0,0,0,0,0,0,0,0,0,0,0,0,0,0,0,0,0,0,0,0,0,0,0,0,0,0,0,0,0,0,0,0,0,0,0,0,0,0,0,0,0,0,0,0,0,0,0,0,0,0,0,0,0,0,0,0,0,0,0,0,0,0,0,0,0,0],"sum_hessian":[6.5157E4,2.544E3,6.2613E4,1.017E3,1.527E3,5.09E2,6.2104E4,2.57E2,7.6E2,2.56E2,1.271E3,2.57E2,2.52E2,3.1322E4,3.0782E4,2.52E2,5.08E2,2.56E2,1.015E3,2.1651E4,9.671E3,2.517E3,2.8265E4,2.56E2,2.52E2,5.08E2,5.07E2,1.7316E4,4.335E3,2.47E2,9.424E3,9.89E2,1.528E3,7.66E2,2.7499E4,2.52E2,2.56E2,2.56E2,2.51E2,1.5537E4,1.779E3,1.02E3,3.315E3,2.57E2,9.167E3,7.35E2,2.54E2,2.52E2,1.276E3,2.54E2,5.12E2,1.27E3,2.6229E4,1.528E4,2.57E2,2.52E2,1.527E3,7.66E2,2.54E2,3.055E3,2.6E2,2.59E2,8.908E3,2.54E2,4.81E2,5.39E2,7.37E2,2.81E2,2.31E2,5.04E2,7.66E2,1.022E3,2.5207E4,1.4516E4,7.64E2,5.08E2,1.019E3,5.17E2,2.49E2,1.783E3,1.272E3,2.48E2,8.66E3,2.26E2,2.55E2,2.85E2,2.54E2,2.56E2,4.81E2,2.52E2,2.52E2,5.11E2,2.55E2,7.63E2,2.59E2,2.56E2,2.4951E4,1.3752E4,7.64E2,2.57E2,5.07E2,2.56E2,2.52E2,7.66E2,2.53E2,2.57E2,2.6E2,1.524E3,2.59E2,2.58E2,1.014E3,9.96E2,7.664E3,2.55E2,2.26E2,2.58E2,2.53E2,5.13E2,2.5E2,2.47E2,2.4704E4,1.2989E4,7.63E2,2.56E2,5.08E2,2.51E2,2.56E2,2.53E2,5.13E2,7.67E2,7.57E2,5.07E2,5.07E2,2.61E2,7.35E2,1.299E3,6.365E3,2.58E2,2.55E2,2.6E2,2.4444E4],"tree_param":{"num_deleted":"0","num_feature":"1","num_nodes":"141","size_leaf_vector":"1"}},{"base_weights":[2.1091793E-5,-7.153694E-3,3.0303389E-2,1.5196291E-4,-1.0782996E-1,1.887651E-1,3.910018E-3,-7.184934E-3,1.5010832E-1,-4.4163767E-1,-5.2068982E-2,1.3784699E-1,3.1549054E-1,-2.1742745E-1,3.384863E-2,-1.5460001E-3,-2.0879994E-1,2.840582E-1,-1.6787289E-2,-1.5520261E-1,-1.09529585E-1,3.6211357E-2,-1.4031525E-1,2.2456709E-1,-6.379894E-2,7.977066E-2,1.09920256E-1,-1.8924747E-1,-9.96625E-2,2.066859E-1,1.2759359E-2,-7.671645E-3,9.1951005E-2,-2.6940003E-1,9.616451E-3,1.2574007E-1,2.7523774E-1,-1.4907762E-1,1.4453596E-1,-4.2676724E-2,1.2906012E-1,-2.0747605E-1,-7.0293103E-3,9.798836E-2,1.7897825E-1,-2.3374578E-1,-1.777886E-2,-7.892842E-3,2.8590825E-1,-3.2726982E-1,3.472846E-2,-1.4697376E-3,-1.7397623E-1,2.9381856E-1,5.360507E-3,-5.323668E-2,-2.9973567E-1,2.0621362E-1,-3.4757435E-2,2.3222092E-1,-8.602578E-3,3.2969125E-2,-9.27229E-2,-3.8307697E-2,-2.8732267E-1,5.870775E-2,-6.4353645E-2,2.3484674E-1,-5.2672792E-2,-1.90413E-1,-9.694144E-2,5.3605307E-2,1.0119113E-1,-1.3504823E-1,-6.276825E-2,2.052568E-1,1.2780369E-2,-4.8120627E-3,1.645348E-1,-1.7046708E-1,-9.251659E-2,-2.1802552E-1,8.940247E-2,-3.2870606E-1,-7.20818E-2,1.7349005E-1,8.102833E-2,-2.3892224E-3,1.4230083E-1,-1.4351086E-2,3.438092E-2,-7.112545E-2,-1.9510938E-2,-9.509438E-2,-7.688818E-2,4.075263E-2,9.9419E-2,-5.1222824E-2,-6.2628284E-2,-1.0465082E-1,2.5219457E-2,-2.2313735E-3,-1.2504995E-1,-1.9612584E-1,-2.4755491E-2,3.6928627E-1,-4.8683155E-2,-1.03558205E-1,-9.33599E-2,6.657524E-2,3.714081E-2,9.4550345E-3,-2.1078937E-2,1.3805641E-1,9.657358E-3,-6.582704E-3,2.2531082E-1,-6.491909E-2,-5.2644912E-2,7.510966E-2,-1.641448E-1,1.5973295E-1,2.365772E-1,-1.5067217E-1,4.50594E-2,-1.060345E-1,2.2740843E-2,4.7830917E-4,-3.1559967E-2,1.5974687E-1,2.0839166E-2,-7.840099E-2,-2.0790936E-2,1.2376748E-1,-2.9020818E-2,-2.2282192E-2,3.7398044E-2,3.249E-2,9.628906E-4],"categories":[],"categories_nodes":[],"categories_segments":[],"categories_sizes":[],"default_left":[0,0,0,0,0,0,0,0,0,0,0,0,0,0,0,0,0,0,0,0,0,0,0,0,0,0,0,0,0,0,0,0,0,0,0,0,0,0,0,0,0,0,0,0,0,0,0,0,0,0,0,0,0,0,0,0,0,0,0,0,0,0,0,0,0,0,0,0,0,0,0,0,0,0,0,0,0,0,0,0,0,0,0,0,0,0,0,0,0,0,0,0,0,0,0,0,0,0,0,0,0,0,0,0,0,0,0,0,0,0,0,0,0,0,0,0,0,0,0,0,0,0,0,0,0,0,0,0,0,0,0,0,0,0,0,0,0,0,0],"id":11,"left_children":[1,3,5,7,9,11,13,15,17,19,21,23,25,27,29,31,33,35,37,-1,-1,39,41,43,-1,-1,-1,45,-1,47,49,51,53,55,-1,57,-1,-1,59,61,-1,63,65,67,-1,69,-1,-1,71,73,75,77,79,-1,81,-1,83,85,-1,87,-1,89,91,-1,93,-1,-1,95,-1,97,-1,-1,-1,-1,-1,-1,99,101,-1,-1,103,-1,105,107,-1,109,-1,-1,-1,-1,-1,-1,111,-1,-1,-1,-1,-1,-1,-1,113,115,-1,117,119,121,123,-1,-1,-1,-1,-1,-1,-1,125,127,129,-1,-1,-1,131,133,-1,-1,135,-1,137,-1,-1,-1,-1,-1,-1,-1,-1,-1,-1,-1,-1],"loss_changes":[1.415703E1,3.874501E1,5.2199028E1,5.4038105E1,6.631532E1,1.1455078E1,7.09113E1,5.323472E1,5.1221558E1,2.7662277E0,2.3804785E1,3.874221E1,1.1900978E0,4.061146E0,3.4355247E1,2.6089678E1,1.860371E1,1.2733906E2,7.915588E1,0E0,0E0,4.751019E1,1.3676571E1,4.8021156E1,0E0,0E0,0E0,5.9206314E0,0E0,1.8927422E1,6.2775455E1,4.40944E1,2.1523546E2,2.786209E0,0E0,1.9816114E1,0E0,0E0,1.1625495E1,4.8261476E0,0E0,6.4356995E0,2.1619421E1,2.8607628E1,0E0,2.897915E0,0E0,0E0,4.155514E0,7.304039E0,1.1250145E2,7.5757996E1,4.9308563E1,0E0,1.5714633E2,0E0,1.2371445E0,1.5502129E0,0E0,2.9545212E1,0E0,3.3565137E0,8.101812E0,0E0,3.8533783E-1,0E0,0E0,4.8204575E0,0E0,1.5094566E-1,0E0,0E0,0E0,0E0,0E0,0E0,3.4356888E1,4.356028E1,0E0,0E0,8.9465065E0,0E0,8.856039E1,4.0073395E-2,0E0,1.194891E0,0E0,0E0,0E0,0E0,0E0,0E0,1.322996E0,0E0,0E0,0E0,0E0,0E0,0E0,0E0,4.9971264E1,4.031287E1,0E0,1.7292786E-1,2.9646467E1,6.638907E1,6.528719E1,0E0,0E0,0E0,0E0,0E0,0E0,0E0,